// Neural Network File Format by Kyle Julian, Stanford 2016
7,5,5,50,
5,50,50,50,50,50,50,5,
0,
0.0,-3.141593,-3.141593,100.0,0.0,
60760.0,3.141593,3.141593,1200.0,1200.0,
19791.091,0.0,0.0,650.0,600.0,7.5188840201005975,
60261.0,6.28318530718,6.28318530718,1100.0,1200.0,373.94992,
-3.01106e-01,7.26270e-03,-4.39130e-03,-1.12441e+00,-3.53643e-01,
-1.30990e+00,6.87894e-02,2.41869e-01,-1.83996e-01,-2.64588e-01,
7.14652e-02,1.48637e+00,2.20122e-01,3.88217e-01,-1.25796e-01,
3.88400e-01,7.83586e-01,-7.84514e-01,-3.69100e-01,2.61947e-01,
-5.16391e-01,1.95451e-02,5.76355e-03,2.30073e-01,-4.44341e-01,
1.35607e-02,1.63914e-03,2.76989e-02,-4.15427e-01,-4.24574e-01,
-1.46409e+00,-9.40962e-02,9.83347e-03,-1.03945e-02,5.63080e-03,
7.05249e-01,2.59379e-02,-3.35387e-01,-7.52126e-02,-1.27413e-01,
1.00280e-01,1.22759e+00,4.50461e-01,3.28450e-01,-1.93105e-01,
2.78390e-02,2.94293e+00,9.13156e-02,1.00464e-01,-5.76412e-01,
7.38702e-02,1.85286e+00,-1.80647e+00,1.53463e-01,-3.52133e-02,
-1.09834e-01,5.61189e-01,-1.79640e+00,6.63920e-02,-4.74710e-01,
7.89165e-01,1.23665e-02,-3.61794e-03,1.69184e-01,-2.74317e-01,
3.01940e-01,3.92867e-01,-1.50145e-01,2.83493e-01,4.47734e-01,
-9.88992e-02,-7.63000e-02,-3.92327e-02,-3.10435e-01,-2.23115e+00,
1.70495e-01,-2.18951e-01,1.47687e+00,-3.24463e-02,3.34733e-01,
1.10984e-01,-1.77511e-02,-3.67162e-02,-9.09737e-03,8.32388e-01,
1.33836e-01,-1.04930e+00,1.05463e+00,-1.10728e-01,6.25553e-02,
-1.02122e+00,1.03856e-01,-1.98044e-01,6.09796e-03,2.89842e-02,
-9.67302e-01,6.41636e-02,-1.88386e-01,-1.76462e-01,-1.48591e-01,
-1.48734e-01,-2.99488e-01,-3.86268e-01,2.78155e-02,-1.53634e-01,
-1.15707e-02,-2.20469e-01,2.17518e-01,-6.18844e-01,-5.57167e-02,
2.50369e-02,-2.61532e-01,1.55408e-02,-2.17013e-01,5.31550e-02,
-2.97363e-01,-9.89528e-02,-1.17314e+00,5.22158e-02,5.14194e-02,
3.85615e-02,-2.56337e-01,4.04464e-01,-2.09161e-01,1.12609e-01,
-3.58019e-02,9.05253e-01,1.36337e-01,-3.12061e-01,8.61710e-02,
7.03014e-01,-1.94173e-02,9.74037e-02,5.21036e-01,-1.07878e+00,
2.35432e-01,-5.39097e-01,7.59212e-01,2.48703e-01,-1.47566e+00,
-1.33710e+00,-2.06968e-01,1.84446e-01,1.87431e-02,-9.46991e-03,
6.97755e-02,-2.33086e+00,1.54354e-01,4.11665e-01,-8.83174e-01,
1.25539e-02,-7.29062e-02,-2.31938e+00,1.65338e-02,1.15731e-04,
-2.91034e-02,3.96088e-01,-6.03243e-01,-4.28207e-02,9.24767e-02,
-1.64023e-01,3.36119e-02,3.06308e-03,2.31416e-01,2.03947e-01,
6.81226e-01,2.04715e-02,4.41854e-02,-1.12098e+00,7.87764e-01,
1.19940e+00,8.30484e-04,6.97700e-04,9.39011e-04,-1.16012e-03,
-7.07342e-01,1.19594e-01,6.57851e-02,1.62300e-02,5.10278e-02,
-2.49997e-02,8.34014e-02,1.74898e+00,5.40225e-02,-3.28275e-03,
-7.05872e-01,-1.64289e-01,-5.08504e-01,-2.34657e-01,1.64345e-01,
-8.95219e-01,1.03046e-01,7.10966e-01,-4.78970e-01,2.07375e-01,
3.59297e-02,-2.38994e+00,-6.93660e-02,2.50857e-01,1.07158e-01,
-2.26097e-01,-7.84611e-02,4.48780e-01,3.55409e-01,-6.35525e-01,
5.14836e-01,2.64825e+00,-3.27460e-01,-4.95589e-02,9.02581e-02,
-6.03091e-02,3.21259e-01,-5.02222e-01,-5.47138e-01,-4.30083e-02,
-1.55288e-01,-5.11432e-02,2.20405e-02,-6.42952e-01,6.86304e-01,
2.29631e-01,1.23999e+00,-4.37609e-02,4.03977e-01,-8.80937e-01,
-1.35045e+00,2.79067e-02,6.68108e-04,-7.34679e-04,1.70593e-02,
-1.39448e+00,2.94018e-02,1.00662e-01,1.46507e-02,-5.23139e-02,
6.38483e-03,1.79030e-02,-1.18344e-01,-4.73456e-01,-9.54029e-03,
-2.42151e-01,1.12700e-01,-4.06032e-01,2.37551e-01,-4.64344e-01,
-1.49523e+00,-6.86803e-03,2.60107e-05,1.65515e-03,-1.98931e-03,
-5.82601e-01,
-3.17031e-01,
1.42215e-01,
3.85993e-01,
-6.31624e-02,
-1.09523e-01,
-3.91934e-01,
8.36099e-02,
-5.32814e-02,
-1.92482e-01,
-5.80952e-01,
-3.19831e-01,
2.90661e-01,
-9.32662e-02,
-9.27420e-01,
5.15823e-02,
-2.07015e-01,
5.24405e-01,
-2.24729e-01,
-1.75795e-01,
6.59616e-02,
-1.94438e-01,
4.94131e-02,
-3.21407e-02,
1.29294e-01,
1.42858e-01,
1.43421e-01,
-4.74220e-01,
-2.71940e-01,
-2.21504e-01,
3.28020e-02,
2.93644e-01,
1.24392e-01,
-4.61646e-02,
3.83307e-01,
-1.35748e-01,
2.42916e-02,
-1.64894e-01,
-2.36230e-01,
1.91132e-01,
2.61561e-02,
6.97140e-01,
-2.11810e-02,
4.47590e-02,
-1.36621e-01,
-2.00872e-01,
-3.78098e-01,
1.31319e-01,
7.69189e-03,
-4.17564e-01,
1.29810e-01,-5.80760e-02,-1.52697e-01,3.27266e-01,-1.12904e-01,-1.99080e-01,-1.69531e+00,-1.26122e-01,3.00371e-01,-8.37960e-02,-9.42001e-02,2.21364e-01,5.02629e-01,2.60164e-02,1.69036e-01,1.26747e-01,3.50231e-02,2.75797e-01,-1.05524e+00,5.00202e-02,7.16299e-01,1.79511e-01,6.42805e-02,-1.61332e-01,1.85113e-01,2.44960e-01,1.21444e-02,-1.16207e-01,-5.81932e-01,8.33521e-02,1.47004e-01,2.41215e-01,5.54158e-01,-3.03473e-01,2.64913e+00,6.76245e-02,-5.54145e-02,1.99338e-01,-2.06549e-02,2.57197e-01,6.35408e-02,2.15446e-01,-1.52310e-01,-4.27696e-02,9.82882e-02,-9.91904e-01,-4.04135e-01,2.50000e-01,-1.84965e-01,-2.54637e+00,
5.12487e-03,-1.10295e-03,9.40105e-03,-3.38701e-02,-4.09220e-02,-4.26209e-02,2.48988e-02,9.85736e-03,-2.57598e-02,-1.72010e-02,-3.04067e-02,7.91283e-03,-1.43943e-02,2.87977e-02,-1.95159e-02,-4.99280e-02,-2.12388e-02,2.32446e-02,2.10402e-02,-3.88422e-02,-1.04995e-02,6.64553e-03,3.02777e-02,-1.18496e-02,1.90779e-02,-6.43331e-02,9.88233e-04,3.41886e-02,2.82577e-02,-1.99262e-02,1.09570e-02,-4.01950e-02,-4.26103e-03,-8.78367e-03,-6.11151e-02,-1.88698e-02,-4.95219e-02,2.53129e-03,-1.78618e-02,-2.02330e-02,2.59513e-02,-7.78944e-03,3.76586e-02,2.26680e-02,-3.11979e-02,2.04383e-02,-3.30925e-02,2.01333e-02,-7.64644e-03,2.40274e-02,
5.94618e-01,-2.66645e-02,6.38059e-02,-6.70702e-01,-5.25951e-01,1.19576e+00,3.14891e-01,1.05983e+00,3.60734e-01,2.83180e-01,-9.82304e-01,2.94121e-01,-3.20668e-01,5.19814e-01,-5.65587e-01,-3.00406e-01,-1.09398e-01,3.09070e-01,-5.63832e-02,7.86572e-03,-1.08977e-01,1.56797e-01,2.82608e-01,1.39089e-01,5.81855e-01,3.46032e-01,-8.78685e-01,5.66564e-01,5.18787e-01,5.64479e-01,3.51142e-01,2.97127e-01,-9.99207e-01,-1.91121e-01,-1.43946e-01,-1.00512e-01,1.74170e-01,-1.13103e-01,-4.21897e-01,4.53935e-01,-1.78518e-01,7.45969e-01,-2.96615e-02,1.07697e+00,3.05806e-01,-1.08488e-01,-1.43065e+00,5.50024e-01,6.61377e-03,2.13341e+00,
1.77497e-01,8.94888e-02,-6.49915e-01,-9.55544e-01,-2.76318e-01,-2.59050e-01,-6.58591e-01,-3.31126e-02,-4.57188e-02,-3.92979e-01,-4.61955e-02,-8.37275e-03,1.39336e-01,-8.91269e-01,-2.10247e-01,3.78298e-01,-6.56962e-03,2.21635e-01,-1.39306e+00,6.70498e-02,-5.78201e-01,8.19484e-02,-4.13704e-01,8.20098e-01,-3.61882e-02,-2.58109e-01,-1.30682e-01,-3.22024e-01,3.86020e-02,9.73697e-02,-2.72249e+00,-9.55225e-01,-5.64381e-01,-9.31279e-03,-4.80391e-01,2.48836e-01,1.12909e+00,4.55507e-01,-6.59086e-01,1.34380e+00,1.94856e-02,-1.35403e-01,3.78458e-01,4.60203e-01,3.19354e-01,-3.19323e-01,4.21771e-01,6.69229e-01,1.86878e-01,-5.91038e-01,
4.17928e-01,-1.43451e-01,6.83740e-01,5.17528e-01,3.25534e-01,-2.73227e-01,3.44870e-01,2.80937e-02,-9.63646e-02,-5.44195e-02,1.63613e+00,-6.81167e-01,-1.25439e-01,-6.62887e-02,-1.42082e+00,-1.42172e+00,2.70036e-01,-2.08760e+00,6.04426e-02,-1.79673e-01,1.45196e-01,-1.04731e+00,-4.01576e-01,3.68509e-01,-1.23391e+00,4.83295e-01,-1.88054e-01,8.86065e-01,8.92855e-01,-1.59239e-01,6.30529e-01,5.27489e-01,-5.14940e-01,3.19331e-01,-5.15274e-02,2.56597e-01,-3.86847e+00,2.08827e-01,-7.71011e-01,-5.45642e-01,5.59467e-03,6.08237e-01,-9.97609e-02,-9.52658e-02,-4.04786e-01,3.78003e-01,-1.45823e-02,-3.77153e-02,3.85513e-01,4.47874e-01,
-1.54642e+00,-7.03598e-01,1.32109e+00,-3.04148e-01,2.49516e-01,1.29595e+00,9.26253e-01,-5.82490e-01,-2.85270e-01,-6.86271e-01,7.52934e-01,-4.24332e-01,1.98713e-02,-9.05772e-02,5.31576e-01,-3.42502e-01,3.96498e-01,-2.01014e-02,-4.99715e-01,-8.69182e-01,1.00384e+00,-7.83815e-02,8.59994e-01,-6.24890e-02,2.03844e+00,-8.08653e-01,-5.75806e-01,-7.60178e-01,3.42286e-01,2.10338e-01,2.13682e-01,1.44198e+00,-9.73652e-01,-3.89646e-01,5.07913e-01,-4.29543e-01,1.92398e-01,-1.39472e+00,-5.86828e-01,2.10529e-01,8.90299e-01,-4.79579e-01,-4.93804e-01,-2.92874e-01,5.64795e-01,1.08660e-01,-5.08754e-01,-1.79766e+00,-1.26559e-03,9.74565e-01,
5.51700e-01,6.37364e-02,-1.28434e-01,-4.21433e-01,2.02455e-01,8.58651e-01,3.05201e-01,2.33505e-01,-1.76675e-02,5.62732e-01,-1.35052e-01,-1.33257e-02,-2.69582e-01,-3.13658e-02,1.35576e+00,-3.34947e-01,-9.75776e+00,2.30058e-01,-1.29542e-01,-1.02254e-02,2.63534e-02,-5.14576e-01,3.82277e-01,4.89537e-02,-3.85709e-01,-1.39371e-01,4.33478e-01,-1.50716e-01,-1.33189e-01,4.92653e-01,9.14875e-03,3.90689e-01,-1.46963e+00,-1.86242e-02,1.47976e-01,1.48343e-01,4.45725e-02,-1.56356e-01,1.37247e-01,-6.30200e-01,-3.26829e-03,-3.62930e-01,2.49805e-01,-7.08981e-01,-2.26935e-01,1.75242e-01,6.70918e-01,3.44765e-01,1.80406e-01,-3.19907e-01,
-8.65328e-02,3.60616e-01,-5.44820e-01,-1.19290e+00,-3.13373e-01,-2.03486e-01,-3.97779e-01,3.14311e-01,4.16491e-01,5.30831e-02,8.58289e-01,6.69931e-01,5.55314e-01,4.77574e-01,-2.15500e-01,8.79531e-02,-7.10199e-02,1.35197e-02,4.75697e-01,-4.73311e-01,3.74963e-01,7.80479e-02,-1.05492e-01,-3.28221e-01,1.77924e-01,-1.08766e+00,4.20528e-02,-7.51041e-01,5.37586e-01,-6.39048e-02,1.02577e+00,-8.16816e-01,-2.52998e-01,3.07001e-01,3.57779e-01,1.34760e-01,4.89390e-01,5.73451e-01,1.62650e-01,-4.13916e-02,2.03245e-01,-4.15265e-01,5.45483e-01,5.95917e-01,4.49042e-01,2.91840e-01,2.96534e-01,3.54648e-02,-1.13936e+00,7.94960e-01,
-4.17151e-01,-2.84707e-01,3.81201e-02,8.32822e-01,2.60203e-02,-5.69934e-01,1.80213e+00,3.17015e-01,5.43249e-01,4.43535e-01,-3.25932e-01,4.51134e-01,3.72727e-01,-6.60078e-02,2.26716e-01,-3.45023e-01,3.34017e-01,4.06811e-01,1.04596e+00,-5.98071e-02,1.75903e+00,8.10934e-01,7.72821e-01,-3.73429e-02,2.29230e-01,4.73341e-01,1.40296e-01,-1.24743e-01,-4.23523e-01,2.95960e-01,-7.19684e-01,3.18872e-01,-7.75909e-02,-1.03326e-01,2.30036e+00,6.23218e-02,1.04045e-01,9.82848e-01,5.49725e-01,4.92613e-01,-8.03358e-02,2.35712e-01,-4.11911e-01,-5.47829e-01,-1.13441e-01,5.06128e-02,-4.76836e-01,-9.48863e-01,-5.45097e-01,-1.78185e+00,
3.99324e-01,-9.49353e-02,-2.53227e-01,-9.50808e-01,9.60312e-02,-2.11786e-01,9.31377e-02,-1.61620e-02,-4.15685e-01,-1.59140e-01,1.78007e-01,7.73624e-02,6.07891e-02,-2.53614e-01,-6.92139e-01,9.65412e-01,6.83713e-02,8.82740e-01,-1.12169e+00,1.94548e-01,8.57441e-01,4.35926e-01,-4.06232e-01,-3.15948e+00,2.67386e-01,-6.71192e-01,1.17885e-01,-5.35352e-01,2.85834e-01,-3.18008e-01,-3.05130e-01,-3.28244e+00,4.97502e-01,3.33199e-01,2.92263e-01,-1.92628e-01,8.40090e-01,5.60459e-01,-9.35628e-02,5.11479e-01,-7.81849e-02,-6.86366e-01,-1.02017e+00,-1.38589e-01,-4.99319e-02,-1.60527e-01,4.28300e-02,1.29135e-02,-8.94160e-01,9.46024e-02,
1.60600e-01,4.96775e-02,7.12464e-01,1.05590e+00,1.17219e-01,2.01676e-01,-1.06255e+00,1.36951e-01,-5.20302e-01,-4.70815e-01,1.77342e+00,1.47653e+00,9.05765e-02,-3.16821e-01,1.32030e+00,1.07242e+00,5.24196e-01,4.59660e-01,1.18123e+00,4.92314e-01,-6.45986e-01,-8.49334e-01,1.04593e-01,4.37932e-01,-2.79780e-01,-9.53696e-01,1.93318e-01,-9.59239e-02,4.67533e-01,1.71767e-01,6.02834e-01,-8.65197e-02,9.12716e-02,-2.34162e-01,-5.05158e-01,-4.25160e-01,3.85451e-02,5.63155e-01,-1.97989e-01,-9.09835e-01,1.24058e+00,3.93661e-01,-2.76257e-01,8.96478e-03,-5.89561e-01,-9.62310e-01,1.81668e+00,-3.64790e-01,-6.88808e-01,-1.73665e+00,
1.39291e-04,-4.62589e-03,-2.50126e-02,-3.63974e-02,-2.46345e-02,2.03855e-02,-2.08799e-02,-8.49695e-03,-2.91929e-02,-3.34573e-02,1.67296e-02,3.66411e-02,2.24221e-02,6.33688e-03,-2.45299e-04,-7.97803e-03,-4.80253e-02,1.82854e-02,-5.48253e-02,-4.25792e-02,-3.29006e-02,-4.67730e-02,1.68960e-02,-3.84443e-02,-1.26659e-02,-3.03996e-02,-4.88026e-04,1.54279e-02,1.18791e-02,3.48895e-02,-7.27253e-03,-4.57035e-02,-1.98040e-02,-3.11218e-02,-1.46602e-02,9.68776e-03,-4.94589e-02,1.09684e-02,1.91881e-02,-4.49698e-02,-2.24487e-02,-3.93751e-02,8.68470e-03,2.93075e-02,-4.25485e-02,2.67245e-02,4.11352e-04,2.08040e-02,-5.39212e-02,3.81493e-02,
-8.67355e-01,8.01727e-01,-3.33224e-01,2.26035e-01,-1.43252e-01,1.09069e+00,-4.44558e-01,-7.76232e-01,2.57327e-01,-3.82021e-04,-1.76622e+00,6.63499e-01,2.00736e-01,2.83256e-01,1.86743e+00,-2.17696e-03,-1.98605e+00,2.28265e-02,-6.52698e-01,-9.46835e-02,-1.08329e-01,7.64596e-01,7.66359e-01,-1.51056e-01,6.16394e-01,-6.57396e-01,8.96415e-01,3.73138e-01,-8.45292e-01,8.64990e-01,-4.14824e-01,2.07167e-01,-1.87762e+00,2.80394e+00,-1.15427e+00,-6.49913e-01,-1.02439e+00,5.82377e-01,-2.64527e-01,-8.44961e-01,5.03229e-02,5.68943e-01,2.80958e-01,-3.38865e+00,8.33549e-01,-3.50428e-02,-3.28970e-01,-1.83346e+00,8.44352e-02,-1.84369e+00,
9.70792e-01,7.55552e-01,2.72887e-01,-5.20630e-01,-4.06896e-01,3.00203e-01,1.31735e+00,2.35327e+00,4.18200e-01,-6.21976e-01,8.54280e-01,-1.30671e+00,-1.22459e+00,-2.28692e+00,1.20558e+00,-1.35821e-02,-9.86006e-01,1.26133e-01,1.09779e+00,-4.62116e-02,1.83037e-02,5.34927e-01,3.12803e-01,1.16186e+00,3.33198e-01,-5.51013e-01,2.16748e-01,5.85827e-01,-1.26835e-01,-1.02991e-01,1.06481e-01,2.10550e-02,-9.71005e-01,-5.07890e-01,-7.13612e+00,-4.74023e-02,3.47946e-01,4.78070e-01,6.46478e-01,-1.75615e-01,-5.73041e-01,1.64198e-01,1.94156e-01,-3.48333e-01,3.87039e-01,-9.61210e-02,9.46486e-01,-6.79291e-01,-4.22954e-01,1.67001e+00,
-3.73401e-01,-1.03203e-02,2.56869e-01,3.61568e-01,1.46933e-01,4.66014e-01,4.21703e-01,1.35031e-01,-2.25956e-01,2.44865e-02,-1.94602e+00,-5.12888e-02,1.40023e-01,-4.16433e-01,6.50543e-01,5.57343e-02,3.38979e-01,-4.56369e-01,1.48798e-01,1.95206e-01,-6.94539e-02,5.19213e-01,-9.00250e-01,7.31521e-01,1.05570e-01,-1.40973e-01,4.97309e-01,3.87757e-01,-1.48883e-01,-2.63588e-01,-7.75891e-02,7.02649e-01,-3.31017e-01,-1.77353e-02,6.88483e-01,1.67866e-01,-9.69295e-01,-4.22243e-02,-3.60503e-01,-5.65228e-01,1.30528e-01,1.72512e-01,-1.20723e-01,-3.86129e-01,-1.02122e-02,1.13032e+00,-9.85622e-02,-3.56304e-02,-3.03794e-01,1.13145e+00,
-1.56008e-01,-3.40878e-01,-1.56307e-01,-2.52440e-02,4.57784e-01,5.29350e-01,-1.67471e+00,2.90587e-01,1.54173e-01,3.08536e-01,-2.81719e-01,1.03054e+00,-7.05467e-01,-2.58378e-01,-7.31899e-01,-1.35465e-01,-3.03194e-02,-2.00605e-01,-2.72016e-01,3.98008e-01,4.32115e-01,2.86694e-01,1.30508e-01,-7.01459e-01,2.88165e-01,-1.06244e-01,-7.03224e-01,-5.37662e-01,-6.94759e-01,-2.82040e-01,-1.03469e+00,3.73015e-01,1.34548e+00,-1.15967e+00,1.03646e+00,-2.24515e-01,-3.11664e+00,3.66747e-01,3.27169e-01,2.16797e-01,8.69541e-01,-7.78983e-02,-7.38910e-01,-2.63223e-02,3.46368e-02,-5.98724e-01,1.45375e+00,4.15246e-01,5.43988e-01,9.47096e-01,
8.32314e-01,1.64729e-01,-1.58498e-01,-3.97517e-01,4.38692e-02,2.01077e-01,1.63715e+00,2.09355e+00,9.68987e-02,1.20868e-01,1.20853e+00,-4.35125e-01,-3.35557e-01,1.67378e-01,2.30244e-01,-7.12653e-01,9.21274e-01,-1.71727e-01,2.82759e-01,-3.90184e-03,2.00178e-01,-6.55599e-01,2.07336e-01,1.40720e-01,1.38635e-01,6.73204e-01,-1.16663e-01,-5.32288e-02,4.10847e-01,2.69440e-01,1.56515e-01,-6.32218e-01,-3.24214e-01,-3.11724e-01,-3.86980e+00,4.01191e-01,-2.66933e-01,4.61705e-01,6.15371e-01,3.72881e-01,-1.87613e-01,-8.51108e-02,-7.01433e-01,4.50909e-01,-4.51580e-01,7.60222e-01,1.17572e+00,-5.31989e-01,5.61418e-01,2.80263e+00,
2.44521e-02,-6.14955e-02,2.75032e-01,-6.91143e-01,1.29787e+00,8.54840e-01,-7.44472e-01,6.63908e-01,-4.50203e-01,8.20439e-01,-1.72115e+00,5.70963e-01,-8.13011e-01,1.74929e-01,1.94945e-01,3.87117e-01,4.11389e-01,-2.38521e-01,-7.63785e-01,2.92536e-01,-2.58701e-01,-1.68504e+00,-4.23017e-01,-1.55258e-02,4.13630e-01,1.25128e-01,8.87911e-01,-1.25159e+00,1.79151e-01,-2.27352e+00,-9.13210e-02,1.28280e-01,-2.07356e-01,-2.30209e-01,2.23662e-01,-9.64641e-01,1.45351e-01,-8.52706e-01,-1.43948e-01,-1.42826e+00,5.23650e-01,4.65785e-01,-1.35603e+00,-1.03645e-01,3.39228e-01,-8.73346e-01,-3.28420e-01,-7.31046e-01,1.67502e+00,-8.82337e-01,
-1.67236e-02,-2.42294e-01,3.64063e-01,-5.54242e-03,-7.49577e-01,2.44445e-01,3.86884e-01,9.02663e-01,4.25169e-01,8.00700e-02,-1.06918e+00,1.02517e+00,4.77408e-01,5.51544e-02,3.74719e-01,7.85579e-02,3.74642e-01,6.92861e-01,-7.63329e-01,-2.56469e-01,-1.90903e-01,1.87866e-01,4.23586e-01,-1.06759e-01,2.23626e-01,5.36274e-01,3.66601e-01,5.06206e-01,1.55003e-02,4.62817e-01,3.65971e-02,-5.79751e-01,2.43951e-01,2.74704e-01,2.74177e-01,1.43788e-01,-1.44259e+00,2.28050e-01,-1.74440e-01,-1.01587e+00,-3.17829e-01,1.48316e-01,-7.24011e-02,-5.74249e-01,5.40836e-02,-1.24933e+00,-9.16937e-01,-7.59745e-01,-2.36018e-01,-5.43691e-01,
-4.42519e-03,1.32626e-02,-1.52485e-02,2.26492e-04,-3.51809e-02,-4.28004e-02,-3.49476e-02,-2.77078e-02,-2.28266e-03,4.02704e-02,-3.44831e-02,-2.73563e-02,-1.88058e-03,-3.91485e-02,2.78979e-02,-1.92250e-02,2.30952e-02,1.34309e-03,2.91997e-02,-2.30276e-02,-4.62101e-02,3.63940e-02,3.80048e-02,4.38410e-03,-3.02550e-02,2.60010e-02,-4.40209e-02,2.91009e-02,-4.07468e-03,3.20760e-03,-4.65268e-02,-4.03582e-02,1.00518e-02,2.40282e-02,3.19274e-03,1.36580e-02,4.27096e-03,4.61869e-02,-4.24456e-02,-5.14556e-02,4.51622e-02,-3.71545e-02,-5.47224e-03,-3.27631e-02,-2.59100e-02,7.90981e-03,-2.92672e-02,4.35693e-02,-5.06730e-02,-5.05674e-02,
4.30714e-01,-8.19932e-01,-1.90589e-01,1.22660e+00,3.23414e-01,4.21679e-01,1.13686e+00,-2.90382e-01,-3.86121e-01,2.74037e-01,-1.71901e+00,-1.75346e-01,2.53165e-02,1.58088e-01,-2.67823e-02,2.05987e+00,5.91487e-01,-7.61691e-01,4.09245e-01,-3.22275e-01,-9.62916e-01,-7.24505e-01,-2.91182e-01,-4.83719e-01,-2.59004e+00,3.74681e-01,7.37276e-01,-7.73645e-01,-3.61315e-01,-3.94375e-01,-4.86969e-01,2.29732e-01,-6.37334e-01,-4.57948e+00,-1.57099e+00,1.94758e-01,-1.82274e-01,-1.20245e+00,-2.38133e+00,-3.13047e-01,9.60996e-01,3.50163e-01,1.36676e+00,-2.14806e+00,4.84017e-01,1.24007e-01,4.69506e-01,-8.69901e-01,-1.75389e-01,1.27156e+00,
-2.36166e-02,8.09547e-03,-7.28602e-02,-3.55658e-02,-5.33612e-03,3.44063e-03,6.24726e-03,-3.18972e-02,-3.62522e-02,-4.50460e-02,-3.84352e-02,7.12864e-03,-4.00396e-02,5.48608e-03,9.49725e-03,4.61409e-02,-6.36202e-02,-4.41756e-02,2.07805e-02,-4.01007e-02,-5.19110e-02,-4.86850e-03,-3.47448e-02,3.30355e-02,1.95608e-02,-2.89351e-02,-2.44696e-02,-2.35835e-02,-3.19728e-02,-1.88648e-02,2.66414e-02,1.25480e-02,-3.31627e-02,-5.20334e-02,-1.08366e-02,-2.93903e-02,7.04311e-03,1.53819e-02,7.13322e-03,7.43890e-03,1.37991e-02,-3.79032e-03,-5.37824e-02,-3.07435e-03,-8.56621e-03,-4.92296e-02,-4.71948e-02,-1.17803e-02,2.50183e-02,2.58227e-02,
2.10828e+00,-3.30535e-02,7.61679e-01,-3.17713e-01,-2.40751e-01,6.67059e-01,8.57987e-03,9.29584e-01,-2.30363e-01,-1.83943e-01,1.82484e-01,-4.09864e-01,-4.17139e-01,6.85285e-01,2.21918e+00,6.97517e-01,3.75152e-01,-2.47204e-01,-5.19981e-01,4.43015e-01,1.57480e-01,6.32481e-01,5.27298e-01,-3.75899e-02,-8.35964e-01,-2.70254e-01,-4.60872e-01,3.80979e-04,1.28975e-02,1.49476e-01,2.87921e-01,-4.42266e-01,2.87457e-01,4.84821e-01,-5.44837e-01,-1.54466e-01,4.51497e-01,-4.37850e-01,-3.76393e-01,-5.05820e-01,-2.85466e-01,-1.20914e-01,5.90540e-01,1.67248e-01,4.71334e-01,-7.18838e-02,-4.54755e-02,4.05206e-01,2.91060e-01,3.17154e-01,
-7.24528e-01,-3.50699e-01,-3.08863e-01,1.18871e-01,-8.92632e-02,-1.07673e-01,3.10845e-01,-1.36942e-01,-8.31245e-01,-2.13046e+00,-3.39503e+00,-1.13507e+00,9.06595e-02,-5.69964e-01,7.29136e-01,4.25606e-01,3.39894e-01,-4.55158e-01,5.49184e-01,5.47083e-01,-7.93694e-03,3.83446e-01,-3.54887e-01,1.94696e-01,1.18347e-01,-7.12028e-02,4.56274e-01,7.05445e-01,1.03201e-01,5.31189e-01,1.14076e+00,7.49159e-01,-2.88939e-01,5.54526e-02,1.64932e-01,-8.10765e-01,3.56912e-02,2.68795e-02,-2.29129e-01,-2.74297e-03,2.16140e-01,-4.82604e-01,-2.94078e-01,-5.27263e-01,-8.88116e-01,-2.90375e-01,-1.04771e+00,-2.74246e-01,5.28304e-01,-3.65774e-01,
-3.44715e-01,-2.74964e-01,2.08925e-01,7.72844e-02,-3.00215e-01,-3.22874e-02,-1.01187e+00,-3.39593e-01,-3.55656e-01,3.73689e-01,-6.56668e-01,1.18988e-01,5.41210e-01,-5.19755e-01,-1.65702e-02,1.45804e+00,-5.16227e-02,-2.09005e-02,-3.46736e-01,1.69186e-01,8.47610e-02,4.37099e-01,-1.98296e-01,-5.33526e-01,1.98859e-01,-2.82128e-01,-1.84292e-01,1.02442e-01,3.74629e-01,-2.31418e-02,4.20828e-01,-3.48674e-01,2.02759e-01,-2.72395e-01,-3.27713e-01,-2.44051e-01,3.26913e-01,-4.01508e-01,-2.15348e-01,-3.23528e-01,-1.55194e-01,-2.80612e-02,-1.50237e-01,-9.95448e-02,3.85002e-01,1.50835e-01,-1.31785e+00,1.61767e-01,1.89288e-01,9.76130e-01,
2.71622e-02,-3.25318e-01,8.36591e-01,4.67426e-01,-8.93782e-01,5.64993e-02,1.15038e+00,6.25999e-01,7.71754e-01,2.66990e-01,-4.66743e-01,-7.11452e-01,-5.38352e-02,4.55989e-01,-5.93190e-01,-1.22008e+00,8.09221e-02,-9.44663e-02,-3.63522e-01,-6.72674e-01,1.13029e+00,5.67041e-01,8.57810e-01,-1.05029e+00,5.06956e-02,2.81563e-01,-3.30356e-01,5.43756e-01,8.18993e-01,-1.12720e-01,-3.07444e+00,1.16346e-01,-1.24423e-01,-1.68352e-01,1.82625e-01,3.55814e-01,-1.04460e-01,-1.10197e+00,1.03218e+00,1.15516e+00,1.84141e-01,3.38119e-01,-2.36122e-02,-1.66084e-01,-1.05416e+00,-4.00167e-01,9.61453e-01,2.62816e-01,-1.16424e+00,-8.11845e-01,
3.83284e-02,-2.92615e-01,-2.03220e-01,1.55718e-01,3.73638e-01,-1.07700e+00,1.34552e+00,-2.60786e-01,3.56221e-01,-1.03714e-01,1.16549e-01,-1.65337e-02,-7.84686e-02,5.41876e-01,-6.16400e-02,-1.62278e-01,2.47780e-01,3.78587e-01,-7.05476e-01,6.69290e-01,1.02240e+00,-4.42671e-01,1.25911e+00,2.01496e-01,-2.25552e-01,1.58537e-01,-3.77600e-01,-3.27766e-01,1.01575e-01,-2.56663e-01,6.48916e-01,-4.49265e-01,-1.94228e+00,2.31052e-01,3.02102e-01,2.28866e-01,8.90462e-01,-1.25988e-01,-5.36474e-01,-4.39202e-01,2.96128e-01,-2.23962e-01,2.88151e-01,3.61204e-01,-3.11572e-01,3.05452e-01,3.04578e-01,-1.72869e-01,8.94138e-01,2.32508e-01,
-3.72334e-02,2.21036e-01,-8.48579e-02,1.45751e-01,-1.87705e-02,8.94898e-02,1.79265e+00,-3.51424e-01,1.04890e-01,-1.19217e-02,6.43529e-02,3.79134e-02,1.38881e-01,1.93879e-02,2.33554e-03,8.70590e-02,6.50925e-02,4.15496e-02,-1.34702e-01,2.27416e-01,1.37930e-01,9.01772e-02,-2.82333e-01,-1.55983e-01,1.60729e-02,2.32971e-02,6.78679e-02,7.92951e-02,7.84456e-01,-2.85167e-02,-1.94658e-03,6.95012e-02,2.82373e-01,-5.81843e-02,-7.02292e+00,1.20699e-01,-6.35039e-02,8.93987e-02,-2.48502e-01,-6.15931e-03,-1.97526e-02,6.50456e-02,1.31467e-02,8.43302e-02,-9.14527e-02,2.69651e-01,9.36724e-01,1.29617e-02,1.40505e-01,2.18736e+00,
1.60245e-01,6.69780e-02,4.59403e-02,-8.49497e-02,-2.14618e-02,-1.94316e-03,2.66751e-01,9.12789e-02,1.14662e-01,9.28340e-02,2.12049e-01,-4.31969e-02,-9.28726e-02,-1.65194e-01,1.13336e-01,-2.79838e-04,-3.80332e-01,-2.21208e-02,8.07277e-02,-2.06496e-02,5.30593e-02,-3.62055e-02,-3.77009e-01,-1.74173e-01,-6.08670e-02,9.73588e-03,5.34567e-02,4.28442e-01,-7.04444e-02,-3.14135e-01,-1.40720e-01,-3.68077e-02,-1.10494e-01,-1.36788e-01,-3.84102e-01,-7.03817e-02,3.58031e-02,-6.14412e-02,7.60368e-03,-3.56101e-01,1.79626e-02,-1.66386e-02,1.02020e-01,1.65570e-01,1.77030e-01,-1.16191e-01,6.47186e-02,-1.00849e-01,6.57545e-02,2.54932e-01,
2.01650e-02,1.99222e-02,2.59110e-02,-5.95773e-02,-3.95142e-02,2.70566e-02,-1.84710e-02,1.57377e-02,-4.08865e-02,2.97608e-02,-3.71785e-02,1.00634e-02,-8.54785e-03,-4.59666e-03,-2.26945e-02,-5.29471e-03,3.44273e-02,2.97759e-02,-3.67326e-04,3.48758e-02,-4.62249e-02,-2.69139e-02,-1.04103e-03,-4.32339e-02,2.18056e-02,-8.56613e-03,-4.16902e-02,-3.97406e-02,-1.93361e-02,-2.86823e-02,-2.18657e-02,-2.76655e-02,2.43336e-02,1.88696e-02,-1.11683e-02,3.70247e-02,-3.02443e-02,1.79780e-02,-5.51806e-02,-5.08126e-02,-3.10106e-02,7.34902e-03,-3.80547e-02,2.93481e-03,1.58039e-02,-2.77748e-02,-1.02723e-02,2.72363e-02,-3.30281e-02,-4.66470e-02,
1.96942e+00,-4.76093e-01,2.85433e-01,2.12890e-01,-1.21207e-01,8.17522e-01,-1.36743e+00,-7.82291e-02,1.12128e+00,1.80006e-01,-7.54551e-01,8.23877e-01,-3.81990e-02,5.10207e-01,-1.17752e+00,1.11254e+00,-9.91637e-01,-1.49814e+00,3.95476e-01,3.61041e-01,-1.15560e+00,6.22672e-02,1.27453e+00,4.78132e-01,2.61537e+00,3.75786e-01,-1.85271e+00,3.15234e+00,-2.83457e-01,4.89689e-01,-3.54309e-01,-2.42817e-01,-3.99887e-01,1.00355e-01,-3.22799e-01,1.80720e-01,-1.63792e+00,-4.04665e-01,7.84789e-01,9.63170e-01,-3.20443e+00,2.11297e-01,9.79744e-01,3.28838e-01,3.32386e-01,-7.51915e-01,-1.20021e+00,2.49232e-01,-1.34726e+00,2.22699e+00,
1.03889e+00,-8.27127e-02,-5.03676e-02,-7.77702e-01,1.00881e+00,1.74036e-01,-9.68799e-01,6.93320e-01,-8.95953e-01,-1.58939e+00,-2.00470e-01,-2.36572e-01,-8.47589e-01,-4.80915e-01,7.36144e-01,7.68208e-01,-1.58217e-01,-1.61597e+00,-2.02981e-01,9.14843e-03,-2.98634e-01,-4.57917e-01,9.63720e-01,2.71937e-01,-1.48882e+00,-1.22864e-01,-4.96397e-02,-6.54694e-01,-1.67148e-01,-7.52179e-01,3.08897e-01,1.61555e-01,1.77015e-01,-2.75409e-01,1.04214e+00,3.33456e-01,7.96882e-01,1.88373e-01,-7.41716e-01,1.37843e+00,-5.02398e-01,-4.44151e-01,5.48685e-01,8.55579e-01,-1.21160e-02,-4.37801e-01,1.94212e+00,-8.92640e-01,8.24055e-01,-7.01623e-02,
2.98543e-01,-9.12084e-02,3.34947e-01,2.57375e-01,-6.06099e-01,-1.75457e-01,7.43089e-01,-3.04140e-01,6.17018e-02,-1.85459e-01,8.64402e-02,-2.01712e-01,5.81131e-01,1.44907e-01,-4.93089e-01,-1.53455e-01,-1.79180e-01,-8.16632e-01,4.95653e-01,3.14159e-02,-2.92070e-01,-3.77769e-01,2.30583e-01,3.06257e-01,-4.37515e-02,2.55452e-01,-1.78034e-01,3.75192e-02,-2.27975e-02,1.73237e-01,4.77337e-01,3.37953e-01,8.72199e-01,-9.16096e-02,-2.62175e-01,4.35964e-02,-1.22038e+00,3.66578e-02,-1.25697e-01,-4.55820e-01,3.64352e-01,2.37514e-01,3.56152e-01,1.94089e-02,-2.35007e-01,2.58032e-01,4.75596e-01,1.28792e-01,-1.46117e-01,1.19754e+00,
-6.97558e-03,-3.59397e-02,-3.14601e-02,1.35206e-03,-3.19650e-02,1.23602e-02,-2.26283e-02,9.19630e-03,-3.29812e-02,-5.02911e-02,3.08394e-02,-7.00675e-03,-1.09300e-02,-1.13847e-02,1.81694e-02,-4.30305e-02,-2.59129e-03,-3.73084e-02,2.86961e-02,-8.66155e-03,1.10336e-02,-5.46635e-03,-3.01972e-02,1.24283e-02,-5.04924e-02,-4.70745e-02,1.95758e-03,-2.82245e-02,-4.75129e-02,-1.57834e-02,1.57472e-03,2.95353e-02,-4.03002e-02,-3.20512e-02,-1.22508e-02,3.33762e-02,-4.24492e-02,-1.91675e-02,7.59590e-03,2.41718e-02,2.04989e-02,-2.72838e-02,3.24606e-02,-2.25101e-02,-2.21196e-03,-2.63679e-02,-4.37121e-02,-1.87974e-02,-3.90134e-02,2.46630e-02,
4.87004e-02,2.75863e-01,-3.04226e-01,1.06963e-01,-3.46127e-01,2.37291e-01,-8.76724e-01,-7.08409e-01,2.95210e-01,-1.53601e-01,9.81689e-01,-8.90731e-01,4.03279e-01,7.51145e-01,-2.26881e-01,-1.13407e+00,-5.85823e-02,7.91564e-02,-2.20250e-01,-3.35832e-01,2.23392e-02,1.92935e-01,-1.99722e-01,1.05030e+00,5.89528e-02,1.92647e-01,3.13772e-01,1.19740e-02,-2.48014e-01,-1.99759e-01,5.78184e-01,4.59087e-01,-3.69859e-01,3.24561e-01,3.15755e-01,-8.01189e-02,-8.01765e-01,3.88499e-02,-1.74591e-01,1.93690e-01,2.74647e-01,-3.63185e-01,-1.64106e-02,-2.37066e-02,1.85181e-02,-2.80421e-01,-7.66289e-01,-5.50342e-01,-2.70403e-01,-2.40475e+00,
3.61829e-01,3.76139e-01,1.04007e+00,-1.61277e-01,-9.90194e-01,-1.65416e-01,5.18853e-01,-9.99825e-01,1.23780e+00,3.79905e-01,2.48058e+00,1.22054e+00,6.47900e-01,1.66694e-01,-8.55918e-01,1.95084e-01,-4.48169e-01,-2.49802e-01,-2.08939e-01,9.92147e-02,-6.43974e-01,4.29870e-01,7.50218e-02,-1.28671e+00,2.30837e-01,-1.32843e-01,-2.99945e-01,-8.29214e-01,2.11358e-03,-3.45447e-01,-8.45714e-01,5.71620e-01,1.00788e+00,-1.36700e-01,3.94131e-01,8.68095e-01,-6.76741e-01,1.27724e-01,5.09333e-01,-1.02479e+00,-5.25393e-01,1.36146e+00,9.21131e-03,3.30083e-01,1.07823e+00,-1.26503e-01,-3.79583e-01,6.06729e-01,-1.43141e+00,-7.17819e-01,
1.36934e-01,-4.42888e-01,6.36432e-02,1.37883e-01,4.59674e-01,-3.08836e-01,1.54135e+00,-9.57254e-01,1.40129e-01,3.06687e-01,1.24615e-01,6.05255e-03,-3.94195e-01,2.63739e-01,3.60709e-01,-8.90732e-02,-9.33136e-02,1.41805e-01,6.96460e-02,-1.01155e-01,-2.84183e-02,-1.80863e-01,1.03091e-01,2.96122e-01,-2.11421e-01,1.36164e-01,1.53153e-01,-2.15651e-01,5.74938e-01,1.65644e-01,7.33905e-01,3.03088e-01,3.92330e-02,-5.79153e-02,-1.03706e+01,3.87278e-01,-8.59188e-02,1.53269e-01,6.33785e-01,3.82158e-02,1.35385e-01,1.08194e-01,-1.02450e-01,-1.88443e-01,2.54929e-01,4.78232e-01,8.78532e-01,1.44894e-01,-2.81205e-01,2.14073e+00,
-2.39617e-01,-1.01149e-01,2.06668e-01,2.99616e-01,3.15941e-01,-3.99836e-01,-8.85688e-01,-5.02696e-01,-2.33033e-01,2.09191e-01,-2.92495e-01,-1.64002e-01,-4.62702e-02,-4.15852e-01,-3.80064e-01,2.43924e-01,-2.57248e-01,-1.24743e-01,7.46787e-01,5.56017e-01,1.09297e-01,2.79563e-01,-5.44090e-01,-2.10815e-02,3.08771e-01,-9.75596e-01,3.93805e-02,7.64828e-01,-5.20785e-01,-2.10830e-01,1.64512e-01,7.20425e-01,8.06005e-02,-5.81292e-01,7.20771e-01,-3.66100e-02,-4.33115e-01,1.07359e-01,1.93599e-01,9.61348e-02,-2.45597e-01,-2.84102e-01,3.19678e-01,3.73719e-01,-5.78220e-01,-2.24586e-01,-7.20159e-01,5.24802e-01,2.28318e-02,-4.86241e-01,
-8.85535e-01,-3.18908e-01,-2.13356e-01,1.93400e-01,8.67764e-01,-9.22209e-02,-2.35420e+00,-7.76311e-01,-1.32145e-01,2.50782e-01,-1.88460e-01,-3.07362e-02,7.98602e-02,-1.12375e-01,5.87405e-01,-2.34249e-01,-1.30542e-01,8.36847e-02,-2.77595e-01,1.87823e-01,-3.72837e-02,-5.57218e-01,-1.31008e-01,9.47013e-03,-6.83298e-03,-1.16694e-01,4.51429e-01,-1.16960e-01,1.15443e-01,1.44381e-01,3.96155e-03,6.97845e-01,7.24689e-02,-3.37237e-01,3.49513e-01,-1.70747e-01,3.74013e-01,3.22807e-01,2.90798e-01,-4.54389e-01,2.99094e-01,-3.97516e-01,-7.27858e-02,1.64022e-01,1.26149e-01,4.69415e-01,6.90517e-01,-5.18466e-01,4.29535e-01,-8.26356e-01,
1.03541e+00,-7.06621e-01,-1.56647e-01,5.49626e-01,2.17415e-01,7.50866e-02,-2.32573e-01,1.38340e+00,1.07180e+00,-6.91741e-02,-1.88114e+00,-2.09545e-02,-9.56157e-02,-2.26819e-02,-1.05882e+00,-1.03881e+00,-1.33371e-01,-5.17701e-02,3.08811e-01,-2.17451e-01,1.66325e-01,1.20466e-01,-4.79766e-01,-6.77277e-01,9.13795e-01,3.41831e-01,-1.08423e+00,7.97996e-01,-1.11566e-02,-3.71736e-01,-4.91644e-01,5.12667e-01,5.48004e-01,-6.40818e-01,6.07262e-01,1.70073e-01,-4.67250e-01,5.17951e-01,6.15326e-01,-5.46484e-01,-6.60374e-01,-3.19944e-01,9.56078e-01,2.66318e-01,-4.12818e-01,-2.91716e-01,-3.61598e-01,5.51408e-01,-5.65279e-01,4.91725e-01,
1.46986e+00,-4.69287e-01,-8.18726e-02,5.29261e-01,-1.73593e+00,1.49562e+00,-3.30162e-01,2.64747e-01,-2.75299e-01,1.98000e-01,-3.24152e+00,-7.47816e-02,3.89446e-02,-2.24654e-01,-2.01697e+00,-1.05491e+00,-4.37536e-01,3.80506e-01,-4.78261e-01,9.81575e-02,-6.94438e-01,-1.42927e-01,3.03053e-01,-3.11204e-01,3.23442e-01,5.37496e-01,4.16757e-01,1.12496e+00,-4.39643e-01,-1.55605e-01,-1.25382e+00,2.91028e-01,-1.74079e+00,-5.03256e-02,2.90844e-01,-2.48272e-01,-1.02433e+00,-4.03344e-01,-7.56765e-01,-7.83798e-01,-7.64072e-01,-5.84461e-01,-5.99441e-02,1.89266e+00,-8.43429e-01,2.82927e-01,7.85595e-01,5.95756e-01,-1.22471e+00,9.86414e-02,
1.55094e+00,9.08171e-01,-2.84385e-01,1.50359e-01,-5.95469e-01,6.92994e-01,6.16560e-01,1.82883e-02,2.87971e-01,8.85027e-02,-2.59664e-01,2.49523e-01,-7.39090e-02,-4.76094e+00,6.48276e-01,-3.07973e-02,-4.52130e-01,2.94253e-01,6.37735e-01,9.86781e-01,6.29013e-01,4.87433e-01,-5.12271e-01,-3.23347e-01,4.88651e-01,1.64526e-01,-2.76927e-01,-2.26883e-01,5.58112e-01,-2.58155e-01,-5.57083e-02,-5.21285e-01,1.67847e+00,-2.13215e+00,-1.08364e+00,-1.75326e-01,-5.28572e-01,2.99666e-01,-1.56812e-01,3.96742e-02,4.77554e-01,1.69551e-01,2.49664e-01,-8.76969e-01,1.97871e-01,-8.64276e-02,5.87366e-01,8.62289e-01,-3.50981e-01,-4.92899e-01,
3.34838e-01,2.89868e-01,6.17591e-01,-2.57837e-01,-1.65966e-01,1.98164e-01,2.96789e-01,-1.35566e-01,-3.36194e-01,-8.45109e-02,-7.13632e-01,2.65401e-02,-1.63722e-01,7.46158e-02,-1.66428e-01,-1.54650e+00,-5.71356e-01,-1.84905e-02,-2.15216e-01,7.07933e-02,-1.00776e-01,-9.61692e-01,-1.40937e-01,-1.65339e-01,5.16380e-02,-3.06602e-01,-3.45695e-02,3.57746e-01,1.76205e-01,2.57558e-02,-3.89592e-01,-3.09830e-01,1.48171e+00,6.01918e-01,4.47214e-02,7.96855e-01,-3.27694e-01,7.02636e-01,-4.35277e-01,9.09220e-02,-1.26358e+00,-6.56927e-02,7.61520e-01,1.04252e-01,5.95256e-02,6.25868e-01,-4.75727e-01,8.12612e-01,-2.47999e-01,2.74007e-01,
-9.69731e-01,2.99190e-01,-1.01394e+00,-1.10797e+00,5.84498e-01,-1.47815e-01,2.57105e-01,-3.26591e-01,-8.09874e-01,-2.21276e+00,2.92406e-02,1.66725e+00,5.27956e-02,2.42248e-01,4.65239e-01,8.45638e-01,1.98479e-01,8.62390e-01,1.70157e+00,-1.25973e-01,3.47876e-02,-6.02997e-01,3.85165e-01,-1.56297e+00,6.02110e-01,-5.53634e-01,2.59496e-01,4.01356e-02,-4.97115e-02,2.59824e-01,-3.49945e+00,-1.60157e+00,-5.94878e-01,1.48508e-01,2.12508e-01,1.04914e-01,4.44843e-02,-1.43557e+00,1.90846e-01,6.50888e-01,6.95997e-01,-6.99111e-01,6.06367e-02,-2.79862e-01,-1.71067e-01,-4.30613e-01,2.17501e-01,-1.01932e+00,1.27123e+00,7.69549e-01,
-4.73074e-02,-2.13574e-02,1.38073e-02,-4.84204e-02,-9.16024e-03,-7.15113e-03,1.61285e-02,7.46023e-03,6.36840e-03,1.61907e-02,1.10101e-03,-3.60587e-02,3.03890e-02,-6.08349e-04,-1.37627e-02,-2.85743e-02,-5.43612e-02,-1.77256e-02,-2.30842e-02,4.45889e-02,2.44291e-02,-4.75671e-02,-5.18485e-03,1.48573e-03,-5.19307e-02,3.04586e-02,9.33690e-03,-1.83171e-02,-2.24740e-02,-1.89574e-02,1.02184e-02,-1.16675e-03,-5.20932e-02,1.65774e-02,9.75367e-03,3.19681e-02,1.25327e-02,1.73587e-02,-1.42507e-02,-2.29402e-02,4.64505e-03,-1.85455e-02,-3.70208e-02,2.11040e-02,-4.14983e-02,2.01779e-03,1.42289e-03,-4.38511e-03,-1.59846e-02,4.26469e-02,
5.83626e-01,-3.63847e-01,-2.86335e-01,5.18500e-01,-7.47531e-02,5.33050e-01,-1.21769e+00,-3.94899e-01,1.29080e-01,5.94981e-01,4.12148e-01,-4.08408e-01,6.46612e-01,3.69821e-02,5.75118e-01,1.72771e-01,-3.48948e-01,6.53811e-01,-8.32284e-01,-6.44049e-01,-5.77910e-01,3.02008e-01,8.56128e-01,3.64663e-02,2.80237e-01,5.55149e-01,3.96745e-01,5.82537e-01,4.58804e-01,-9.50258e-02,5.02736e-01,1.69264e-01,1.28927e-02,-3.48888e-01,-7.08537e-01,-3.57769e-01,-1.30263e-01,5.59551e-02,7.85223e-01,1.59839e-01,1.32027e-01,3.21253e-01,2.15785e-01,-3.14999e-01,4.85994e-02,-1.30529e+00,-2.49156e-01,2.23575e-01,6.31528e-01,-1.88519e+00,
7.93447e-02,7.57219e-01,-2.73761e-01,-2.70020e-01,2.46566e-01,2.73926e-01,-1.00789e+00,-6.83626e-01,5.84041e-01,-9.99209e-01,8.11572e-01,-2.82560e-01,-3.23734e-01,7.15276e-01,-1.98385e-01,5.42685e-01,-2.86221e-01,-2.78987e-01,-1.59809e+00,-9.26149e-02,6.95056e-01,-2.79266e-01,-3.68831e-01,3.96616e-02,3.54340e-01,1.07893e-01,-6.87258e-02,-5.65154e-01,-6.61297e-02,-1.62548e-01,2.18672e-02,-3.78705e-01,1.14952e+00,1.60298e-01,-6.05033e-03,1.76432e-01,-1.91417e-01,8.05785e-01,3.66122e-01,-4.22693e-01,1.71148e-01,-1.49964e-01,-2.89266e-01,-4.90362e-01,3.88109e-01,1.01267e+00,-8.80710e-01,1.33738e-01,1.27806e+00,3.90182e-01,
-7.82113e-01,-2.41892e-01,4.90114e-01,-4.92809e-01,-4.22735e-01,6.84817e-02,1.09574e+00,3.66845e+00,-1.58042e-01,1.42768e-01,3.05030e-02,8.48775e-01,-4.99607e-01,-1.20091e-02,8.73959e-01,4.73554e-01,-1.88756e-01,8.32479e-01,-4.46721e-01,1.08423e+00,1.02464e+00,-1.52321e+00,-3.84162e-01,-1.17607e+00,-3.84313e-01,1.35450e-01,2.20805e-01,-2.60698e-01,5.91708e-03,-1.61280e-02,-4.64977e-01,-6.85169e-01,3.33008e-01,5.65068e-01,-5.06558e+00,-2.10710e-01,3.84940e-01,-3.25232e-01,-6.85227e-01,-3.88556e-01,2.29519e-02,-5.55746e-02,5.85031e-01,4.25359e-01,1.49383e-01,6.13986e-02,7.34181e-01,-8.26700e-01,6.51080e-01,2.39497e+00,
9.02706e-03,6.35667e-03,4.78461e-03,-8.51822e-03,1.08525e-02,6.95358e-03,-5.46757e-02,3.62192e-03,3.32808e-02,4.34122e-02,-5.83363e-02,-1.49131e-03,-1.60853e-03,-1.16055e-02,-4.00573e-02,-2.31409e-02,2.55463e-02,6.99940e-04,-2.60197e-02,-2.06840e-02,1.13904e-02,1.37761e-02,-1.69211e-02,-1.70674e-02,-3.84226e-02,7.19844e-03,-5.13887e-02,4.31566e-02,4.40112e-03,-1.52463e-02,-4.60486e-02,1.35138e-02,-4.30687e-02,1.04202e-02,-2.01743e-02,-1.87813e-04,-3.74436e-02,-3.54364e-02,4.91702e-03,-3.40338e-03,1.92015e-02,-3.55062e-02,-2.76545e-03,3.38939e-02,-5.50608e-02,-1.84956e-03,-9.03710e-03,-5.10267e-03,5.52570e-03,1.77350e-02,
-5.28298e-02,-1.33431e-02,2.12097e-02,1.35575e-02,-2.60585e-02,-2.01248e-02,1.18185e-02,1.25772e-02,-6.04049e-02,-3.26909e-02,-1.50827e-04,-3.78291e-02,-3.29863e-03,-7.58945e-02,-4.75966e-02,-2.71716e-02,-6.05555e-02,-2.91581e-02,-1.55048e-02,8.88449e-03,-9.76962e-04,-3.56074e-02,-2.52009e-02,-4.35443e-02,1.38013e-02,-6.33021e-02,-3.61944e-02,3.46583e-03,-8.74659e-03,-4.35522e-02,2.03943e-02,-9.52473e-03,1.28135e-02,2.46405e-03,-1.97133e-02,-1.53116e-02,3.67592e-02,2.32099e-02,2.49973e-02,-2.81858e-03,2.99449e-02,-5.15476e-02,-4.18940e-02,-5.26755e-02,-1.49793e-02,2.16232e-02,3.94380e-02,-1.95064e-02,-6.37382e-02,4.17756e-02,
-2.02108e-02,
-1.97111e-02,
-1.10554e+00,
-1.35872e+00,
-9.01786e-01,
-4.87624e-01,
8.25397e-01,
2.64058e-02,
-1.63684e+00,
-1.13613e+00,
-1.22590e+00,
-4.41762e-03,
8.07858e-03,
-5.49378e-03,
1.92950e-01,
3.29371e-01,
-2.45399e-01,
9.81595e-01,
8.92769e-01,
-4.05725e-03,
-3.63940e-01,
-2.63196e-02,
-7.79717e-01,
3.10085e-01,
1.13537e-01,
-1.70484e-01,
-1.51665e-01,
-8.95331e-02,
-1.04941e-01,
-1.30205e-02,
-1.11739e+00,
1.34682e-01,
-3.77206e-01,
-2.66096e-02,
5.55144e-01,
6.41215e-01,
-4.59338e-01,
1.06541e-01,
2.06817e-01,
4.25360e-01,
8.83463e-01,
-7.70066e-01,
2.56301e-01,
-1.08210e+00,
-9.74961e-03,
-7.32469e-01,
1.71887e-01,
-8.73376e-02,
-1.13437e-02,
-1.51567e-02,
5.33673e-01,4.27210e-02,1.50989e-01,4.08013e-01,1.29022e+00,-4.19132e-01,-1.23024e-01,-3.18349e-01,-2.67965e-01,4.47732e-01,-1.48996e-01,-3.51920e-02,5.40163e-01,7.66891e-02,6.58931e-01,1.88778e-01,-6.96134e-01,4.36180e-01,2.12992e-01,-2.64715e-02,-1.47754e-01,4.83667e-03,4.27384e-01,-1.29029e+00,2.62278e-01,-3.93951e-01,3.36953e-01,-7.83562e-01,1.68614e-01,-4.30981e-02,-6.33449e-01,-3.05733e-01,4.26717e-01,-5.76702e-04,-5.86898e-01,-1.18182e-03,3.81010e-01,-2.57415e-01,2.31924e-01,-6.48134e-01,-3.37517e-01,4.21054e-01,-6.95875e-01,7.45209e-01,2.82984e-02,5.61832e-01,-5.80690e-01,1.90856e-01,-8.27008e-03,-9.60135e-03,
-5.18971e-02,1.45556e-02,-3.78535e-02,-4.62181e-02,1.27768e-02,-1.28708e-02,3.02689e-02,2.92921e-02,1.54649e-02,9.61588e-03,-3.70733e-02,2.25479e-02,-5.26569e-03,-1.96503e-02,-3.68920e-02,-8.31810e-03,-2.74974e-02,3.68434e-02,-1.15199e-02,-3.72789e-02,-3.10942e-02,5.99906e-03,1.97945e-02,8.98211e-03,-3.52603e-02,-8.08125e-03,5.95513e-03,3.14528e-02,2.67154e-02,4.20304e-03,7.97839e-03,-2.23802e-02,1.13568e-02,1.47639e-03,-7.75544e-02,-4.88055e-02,-2.88087e-02,1.09705e-03,-2.29810e-02,-4.96109e-02,3.67723e-02,6.32937e-03,-9.13944e-03,1.15723e-02,-4.64477e-02,-4.95073e-02,-4.69370e-02,-3.30131e-02,-4.54112e-02,1.52459e-02,
-8.68160e-03,1.39865e-02,-4.34808e-02,5.26046e-03,2.31781e-02,-1.46262e-02,-5.84519e-02,1.16418e-02,-2.61501e-02,-2.01454e-02,3.70122e-02,-2.09231e-02,-4.69824e-02,4.24685e-02,3.52473e-02,-3.09101e-02,-1.82185e-02,1.75841e-02,8.94325e-03,9.19572e-03,-2.83420e-02,-1.57581e-02,2.27740e-02,-1.41726e-02,-4.67657e-02,-9.88562e-03,-2.59963e-02,-4.49437e-02,-2.19778e-02,1.43031e-02,-4.66008e-02,3.14567e-02,5.97620e-03,-1.82957e-02,-5.04732e-02,-5.72564e-02,-3.06379e-02,-5.86844e-03,2.77881e-02,-1.59670e-02,-3.94630e-02,1.79927e-02,2.31221e-02,3.35761e-02,-4.77133e-02,-5.44875e-02,-3.73720e-02,-7.34220e-03,1.07267e-02,-4.94801e-04,
3.30332e-01,3.45225e-02,1.50191e-01,1.36840e+00,5.65054e-01,-5.84285e-01,1.39647e-01,-3.26025e-01,-2.26417e-01,6.84939e-01,-2.99100e-02,1.10960e-02,1.22086e+00,5.04192e-01,-7.50115e-01,-4.08211e-01,-1.64004e-01,-3.87227e-01,8.30345e-01,5.53246e-04,8.73859e-01,-2.57771e-02,9.54597e-01,1.34540e+00,-3.07998e-01,2.90814e-01,-6.88085e-01,-8.49393e-02,6.65202e-02,-1.53162e-02,9.25990e-01,-1.28309e-01,3.55668e-01,-4.59802e-02,-1.77442e+00,-1.45264e-01,-2.64099e-01,-1.08439e-01,1.82808e-01,1.38169e-01,6.16811e-01,4.56418e-01,-6.36044e-01,-1.02101e+00,-1.84854e-02,1.48957e-01,5.08584e-01,5.48355e-01,3.92926e-02,4.11566e-02,
1.06898e-01,-2.70041e-02,8.84863e-02,-4.39553e-01,4.01044e-05,-2.42409e-01,-1.15579e-01,-3.38579e-01,-2.44976e-01,2.91529e-01,-1.19196e-01,-3.40013e-02,-3.59599e-01,-2.72849e-02,8.74588e-02,2.24542e-01,4.31879e-01,2.63448e-04,-1.05215e-01,3.02009e-02,9.01622e-02,-4.10940e-02,-1.03864e-01,-3.20929e-01,6.06999e-02,2.51896e-02,3.05953e-02,-1.32226e+00,9.22461e-02,-2.20842e-02,-4.62617e-01,-2.57665e-02,-1.04804e+00,1.44665e-02,-6.58826e-01,1.84895e-01,-1.04986e+00,-4.46409e-01,2.10643e-01,5.46552e-01,1.51463e-01,7.08414e-01,-2.38710e-01,7.32741e-01,2.08225e-02,1.02553e-01,-3.23584e-01,1.97809e-02,3.41083e-02,-2.19155e-02,
-1.48303e+00,-4.39965e-02,-1.95251e-02,1.00622e+00,5.49483e-01,4.52945e-01,3.07007e-01,-5.07985e-01,-8.17376e-01,1.80870e-01,-1.45141e-02,-4.03893e-02,1.79457e-01,9.75813e-02,-5.06585e-01,2.09468e-01,-1.93552e-01,2.47054e-01,1.74341e-01,-2.24137e-02,4.82530e-01,-5.14799e-02,3.04095e-01,5.29138e-01,-4.79618e-02,1.56978e-01,4.07132e-01,-8.24755e-01,-3.15035e-01,-4.01725e-02,-1.08169e-01,2.01158e-01,-2.97821e-01,-2.24218e-02,-1.41542e-01,2.52060e-01,7.18195e-01,3.42030e-02,4.00707e-02,-7.96810e-02,2.25328e-01,-2.06144e-01,-3.26066e-01,1.82373e-01,6.95617e-03,-4.36728e-01,-6.47727e-01,1.42740e-01,1.53181e-02,-5.53940e-03,
-2.94684e-02,-4.90392e-02,-1.86562e-01,4.02552e-01,-4.04713e-01,4.67086e-02,-5.76453e-02,3.65654e-02,3.51441e-02,1.29414e-01,-1.40353e-01,4.76512e-02,-3.44759e-01,2.28413e-01,1.37053e-01,3.50731e-01,-8.41527e-03,-5.51535e-02,6.59015e-02,4.79902e-02,-6.77476e-02,-3.68471e-02,1.39652e-01,-1.64204e-01,-4.21596e-01,-2.57386e-01,1.80102e-01,1.09839e+00,-1.83049e-01,-4.88970e-02,5.09508e-03,2.63425e-01,-1.51593e-01,-2.33312e-02,-3.59637e-01,-1.76799e-01,5.65878e-01,-1.40754e-01,-2.74638e-02,8.92273e-02,2.52853e-02,-3.83591e-01,2.85539e-01,-2.01324e-01,1.89510e-02,4.51071e-01,-2.88276e-01,1.47702e-02,-4.50738e-02,-4.15351e-03,
1.63097e-01,-1.43108e-02,-8.87866e-01,1.10454e+00,-9.32429e-02,-4.06310e-01,1.32061e+00,-5.05046e-01,-5.38498e-01,7.71589e-03,1.44372e-01,4.71886e-03,9.72277e-02,-7.00747e-01,-4.12813e-01,3.66594e-01,3.11511e-01,-5.01559e-02,-4.80151e-02,4.61754e-02,-3.56977e-02,-6.93708e-03,1.45343e+00,6.77856e-01,2.99739e-01,6.28135e-01,-1.22675e+00,-2.72426e-01,6.61544e-01,-3.27576e-02,-1.53213e+00,2.47067e-01,5.60032e-01,-1.07938e-02,8.84592e-01,1.26448e-02,-2.26769e-01,-1.15557e+00,-1.10390e+00,3.76947e-01,-5.20949e-01,-7.38271e-02,-7.69716e-01,-8.04033e-02,3.49756e-02,-5.02590e-01,9.41648e-01,6.90898e-01,3.50511e-02,-1.50759e-03,
-1.33873e+00,2.74608e-02,-1.21185e-03,-2.43974e-04,-1.05154e-01,7.36053e-02,-9.99400e-02,-3.94387e-02,-4.01703e-02,2.47827e-03,5.32188e-03,4.71655e-03,3.66607e-02,8.89041e-02,-9.36470e-03,1.15042e-01,9.57255e-02,-4.30153e-02,-9.06653e-02,3.48354e-02,-1.16334e-02,3.87616e-02,-3.67125e-02,-3.39665e-02,-1.99185e-02,3.83624e-02,-1.61104e-02,2.02115e+00,-1.57278e-01,-1.86317e-02,-1.19659e-01,1.01334e-02,-1.24357e-01,7.63706e-03,-1.46045e-01,1.25586e-02,1.08489e+00,-2.43907e-02,-2.82450e-01,-1.10253e-02,3.87478e-02,4.73955e-02,-1.65433e-02,1.06323e-02,-4.24586e-02,-1.68119e-01,-2.68733e-02,6.27299e-02,4.00891e-03,4.44966e-02,
-3.87067e-01,-3.09263e-02,1.55369e-01,-6.59069e-01,5.98752e-02,6.91032e-02,-2.21600e-01,1.76825e-01,5.63011e-01,-3.76334e-01,8.93904e-02,5.85882e-03,2.01711e-01,-1.17935e-02,2.30421e-01,-6.64704e-01,-6.41418e-03,-1.28807e-01,-7.65968e-02,1.87130e-02,1.51792e-01,3.62844e-02,6.89538e-01,-2.67525e-01,7.75668e-02,-8.68425e-01,5.55259e-01,1.02565e-02,-3.94567e-01,-1.55909e-02,1.96054e-01,-1.19921e-01,-9.51957e-01,3.62075e-02,-3.93884e-02,-2.28147e-02,3.54029e-01,-1.93799e-01,6.40280e-03,8.05780e-01,1.78446e-01,-1.53517e-01,-1.58363e-01,2.55374e-01,1.83265e-02,4.53338e-01,1.32748e-01,9.15601e-02,2.27382e-02,-5.40580e-02,
-2.23630e-02,-5.64973e-03,-3.20909e-02,-3.67692e-02,-1.40202e-03,-3.36505e-02,-2.08648e-02,2.82563e-02,-1.61156e-02,-4.38295e-02,-5.00138e-02,1.30274e-02,3.62267e-02,-2.86298e-02,-3.25151e-02,1.28360e-02,-5.41592e-02,-2.77400e-02,-2.64741e-02,3.67177e-03,2.97019e-02,1.35848e-02,4.78335e-02,1.42678e-02,1.39376e-02,-2.11075e-02,-1.61600e-02,3.47669e-02,1.20055e-02,4.51065e-02,-1.71265e-04,1.59940e-02,-3.22126e-02,-2.93393e-03,-4.98464e-02,-2.92128e-03,-3.62470e-02,3.33580e-02,-3.07816e-02,1.85604e-03,-4.52156e-02,-2.47198e-02,1.77961e-02,2.53551e-04,-3.21946e-02,2.03866e-03,-4.82607e-02,2.12263e-03,2.40438e-02,7.73690e-03,
-3.75768e-01,-1.70517e-02,-1.77771e-01,1.00917e-01,4.45994e-01,2.32617e-02,-3.32199e-03,-1.09946e-01,2.67460e-02,-2.88432e-01,6.40184e-02,-3.31179e-04,-4.06314e-02,-6.78278e-02,3.20095e-01,2.24637e-02,-1.72232e-01,9.74113e-02,4.62876e-01,5.52467e-02,-2.02029e-02,2.16085e-02,6.69219e-01,-2.50712e-01,8.59639e-01,-1.51211e-01,6.75678e-02,1.01481e-01,-3.62809e-01,2.63113e-03,3.56467e-01,-1.51020e-01,4.49228e-01,-7.48319e-03,-2.45982e-01,-2.34603e-01,4.54467e-01,2.88696e-01,8.87493e-02,-4.14661e-01,-7.04407e-01,1.48496e-01,-2.32120e-01,3.36244e-01,4.29662e-02,-2.99811e-01,7.14026e-02,1.47236e-01,-9.47323e-03,1.08441e-02,
-1.24310e-01,3.34007e-02,1.00691e-01,-1.68967e+00,6.81113e-01,6.55721e-01,5.34586e-01,3.02258e-01,-4.99994e-01,7.53758e-01,-3.10611e-01,-1.82817e-02,8.16496e-02,3.45417e-01,-4.40828e-01,-1.01781e-01,6.42226e-01,-2.92044e-01,-4.22980e-03,4.49163e-03,5.02928e-01,4.19105e-02,-3.47115e-01,1.37929e+00,3.45137e-01,-2.62933e-01,4.71974e-01,3.75734e-01,-2.67395e-01,-1.53448e-02,8.04339e-01,2.13004e-01,5.88864e-01,-4.35739e-03,-2.88778e-01,6.75553e-02,-7.66561e-01,2.04400e-01,8.94617e-03,2.46292e-02,3.16956e-02,3.40641e-01,-2.67217e-01,9.28709e-02,2.75212e-02,-1.19219e-01,5.24245e-01,-3.76055e-01,-2.26093e-03,-2.45811e-02,
-6.80422e-01,1.24300e-02,1.08883e-01,-2.15184e-01,-1.16328e-01,-1.68491e-01,1.01890e-01,-5.07878e-01,1.03819e-01,3.35466e-01,1.26979e-01,3.12448e-02,-3.98055e-02,-2.35410e-01,-9.73466e-02,1.53871e-01,2.84959e-01,2.63508e-02,-1.88394e-01,-4.86800e-02,2.32315e-02,2.96590e-02,-7.78509e-01,1.01180e-01,-1.14696e-01,2.67316e-02,-1.83839e-01,8.67356e-02,-3.33116e-02,1.58530e-04,-1.10389e-01,-8.15678e-02,-2.66392e-01,1.62754e-02,3.97964e-02,1.51110e-01,-4.37721e-01,1.43719e-01,1.30137e-01,1.51190e-01,-8.05299e-02,5.49467e-02,3.32822e-01,-1.55814e-03,1.73079e-02,-4.08566e-01,3.18002e-02,-3.22158e-01,-4.74045e-02,2.12102e-02,
3.51176e-01,-7.65507e-03,-3.06876e-01,-1.44534e+00,-1.19449e+00,-4.56731e-01,-5.00543e-01,-4.62356e-01,-1.47870e-02,-8.59704e-01,4.28523e-01,-1.23574e-02,-6.15397e-01,5.01840e-02,8.95908e-02,-5.03248e-01,5.83968e-01,-1.07938e-01,-4.79046e-01,-3.47246e-02,3.17206e-01,-1.54868e-02,-4.28018e-01,-1.80251e-01,1.09169e-01,5.30489e-01,-7.84738e-02,1.16333e-01,5.03725e-01,2.26795e-02,-7.95854e-02,-2.40302e-01,-1.47828e+00,1.12868e-02,-1.25207e+00,6.79680e-01,-1.28443e+00,-1.12902e+00,4.00717e-01,7.94532e-03,-7.99210e-02,2.07774e-01,-4.81012e-01,-1.17221e+00,2.50037e-03,-1.61042e-01,4.48348e-01,-2.68794e-01,1.29640e-02,-3.67781e-03,
-2.18324e-02,-4.09033e-02,1.26712e-02,3.27277e-02,1.14275e-02,-2.89708e-02,2.09381e-02,-2.21665e-02,-4.66537e-03,2.93831e-02,1.50767e-02,8.06220e-04,-1.50801e-02,-5.15521e-02,-4.92246e-02,-3.20319e-02,-3.26072e-02,7.76873e-03,-4.64258e-02,-1.52181e-02,-2.44175e-02,-9.57150e-03,8.51494e-03,-2.43663e-02,-5.37405e-02,1.67703e-02,-2.95356e-03,-6.12014e-02,-4.11393e-02,-4.28451e-02,-2.16932e-02,1.19726e-02,2.58536e-02,-4.40055e-02,-6.15285e-02,2.90454e-03,1.60018e-02,-1.34111e-02,-6.12971e-03,-2.48964e-02,-1.06561e-03,-2.76245e-02,1.61510e-02,-5.13358e-02,1.84619e-02,-5.61856e-02,-4.10113e-02,-5.24611e-03,-3.85635e-02,-3.43854e-02,
-7.53677e-01,1.57173e-02,-4.12736e-01,-1.33591e-01,4.71584e-01,2.15604e-02,2.35050e-01,-1.42168e-01,8.56294e-01,-3.73451e-01,-2.83857e-01,3.34717e-02,2.97573e-01,1.22383e-01,3.82629e-01,2.94527e-01,-6.34261e-01,2.66428e-02,2.16641e-01,1.67343e-02,1.62897e-02,4.12851e-02,-2.87771e-01,2.93246e-01,9.22136e-01,-1.91907e-01,1.40989e-01,2.02071e-01,-3.94992e-01,-2.91613e-02,-1.59668e-01,7.45866e-01,2.55510e-01,4.00499e-02,2.32200e-01,-1.04680e-01,-4.95245e-01,-5.50631e-01,2.58481e-01,-2.67033e-01,6.26419e-02,-2.00684e-01,-5.61334e-01,-2.87021e-02,-3.42984e-02,1.81463e-02,-1.53816e-01,-3.02767e-01,-8.87544e-03,3.48296e-02,
-2.14029e-02,2.94404e-02,3.70753e-01,4.81238e-01,2.34933e-01,5.19128e-02,1.90971e-02,-2.67549e-01,-1.92989e-02,-1.81296e+00,-4.08705e-01,-3.80331e-02,-4.07321e-01,-1.66112e-01,3.28099e-01,-6.84182e-02,-2.62131e-02,-1.07850e-01,1.82955e-01,1.90021e-02,-1.97681e-01,4.26286e-02,-1.26644e+00,-9.97804e-02,-9.77771e-01,-3.14497e-01,2.00260e-01,1.67562e-01,3.13194e-01,-1.65138e-02,-2.45766e-01,-4.59745e-02,9.02157e-01,-3.50735e-02,-4.84801e-01,-2.13753e-01,2.61759e-01,2.09258e-01,5.38271e-01,7.16264e-02,-3.19303e-01,-1.07116e-01,3.27804e-01,-1.21826e-01,4.55633e-02,1.42668e-02,1.56597e-01,1.29050e-02,8.21928e-03,-4.73833e-02,
5.45939e-01,1.74570e-02,-2.36524e-01,-7.85247e-01,-7.41248e-01,-1.04588e-01,2.74963e-01,-5.12765e-01,2.86042e-01,-2.13333e-01,5.95828e-01,2.66065e-02,-3.03457e-02,1.82051e-01,1.69302e-01,-2.64047e-01,2.96496e-01,4.50488e-02,-2.82736e-01,-2.83733e-02,3.97943e-01,-9.82595e-03,-7.38925e-01,-3.33717e-02,2.07716e-01,1.03059e-01,-4.21162e-01,5.08949e-01,-2.18305e-01,-1.27300e-02,-2.72116e-01,-4.79166e-01,-5.12292e-01,-2.86894e-02,8.14120e-01,3.78706e-01,-7.52348e-01,-3.89200e-01,-5.65243e-01,-3.36480e-01,1.93223e-03,-9.30875e-02,-7.69666e-01,-1.63128e-01,-3.21169e-02,-2.71678e-01,2.05642e-01,8.73068e-01,3.78774e-02,4.23674e-02,
-6.44061e-01,-2.12178e-02,6.17234e-02,-1.70528e-01,1.75927e-01,-1.02644e-01,-1.94515e-01,2.02621e-01,1.11472e-01,-1.44391e-01,-1.16556e-01,3.63076e-02,8.95545e-02,2.79707e-02,3.17436e-01,-3.67915e-02,-2.10682e-02,-5.55358e-03,-1.06281e-01,1.88257e-02,-5.86153e-02,3.53885e-03,1.27663e-01,-8.66582e-02,1.74867e-01,3.78350e-02,-2.16337e-01,1.20871e+00,1.67250e-01,9.80909e-03,2.34967e-01,4.58707e-02,2.74351e-01,-4.87599e-02,1.33040e-02,-1.09330e-01,5.36484e-01,-1.49298e-01,-1.08702e-01,-4.59387e-02,-2.13095e-02,-2.77719e-01,-2.26289e-01,-1.04898e-01,1.51631e-03,-2.30326e-01,2.49517e-01,3.87737e-01,-3.27323e-02,-2.26007e-02,
8.97003e-01,-3.35418e-02,-1.43962e-01,4.40975e-01,-2.57069e-01,3.07270e-01,5.15324e-01,-2.91048e-01,-4.08456e-01,1.37494e-04,1.29949e-01,3.05544e-02,-1.41324e-01,-7.03892e-02,-5.96332e-01,2.05628e-01,6.01271e-02,3.71196e-02,6.08030e-01,1.05632e-02,4.62928e-01,-3.29588e-02,3.05944e-01,3.84771e-01,-1.68682e-01,5.03191e-02,8.49484e-02,-9.14105e-01,2.89823e-03,-1.77602e-02,-2.46072e-01,-2.63297e-02,-6.38326e-01,-3.46745e-03,2.16396e-01,2.06628e-01,-3.71035e-01,3.61857e-01,-4.50511e-01,3.99051e-02,-5.07793e-02,-1.88648e-01,1.24596e-01,3.54400e-01,1.45697e-02,2.22396e-01,-2.86000e-01,-2.55569e-01,-8.13815e-03,1.08076e-02,
3.53901e-01,-4.93588e-03,-7.33266e-02,1.72433e-01,9.25975e-01,5.05707e-01,-2.15145e-01,8.30384e-01,-1.58462e+00,-2.10981e-01,-2.33842e-01,-2.68894e-02,-4.41459e-01,6.83604e-01,4.22585e-01,-8.22372e-01,-2.85934e-02,2.11975e-01,-6.09212e-01,4.61207e-02,8.04758e-01,2.26763e-02,-1.07789e+00,1.21684e-01,-1.45522e+00,9.04901e-01,1.10960e+00,-7.48136e-01,4.21257e-02,-3.78360e-02,2.56361e-01,2.56461e-01,8.11060e-02,-3.36176e-02,-3.62036e-01,-2.34223e-01,5.07412e-01,-4.66963e-02,-2.06043e-01,-4.19092e-01,-9.21384e-01,3.80850e-01,-8.16341e-01,1.31959e+00,2.07661e-02,5.26800e-01,-7.74943e-02,-4.12673e-02,-2.43565e-02,-2.52580e-02,
-2.01709e+00,9.15314e-03,9.20171e-02,-6.08076e-02,-3.74280e-01,5.55243e-01,1.10815e-01,-8.35581e-02,-3.94027e-01,4.96717e-01,2.84081e-01,-3.92045e-02,-8.94030e-01,-1.62776e-01,-7.99581e-02,6.72217e-01,4.19544e-01,-1.71851e-01,1.39809e-01,-3.35987e-02,8.17326e-01,2.94896e-02,1.10556e+00,2.11539e-01,-4.52909e-01,2.56686e-01,-1.93320e-01,-1.04706e-01,-1.15055e-01,3.05078e-02,-6.64514e-01,-1.78609e-01,7.99481e-02,-4.16897e-02,3.86970e-02,2.15127e-01,-2.34125e-01,-4.42690e-02,3.29077e-01,1.17260e-01,-5.34664e-04,1.28451e+00,4.43907e-02,1.10124e-01,2.30724e-02,-1.61375e-01,-1.39061e-01,-1.67477e-01,-6.66513e-03,-3.56555e-02,
2.03915e-01,-3.31157e-02,2.12622e-01,-9.54462e-01,5.68912e-01,9.98982e-01,-1.92676e-01,4.69217e-01,-4.43835e-01,1.18084e+00,4.87844e-01,1.95682e-02,-1.55582e+00,7.02455e-01,-1.50588e+00,3.20714e-01,-1.66331e+00,-7.67046e-01,5.88187e-02,-8.94623e-03,-2.00022e-01,-2.16435e-02,2.24123e+00,2.07164e+00,1.43071e-01,-1.12114e-01,6.49310e-01,-4.41221e+00,2.23861e-01,-2.20488e-03,-2.06993e-01,-2.43097e+00,-3.39972e-01,-5.30714e-02,4.17829e-01,5.20312e-01,-2.33951e-01,-6.37325e-03,-1.59919e+00,-8.64372e-02,6.85977e-03,-4.36281e+00,1.27422e-01,7.20916e-02,2.83790e-02,4.66974e-01,-2.02002e-01,-3.74575e-01,-6.30796e-04,-1.90111e-02,
9.94804e-01,2.77174e-02,-9.37858e-01,-7.87339e-01,-1.79219e+00,-1.41355e+00,-9.53628e-02,-1.69159e+00,-7.06070e-01,-2.24422e+00,2.03984e+00,-4.95638e-02,5.09602e-01,-1.53734e-01,-2.76978e-01,3.87686e-01,3.64308e-01,1.13504e+00,1.04658e+00,1.85093e-02,-5.82024e-01,2.36611e-02,2.06289e+00,-2.65861e+00,-4.88482e-01,4.52940e-01,-6.51751e-01,-1.75241e+00,-1.67180e-01,-4.18210e-02,-1.57590e+00,-9.86245e-01,-2.67906e+00,1.36084e-02,-2.22899e+00,1.09621e+00,-1.31603e+00,-1.91282e+00,-1.75138e+00,-3.15248e-02,1.20048e+00,-2.31340e-02,-1.19218e+00,-3.64057e+00,5.58412e-03,2.06836e-01,-1.35322e-01,-8.53204e-01,2.11276e-02,-9.15646e-03,
2.37739e-01,-2.53904e-02,7.77959e-02,6.04433e-01,5.34580e-01,2.03013e-01,-2.73260e-02,-7.74309e-01,4.20635e-02,1.33152e+00,-1.66734e-01,-4.72318e-02,-1.08273e-01,1.70370e-01,5.48751e-01,-8.05791e-01,-6.23353e-02,2.44601e-01,-6.07063e-01,-2.12270e-02,-2.16739e-01,1.01708e-02,-8.53481e-01,-2.46323e-01,6.30664e-01,2.71330e-01,1.94058e-01,4.79891e-02,-5.19728e-02,3.19181e-02,-1.15750e-01,4.17071e-01,-2.77652e-01,3.39141e-02,-4.59684e-01,1.12413e-01,2.08314e-01,3.32193e-01,-1.40546e-01,-4.29126e-01,1.50123e-01,-1.16002e-01,5.07482e-01,-1.50257e-01,1.76110e-02,4.71500e-01,-1.57672e-01,-3.00790e-01,1.03479e-02,4.17929e-02,
-1.14344e+00,5.08043e-02,6.36516e-01,-6.75474e-02,-1.98799e-01,-3.95099e-01,-1.74899e-01,-3.64366e-01,8.99533e-01,1.04109e+00,6.79009e-01,1.73126e-02,-3.50910e-01,6.43694e-01,-2.24612e-01,3.36893e-01,1.19672e-01,1.84953e-01,4.97772e-01,2.09605e-02,-5.60666e-02,-8.52100e-03,5.47324e-01,-8.98728e-01,-1.74405e+00,6.41944e-01,-5.08421e-02,7.08443e-02,4.22464e-01,-2.57455e-02,2.54826e-01,-5.77291e-01,-1.05585e+00,-4.42870e-02,-4.12009e-01,-5.11466e-03,3.18705e-01,1.28541e+00,9.36652e-01,-1.81948e-01,1.11585e+00,8.39738e-01,5.19621e-01,-4.16978e-01,1.74133e-02,4.35350e-01,9.41161e-01,-1.92832e-01,3.80029e-02,9.85482e-03,
-2.38166e-01,4.19623e-02,8.52247e-01,-2.01693e+00,-4.08417e-02,-1.37317e+00,-1.64729e+00,-1.14848e+00,-2.42544e-01,-7.82402e-01,-5.99211e-01,-1.66034e-02,-5.74970e-01,-4.47294e-01,-9.35534e-01,7.54129e-02,-1.55116e-01,1.53420e-01,8.86970e-01,4.25163e-03,5.64787e-01,-2.48807e-03,-6.63068e-01,-1.00543e+00,3.55133e-01,1.01773e-01,-4.88433e-01,5.79741e-01,4.02296e-02,-3.03410e-03,-6.48761e-01,-4.66926e-01,-1.18608e-01,-4.35284e-03,4.13619e-01,-9.97278e-02,-2.72192e-01,1.04181e+00,1.61777e-01,-7.38197e-01,1.44605e+00,1.32905e+00,-1.37311e-01,-1.73442e+00,-2.42511e-02,-1.14068e-01,1.03648e+00,-1.62863e-01,1.46985e-02,-3.07070e-02,
-9.73467e-01,2.46852e-02,-3.35191e-01,-4.91348e-01,-1.18199e-01,1.40673e-02,-8.22424e-02,5.43844e-01,2.12458e-03,-1.95110e-01,-2.75965e-01,-1.71202e-02,-6.94875e-01,-6.70955e-02,-1.14308e+00,-4.21006e-02,5.22712e-02,5.05146e-02,-5.14838e-01,4.86070e-02,2.08576e-01,9.55277e-03,-2.46502e+00,-2.37872e-01,-2.44234e-01,2.82583e-01,-1.15677e-01,2.26516e-01,-2.21382e-01,2.23769e-02,4.82710e-01,3.89310e-01,6.15803e-01,1.72207e-02,-1.14469e+00,-9.44430e-02,-4.37638e-01,-1.07944e+00,1.35882e-01,7.72346e-01,-3.78557e-01,3.88612e-01,-2.03624e-02,2.02996e-01,2.63195e-02,-1.28427e-01,2.91090e-01,-4.61941e-02,-8.15573e-03,-4.86851e-02,
-1.06965e-02,-2.21994e-02,-2.09088e-03,4.32062e-02,4.06763e-02,5.36315e-03,2.54615e-02,1.94421e-02,1.99156e-02,-4.15055e-02,9.49707e-03,3.67304e-02,2.09085e-02,-3.73164e-02,-4.10994e-02,-4.67572e-02,-2.18294e-02,2.53572e-03,-4.73233e-02,3.36164e-02,8.23070e-03,-4.12177e-02,-4.76218e-02,2.15820e-02,-3.68367e-02,-5.68632e-03,-1.21997e-02,-5.01982e-02,3.67065e-02,1.53702e-02,1.62797e-02,-1.97246e-02,2.91281e-02,1.56322e-02,-2.81184e-02,-3.75002e-02,1.41013e-02,-2.38089e-02,-3.04030e-02,-2.97310e-02,-3.18513e-02,3.99674e-02,-3.68430e-02,-3.85565e-02,1.68340e-02,-4.84238e-02,1.04797e-02,-1.65415e-02,-4.36589e-02,-1.73249e-02,
3.47267e-01,3.06753e-03,3.20798e-01,-1.34586e+00,-6.23243e-01,5.11620e-01,-5.85954e-01,-6.37381e-01,-3.26923e-01,-1.17375e+00,-3.18666e-01,-3.34709e-03,-4.42663e-01,-1.39845e-01,5.30800e-01,9.84911e-02,3.98562e-01,-5.06534e-02,-1.51216e-01,3.52720e-02,-7.41275e-01,-1.69090e-02,-1.26359e+00,-1.34598e-01,-9.53989e-01,2.15730e-01,2.64885e-01,-2.38463e-01,2.32538e-01,1.41448e-02,2.39926e-01,7.68230e-03,-2.50663e-01,1.72761e-02,1.78070e-01,-2.36255e-01,1.36864e-01,5.32821e-01,-8.56194e-01,1.09347e-01,5.49841e-01,1.19215e-01,1.32473e-01,-1.64101e+00,1.87330e-03,7.72835e-02,2.64770e-01,-8.90657e-01,3.39170e-02,3.93097e-02,
6.10373e-01,-2.83085e-02,6.32373e-01,4.13128e-01,-1.97137e-01,1.83448e-01,-1.31409e-01,6.28224e-01,-5.05920e-01,-1.20225e-02,-2.62538e-01,-5.26234e-03,-1.62729e-01,1.74484e-01,4.26156e-01,3.91927e-02,7.87662e-02,7.48885e-02,-3.68465e-01,2.12366e-02,-3.36389e-02,1.03148e-02,-2.31615e-01,4.11957e-01,-1.08143e+00,1.20661e-01,2.46130e-01,5.92214e-02,7.03850e-02,-2.17580e-02,2.18421e-01,3.80245e-01,6.88426e-01,4.06865e-02,-6.42527e-01,2.07573e-01,-2.56323e-01,5.10982e-02,-5.03362e-01,4.00642e-02,5.65147e-02,-1.18350e-01,3.30755e-01,5.06377e-01,-4.27563e-02,1.70254e-01,3.76254e-01,5.83020e-02,4.16300e-02,-3.23434e-02,
-1.22863e-01,-2.09602e-02,-1.21448e-02,-8.36914e-01,-3.94938e-03,-1.56040e-01,7.59938e-02,-1.40097e-01,5.97005e-02,-3.68696e-01,-1.65878e-01,4.51621e-02,8.63758e-02,-9.77464e-02,-3.04455e-01,1.14653e-01,6.30165e-02,2.58548e-01,4.41178e-01,1.55033e-02,-2.23727e-01,-3.29203e-02,-4.74061e-01,-9.89245e-01,3.21670e-01,4.16605e-01,-1.37517e-01,-1.57635e-01,-6.09973e-01,-2.41314e-02,-6.26922e-01,-1.74384e-01,1.08737e+00,1.40681e-02,1.83772e-01,-6.01589e-01,1.39595e-01,1.16339e-01,-4.36668e-01,-1.03538e-01,2.94290e-01,-1.49312e-01,-1.68249e-01,-8.73519e-01,3.54355e-02,-2.15174e-01,7.50674e-02,4.01401e-02,1.39714e-02,2.87157e-03,
-5.56024e-02,-7.32925e-05,-1.89383e-01,-2.49947e-01,2.68192e-02,3.67365e-01,9.90656e-01,1.06126e-01,8.79210e-01,-3.86135e-01,-8.29923e-02,5.59170e-03,-5.72355e-01,1.12067e-01,7.70411e-01,1.39813e-02,1.54658e-03,-5.55450e-02,-2.30500e-01,-3.67376e-02,-7.09707e-03,-3.12718e-03,1.56364e+00,-4.04825e-01,-4.29230e-02,2.88584e-01,5.03804e-01,9.35762e-01,-1.20662e-01,2.72565e-02,1.83069e-01,-1.22878e-01,3.68877e-01,9.59108e-03,-6.62992e-01,-3.75086e-01,1.14308e-02,-8.04425e-03,-4.61071e-01,8.50220e-02,-4.17502e-01,7.47990e-02,1.48380e-01,1.01382e-02,9.40867e-03,6.61801e-01,3.27387e-01,-1.87834e-01,-1.24395e-02,-1.83603e-02,
-3.83725e-02,3.28393e-02,-4.79565e-02,3.36002e-02,2.13719e-02,2.67495e-02,-3.25604e-02,-4.48804e-02,2.85167e-02,-2.11495e-02,2.92819e-02,-3.39101e-03,-2.56381e-02,-7.08877e-03,-2.76056e-02,-2.90700e-02,-2.08736e-02,-1.24153e-02,-6.17796e-03,-5.55118e-03,1.14555e-02,-9.77853e-03,-8.48568e-03,-2.91676e-02,1.89861e-02,-3.72788e-02,-8.71424e-03,1.34786e-02,-3.04083e-02,-1.75246e-02,-2.09285e-02,-1.85834e-02,-2.12729e-02,-1.41475e-03,2.78899e-02,-1.67685e-02,-2.86981e-02,2.88734e-02,-5.46309e-02,-5.89247e-02,-3.21267e-03,-5.00087e-02,-1.04837e-02,9.67235e-03,1.78090e-02,-5.28471e-02,-3.10591e-02,2.94364e-02,1.24599e-02,7.88287e-03,
2.77503e-01,2.90049e-02,1.45964e-01,9.85682e-01,-4.04681e-01,6.18166e-03,4.49858e-02,-2.55931e-01,-4.72222e-01,6.46613e-02,-6.46473e-02,-3.46416e-02,2.86766e-01,2.34450e-01,-1.00949e+00,-3.91618e-01,-6.21985e-01,-3.20783e-02,-3.66747e-02,-4.19693e-02,-6.48245e-02,-2.01103e-02,-4.87325e-01,2.44647e-01,-5.58442e-01,-3.17207e-01,1.95659e-01,-6.13313e-01,7.78051e-02,-4.08237e-02,2.92879e-02,-6.31140e-01,-1.38127e+00,-4.29134e-02,6.33878e-01,2.89890e-01,5.24726e-01,4.36453e-01,-1.29209e-01,3.72761e-01,7.54145e-02,1.27134e-01,-3.36885e-01,-7.39473e-01,-1.07258e-02,-3.40597e-01,-5.83141e-01,4.03469e-01,-2.72372e-02,4.17144e-03,
6.42648e-01,-1.64200e-02,9.96962e-01,-2.81125e-01,7.48270e-01,3.67487e-01,-4.36170e-01,1.53057e-01,-1.21480e-01,-3.53332e-01,-3.44493e-01,7.89350e-03,-8.88385e-01,-3.94627e-01,-3.33448e-01,-4.94807e-01,4.26015e-01,-1.83178e-01,-1.19241e-01,2.44438e-02,1.48064e+00,-1.86290e-02,-3.24193e-02,-2.77773e-01,7.83856e-01,5.74808e-01,1.82910e-01,2.91063e-01,-5.34956e-03,1.48288e-02,1.02377e+00,-3.46721e-01,5.09087e-01,2.06655e-02,-3.82521e-01,-5.85375e-01,-3.23950e-01,5.34090e-01,-2.42678e-02,-5.80199e-01,1.88955e-01,3.52971e-01,-6.43442e-02,-1.09673e+00,1.33930e-02,1.35862e-01,4.26837e-01,-3.86543e-01,-4.23063e-02,-3.24757e-02,
2.87994e-01,-1.07803e-02,3.65362e-01,3.99983e-01,2.10875e-01,5.25806e-01,-2.03797e-01,1.06015e-01,-1.89376e-01,7.05160e-01,-5.69325e-01,1.66661e-02,-1.16183e-01,-3.47783e-02,7.92829e-01,-5.42776e-01,-4.12344e-01,-1.05833e-01,-2.31157e-01,3.69408e-02,6.50309e-01,-1.84985e-02,3.64889e-02,-4.75997e-01,-2.29839e-01,3.78362e-01,2.54782e-01,2.55411e-01,3.90969e-01,2.84394e-03,1.28338e+00,1.73304e-01,7.76998e-01,-9.85268e-03,-1.30039e+00,-3.87019e-01,-4.06065e-01,-3.85174e-01,1.91862e-01,-1.42538e+00,-4.61152e-01,4.50158e-01,-5.27613e-01,8.03113e-01,-1.23212e-02,2.73441e-01,-1.31206e-02,2.10104e-01,-4.26498e-02,4.73871e-02,
-6.08839e-02,-2.23967e-02,-2.24146e-02,2.15088e-02,-1.51920e-02,-3.14948e-02,-1.41684e-02,2.34186e-02,3.92624e-02,3.24515e-02,-4.32257e-02,8.67107e-03,-3.44070e-02,-4.30511e-02,4.02403e-02,1.71742e-02,-3.79947e-02,-2.68935e-02,3.33302e-02,1.39307e-02,1.65524e-02,4.74890e-02,2.67150e-02,9.86886e-03,-4.23743e-02,-4.07883e-02,-5.46554e-02,-3.44548e-02,6.56877e-03,-3.85720e-02,2.70585e-02,-1.27187e-02,-5.86049e-02,2.98644e-02,-5.08237e-02,5.83379e-03,-1.35957e-02,-4.65640e-02,-4.55889e-02,-1.46772e-03,-1.71893e-02,-1.38066e-02,2.98600e-02,-3.36738e-03,-2.11602e-02,3.46733e-02,-2.09246e-02,-3.13585e-02,-3.37936e-02,-4.02752e-03,
-1.68779e-01,2.92656e-02,-4.92359e-01,1.09718e+00,1.47736e-01,4.88358e-02,1.45931e-01,-4.96818e-01,4.88780e-03,-2.70986e-01,1.72047e-01,2.16962e-02,3.70436e-01,-2.71017e-01,-6.19049e-01,2.21161e-01,6.37606e-01,2.28543e-01,1.09848e-01,-1.08053e-02,3.13825e-01,-3.00161e-02,8.61309e-01,7.46525e-01,4.06807e-01,-7.16273e-04,-2.12977e-01,2.22140e-01,2.06187e-01,-3.66004e-03,-1.59274e-01,3.20292e-01,-7.79309e-01,3.76575e-02,2.70698e-01,5.35519e-01,2.80405e-01,1.55793e-01,-5.44035e-01,2.14579e-02,4.10681e-01,1.75721e-01,1.32193e-01,7.68448e-01,-2.75512e-02,-3.56941e-01,-3.73318e-01,-1.77774e-01,-5.26762e-02,-4.48627e-02,
-6.06408e-01,-1.41891e-02,7.28497e-01,-9.03737e-01,-5.38215e-01,-1.43124e-01,-1.39600e+00,9.20658e-01,4.58943e-02,1.11722e-01,-8.81181e-01,-3.87523e-02,1.51190e+00,3.55501e-01,-6.36637e-01,-4.03676e-01,9.19937e-02,1.19553e-01,-1.14553e+00,-3.89913e-02,2.94512e-01,3.91950e-02,6.23299e-02,-1.12271e+00,4.04195e-01,2.62410e-02,7.25233e-01,-9.59802e-01,-2.65926e-01,-2.60659e-02,4.46541e-02,-3.53100e-01,-3.53239e-01,1.01510e-03,-1.01456e+00,1.35493e-01,1.20823e+00,-3.78496e-01,-3.20473e-01,7.44451e-01,6.29080e-01,6.84968e-01,5.79582e-01,-1.83283e-01,4.16652e-02,-2.22000e-02,-3.20350e-01,-5.08595e-01,2.47606e-02,4.26309e-02,
7.16066e-02,-6.09607e-03,2.36227e-02,-9.95013e-02,-4.81490e-01,-8.52714e-03,2.23086e-02,-1.80713e-01,2.10397e-01,5.52910e-01,-2.48663e-01,-4.28790e-02,-3.36851e-01,-7.61315e-02,9.37572e-02,-7.80334e-02,-1.17701e-01,-3.67799e-01,1.54197e-01,2.01093e-02,-8.61972e-01,5.37316e-02,2.76750e-01,4.17870e-01,2.49370e-02,-1.99744e-01,-3.34664e-01,3.71841e-01,-3.18035e-01,1.82341e-03,1.83477e-02,3.86975e-01,3.32659e-01,-2.94812e-03,5.20972e-01,-2.43718e-01,1.71169e-01,-1.62952e-02,3.57163e-01,4.31946e-02,-2.79883e-01,1.27080e-01,1.16417e-01,2.06104e-01,-4.76081e-03,-2.93237e-02,1.07946e-01,1.78641e-02,1.61260e-02,-3.14282e-02,
1.71943e-01,-4.35164e-02,1.97578e-01,-6.59261e-01,-5.51192e-01,-5.34831e-02,-3.09643e-01,5.32976e-02,1.40394e-02,-1.55617e-01,-2.45343e-01,1.29327e-02,-2.09471e-01,-3.67690e-02,-8.47177e-01,-7.90000e-01,3.69040e-01,-3.25348e-01,4.82469e-01,3.33635e-02,-2.04041e-02,-9.65309e-03,-3.58710e-01,1.01774e+00,-4.22639e-01,1.71956e-01,2.55813e-01,3.23188e-01,-2.29796e-01,-1.64468e-02,1.02600e-01,3.14391e-01,-1.13001e+00,-3.54107e-02,1.13145e-01,2.08850e-01,3.12260e-01,9.47487e-01,2.82730e-01,6.63035e-01,4.70435e-01,-3.30133e-01,6.70713e-01,3.18889e-01,5.01004e-02,1.00401e-01,2.15068e-01,-4.01966e-01,-1.42467e-02,2.13250e-02,
3.83761e-01,-1.45685e-02,-8.47574e-01,-5.98644e-01,-6.85710e-02,1.42806e-01,7.25679e-01,-5.72695e-01,-8.97787e-03,9.82575e-01,3.75507e-01,-2.31594e-02,-7.60340e-01,2.63874e-01,-2.33361e-01,1.24414e+00,-2.62896e+00,-1.24812e-01,6.28694e-01,4.25052e-02,4.40837e-01,-4.46164e-02,7.44739e-01,3.60192e-01,-6.76069e-01,-2.67545e-01,1.07063e-01,-4.65577e+00,1.46107e-01,1.65897e-02,-2.00558e-01,2.51553e-01,-4.24568e-01,1.03485e-02,-8.27644e-01,3.00806e-03,-3.31339e-01,-8.97085e-01,2.12558e-01,3.64233e-01,-2.74600e-01,8.01585e-01,4.06213e-01,-4.57192e-01,-2.48632e-02,2.98428e-01,-4.28430e-01,-3.07014e-01,1.98119e-02,2.67158e-02,
-4.04579e-01,-2.47291e-02,-3.90194e-01,-6.80822e-01,3.27118e-01,3.18915e-01,5.21768e-02,1.36615e-01,3.46920e-01,-4.18667e-01,-3.13275e-01,-3.28029e-02,-8.04756e-02,8.21061e-02,-2.04891e-01,2.54268e-01,1.15346e-01,-1.93929e-02,-2.62090e-02,-3.03694e-02,-6.46118e-01,-5.12719e-02,-3.46076e-01,4.37221e-01,-6.43665e-01,1.08049e-01,1.97302e-01,1.20977e-02,-1.98817e-01,-1.86427e-02,4.28810e-01,4.31978e-01,-2.85828e-01,-3.82843e-02,1.26495e-01,-1.63747e-01,3.50439e-02,-4.90658e-01,-2.59661e-01,3.81525e-02,-9.74210e-02,2.75033e-01,2.49448e-01,3.46826e-01,-1.04487e-02,-1.71636e-01,-2.40317e-01,-1.76563e-01,-7.04572e-03,2.44875e-02,
5.95003e-02,3.26625e-02,1.33046e-01,-3.34000e-02,1.23180e+00,2.14911e-01,8.73287e-02,-1.60846e-01,-1.77291e-01,-5.17932e-01,-7.63623e-02,-3.24678e-02,-1.43595e-01,2.58607e-03,1.07582e-02,2.01231e-01,-8.81484e-02,-1.22501e-01,1.29215e-01,1.72309e-02,5.48732e-02,-1.21101e-02,-3.36473e-01,-6.20613e-01,-4.76213e-01,-8.75243e-02,-8.00530e-02,-2.52181e-01,-4.04285e-02,-9.46787e-03,5.30819e-01,-3.73939e-01,3.42595e-01,2.71801e-02,1.18692e-01,-1.71534e-02,-2.69349e-01,3.74092e-01,1.93679e-01,-2.85821e-01,-6.29502e-01,-6.53404e-02,-5.04571e-02,-7.86550e-01,3.13985e-02,2.41153e-02,7.12430e-01,-1.43323e+00,-3.63578e-02,-4.77843e-02,
7.08712e-01,4.91527e-02,6.69684e-02,-1.20164e+00,8.93142e-01,1.64573e-01,-5.68710e-02,1.44784e+00,-4.36461e-01,-2.24729e+00,-2.76578e-01,2.31732e-02,1.76925e-01,5.23019e-01,-2.34318e-01,3.57738e-01,-7.55713e-01,2.38333e-01,3.02461e-01,2.83514e-02,1.67773e+00,1.82553e-02,6.32117e-01,-3.64179e-01,-2.26436e-01,-1.62587e-01,6.59484e-01,-6.84375e-01,-3.92721e-01,-3.97370e-02,1.13324e+00,8.88309e-01,7.83240e-01,1.20764e-02,-5.26897e-01,-1.23411e+00,2.22907e-01,-5.13163e-01,-1.87807e-01,-1.54167e+00,-5.48227e-01,-5.25929e-01,-7.15927e-01,7.36067e-01,-2.38987e-03,-6.41963e-03,-7.27375e-02,1.58177e-01,8.98571e-03,5.10780e-02,
3.10394e-02,-1.75915e-02,4.91757e-01,-2.59216e-01,6.39334e-02,-3.43331e-02,3.83383e-01,4.48847e-01,-1.57353e-01,-1.47731e-01,-2.64044e-02,-1.82754e-03,-1.75893e-01,3.61753e-01,1.37755e-01,1.95920e-01,-1.61852e-01,-4.85479e-02,-7.13937e-02,9.25910e-03,1.06859e-02,-7.33236e-03,7.15700e-02,-2.60509e-02,-2.62347e-01,-2.88804e-02,1.55878e-01,1.62152e+00,1.81452e-01,-4.51193e-02,2.71876e-01,1.38832e-01,4.48016e-01,4.86324e-02,-6.75681e-01,-3.35532e-02,1.34985e-01,-3.09108e-01,-2.73297e-01,-9.34433e-02,-1.31190e-01,1.09810e+00,1.62306e-01,-1.55401e-01,-1.19219e-02,-1.50431e-01,1.35500e-01,-2.53003e-01,1.98056e-04,-3.35452e-02,
2.12115e-02,4.07303e-02,-1.81032e-01,-1.60535e+00,-5.73949e-01,-6.85867e-02,2.52929e-01,2.55651e-01,3.66251e-01,8.02234e-01,-3.40516e-01,2.02079e-02,-7.82523e-01,-8.97565e-02,4.01673e-01,1.97500e-01,-7.14833e-02,-6.30983e-01,1.46475e-01,-1.41239e-02,-5.93964e-01,-3.75789e-02,-3.45375e-01,2.54403e-01,-1.28076e-01,-6.08853e-01,-2.70401e-01,-9.37550e-02,-4.05243e-01,3.90687e-02,5.78474e-01,6.12167e-01,5.28778e-01,2.13036e-02,5.83148e-01,-4.65108e-01,-4.13785e-01,-1.22065e-01,4.87153e-01,2.62908e-01,-3.22186e-01,2.11766e-02,3.44844e-01,2.29920e-01,2.48145e-02,2.22016e-01,2.95463e-01,-2.78148e-01,-5.23104e-02,-3.34537e-02,
-3.39893e-01,-2.93389e-02,1.64430e-01,-1.56473e+00,-4.02079e-01,7.08334e-01,-3.49957e-01,9.14907e-01,-5.82059e-01,-9.15360e-01,8.68704e-02,-4.98855e-02,-7.82453e-01,-1.67333e+00,5.32429e-01,4.03040e-01,-9.42356e-02,-3.17119e-01,7.31338e-01,5.34036e-03,1.42401e-01,3.12740e-02,-7.49734e+00,-3.17044e-01,8.62326e-01,9.10790e-02,-9.13224e-01,-1.92746e-01,-3.10237e-02,3.93015e-02,-2.83839e-01,8.58058e-01,-5.43534e-01,1.61915e-03,5.41939e-02,4.02543e-01,7.86534e-01,5.81344e-01,2.20767e-01,3.36111e-01,1.30757e-02,2.03377e-02,-1.73116e-01,7.37956e-01,-2.74130e-02,-8.46640e-01,1.47300e-01,7.56711e-01,-2.84574e-03,-9.63810e-04,
-1.53839e+00,
-2.07807e-02,
-1.75015e-02,
-1.54689e+00,
4.80248e-02,
5.17977e-01,
4.56680e-02,
-6.04599e-01,
-1.51922e+00,
5.65219e-01,
-1.92209e-02,
1.29685e-01,
1.31594e-02,
4.25461e-01,
1.15752e+00,
-3.08059e-02,
4.37018e-01,
-2.44040e-01,
-1.52011e-01,
-6.04795e-02,
1.20917e-01,
-1.59637e+00,
-3.40728e-01,
-1.79646e+00,
3.37817e-01,
-1.54388e+00,
-6.60026e-01,
-3.81629e-03,
7.12903e-01,
-1.75946e-02,
7.76632e-01,
-1.13447e+00,
4.67466e-01,
7.08779e-01,
-2.80021e-02,
5.55418e-01,
-4.91524e-01,
-3.06317e-01,
-1.33561e-02,
-1.09275e-01,
1.08857e-01,
3.27149e-01,
4.92070e-01,
2.18809e-01,
7.11479e-01,
-1.59272e+00,
-9.32728e-02,
1.56080e-01,
6.94920e-01,
-1.46417e+00,
-3.50460e-01,-5.27924e-02,-2.56834e-02,-8.87322e-01,-3.38079e-01,-9.59052e-01,-4.02958e-01,9.07898e-02,2.81162e-01,4.36930e-01,-2.46401e-03,1.62332e-01,-3.75390e-01,1.70827e+00,2.12932e-01,-9.70308e-03,1.27193e+00,-5.13035e-01,5.18799e-01,6.59625e-01,-1.60241e-01,5.19408e-01,5.83629e-01,1.30005e+00,2.98269e-01,9.72972e-02,8.05709e-01,8.06094e-02,2.61346e+00,-4.55353e-02,-1.43258e+00,2.60103e-01,1.15182e+00,4.33727e-01,-1.09015e-02,1.59415e-01,1.53549e-01,-4.07418e+00,-1.92127e-02,-3.07279e-01,2.13681e-01,3.29447e+00,-7.98134e-01,2.86419e-01,-2.27756e+00,8.42642e-01,-8.66227e-01,-2.63485e-01,-2.57766e+00,-3.25310e-02,
-3.72861e-01,4.00723e-02,-1.90713e-03,1.02578e-01,-4.34403e-01,6.66991e-02,-6.40090e-01,-4.72602e-02,1.09319e+00,5.86076e-01,-1.40605e-02,-3.39375e-01,-3.85304e-01,6.84165e-01,3.77134e-01,3.83031e-02,3.84100e-01,1.23679e+00,-3.90907e-01,2.19329e-01,-3.22449e-01,2.88651e-01,-3.53776e-01,-3.99145e-01,-5.22248e-02,3.04359e-01,1.46463e-02,-8.78033e-02,1.81526e-01,4.44786e-02,2.02701e-01,6.27955e-01,1.11458e-01,4.25022e-01,-4.20598e-02,-8.69312e-02,9.68004e-01,1.74455e-01,-1.87604e-02,3.06414e-01,3.81690e-01,6.04300e-01,-3.83136e-01,1.61857e-01,2.33067e-01,-2.41347e-01,8.63791e-02,-1.53831e-01,1.23179e-01,-4.59597e-02,
8.92284e-01,-2.52256e-03,-4.63265e-02,8.09582e-02,-6.31316e-01,-8.12999e-01,-2.04853e+00,2.21793e-01,1.55294e+00,-2.73379e-01,2.86963e-02,-3.79245e-01,1.72788e-01,9.67812e-01,-2.20207e-01,9.66724e-03,2.70541e-02,-1.92557e-01,1.11582e-01,-7.70017e-01,-4.77817e-02,-3.82373e-01,4.83475e-01,1.58991e-01,-1.29640e-01,-1.36961e+00,-8.17457e-02,-1.02505e+00,1.44432e+00,-3.45339e-02,-1.34949e+00,3.87104e-01,-4.22304e-01,-2.19402e-01,2.31376e-02,-1.32473e+00,9.96899e-01,1.63378e+00,-3.79256e-02,5.02131e-01,2.71258e-01,-1.81246e+00,-1.52576e-01,4.64531e-01,3.07383e-01,1.06011e+00,-1.00687e+00,-5.63730e-01,-1.92091e-01,-3.69809e-02,
-9.78039e-01,-4.95264e-02,2.79658e-02,-1.28657e+00,-4.43055e-01,5.85721e-02,-6.70793e-01,-2.76400e-01,-9.15027e-02,8.53606e-01,2.94359e-02,-3.81909e-01,-8.09131e-02,6.02016e-01,1.85192e-01,-2.98254e-02,-6.07127e-01,-2.61535e+00,-7.06659e-01,2.10013e-01,8.62898e-01,4.43624e-01,-5.05790e-01,-8.09542e-01,6.42060e-01,-2.76666e-01,3.58888e-01,1.10421e-01,7.63023e-01,3.79952e-02,4.29389e-01,4.17069e-01,-8.83872e-01,9.58328e-02,2.14927e-02,3.49119e-02,-8.31861e-01,-3.49489e-01,-1.96288e-02,2.90769e-01,-5.94873e-02,5.91999e-01,1.02186e-01,-3.02128e-01,-8.98352e-01,-4.43865e+00,-6.78654e-01,1.35326e-02,-5.33847e-01,7.20553e-02,
3.37207e-01,4.25582e-02,2.06722e-02,-3.92432e-01,-2.06106e-01,-1.35691e-01,4.42528e-01,4.82434e-01,7.74913e-01,4.65621e-01,-8.76837e-04,-1.20427e+00,-4.73478e-01,4.65049e-01,1.31010e+00,-3.39988e-02,-9.33030e-03,-1.30190e+00,-2.72396e+00,3.63365e-01,-5.86042e-01,-4.19099e-01,1.19724e+00,-3.71265e-01,6.96255e-02,-1.80763e-01,4.08576e-01,-1.85008e-01,3.00464e-02,-1.09568e-02,-3.11990e-01,1.17533e+00,2.00980e+00,1.94103e-01,2.52849e-02,5.65179e-02,1.05940e+00,-1.13594e+00,3.59716e-02,4.25036e-02,-1.61604e+00,1.42779e+00,-8.63092e-01,-2.72719e-01,8.70496e-01,-7.90971e-02,1.33405e-01,1.44817e-01,-1.00873e+00,7.02333e-02,
-1.98637e-01,3.77474e-02,3.35352e-02,-7.55409e-02,-8.84060e-02,7.93518e-02,3.34208e-02,4.39602e-02,-4.47324e-02,-4.07341e-03,-4.32266e-02,7.95569e-02,1.48243e-01,-2.25609e-01,-8.68458e-02,6.99627e-03,1.21027e-02,5.13361e-02,-7.33096e-02,3.63540e-01,-6.58627e-02,-7.20193e-02,-3.38282e-02,-6.97066e-02,-8.92994e-02,-1.76799e-01,5.95762e-02,1.50251e-02,-1.18238e-01,2.37322e-02,-9.89258e-03,-5.17024e-02,-5.20556e-02,-1.54942e-01,2.69739e-02,-5.92316e-02,-6.55727e-02,5.73787e-02,3.98775e-02,-2.01838e-01,1.89242e-02,-1.96365e-01,-7.25601e-02,1.41929e-02,6.25495e-03,-2.19290e-01,4.79602e-02,-1.71334e-02,-1.24436e-01,-5.80612e-02,
6.62949e-01,2.83868e-02,-8.32364e-03,6.41134e-01,5.75792e-01,3.68540e-01,-1.30336e-01,-5.64231e-01,-1.27610e+00,-9.17694e-01,-3.67928e-02,1.53505e-01,-5.23822e-01,1.54501e-01,-5.49356e-01,2.69928e-02,2.80103e-01,1.24577e+00,1.34787e-01,-5.97301e-01,-2.79720e-01,5.96044e-01,-1.04244e+00,1.31606e+00,8.61498e-02,3.53858e-01,1.83416e-01,5.87896e-01,-2.36496e+00,-3.61912e-02,-2.70882e+00,-9.29041e-01,3.01944e-01,4.39142e-01,3.38189e-02,9.44190e-01,-2.85398e-01,8.69555e-01,5.89515e-03,-2.83645e-02,-1.00745e+00,1.58212e-01,1.18154e-01,-2.28531e-01,-1.69773e+00,-5.65209e-01,5.66068e-02,-3.59672e-02,-1.33833e+00,9.36955e-01,
-3.90237e-02,-5.61736e-02,3.02667e-02,1.61879e-01,9.37096e-02,3.23146e-01,-5.28134e-01,3.05893e-01,1.44204e+00,6.79782e-02,-7.28354e-03,2.03310e-01,2.77498e-01,9.78765e-01,1.46825e-01,4.86017e-04,5.28145e-01,-1.20860e-01,3.90402e-01,-3.36315e-01,-1.96395e-01,-3.17154e-01,2.94245e-01,-4.64731e-01,9.54338e-02,2.05127e-01,8.59839e-02,-1.17528e-01,-2.27767e-01,2.46553e-02,7.58401e-01,5.53152e-01,2.56073e-01,-2.11586e-01,5.90462e-02,-1.62321e-01,-5.78869e-01,2.09872e-01,3.28573e-02,-1.62234e-01,3.55955e-01,1.09367e+00,-8.84775e-02,2.17127e-01,4.92125e-01,2.32164e-01,2.47345e-01,-3.35103e-01,-1.54727e-01,-2.30103e-01,
-1.20466e-01,4.42642e-02,-5.10358e-02,1.00235e-01,5.40896e-02,4.03243e-01,-9.99416e-02,2.80298e-01,-1.55847e-01,-5.85480e-02,1.22894e-02,-1.56269e-01,3.72011e-01,5.72845e-01,-5.51487e-01,-4.91415e-02,-1.56309e-01,9.33776e-02,-9.68948e-02,2.47636e-01,6.12626e-02,4.57280e-02,-5.44571e-02,-9.35809e-02,-5.35937e-02,5.76365e-01,-4.08305e-02,2.69686e-01,-2.35820e-01,3.28941e-02,5.05522e-01,6.55721e-04,-3.32563e-01,-1.28005e-01,5.45535e-03,1.48490e-01,-1.62207e-01,3.05344e-01,-3.68061e-02,5.22145e-02,1.58878e-01,3.86442e-01,-1.35677e-01,5.33171e-02,4.06223e-01,-6.40451e-01,3.98001e-01,-5.14333e-02,5.83807e-01,-4.75465e-01,
-1.88672e-01,3.91947e-02,-3.37353e-02,-7.44704e-02,-1.94574e-01,1.34445e+00,-1.36819e+00,-2.16323e-01,-3.89488e-01,-5.64318e-01,-4.68318e-02,-9.19211e-01,2.23342e-01,1.81673e+00,-2.24772e-01,1.09407e-03,2.71352e-01,-3.28245e-02,1.59401e-01,-7.57528e-02,-9.08187e-01,4.87733e-01,6.83082e-01,-7.51202e-03,3.83320e-02,3.12831e-01,4.70528e-01,-9.60327e-02,-9.55340e-01,3.36204e-02,-4.80129e-04,-6.64778e-01,3.92830e-02,9.86036e-01,-2.84145e-02,-5.37947e-02,3.07275e-01,1.82009e-01,2.64235e-02,6.78048e-02,7.10949e-02,-1.14223e+00,4.39785e-01,-5.99569e-01,6.55477e-01,-1.96771e-01,-3.58371e-01,9.64989e-01,2.40513e-01,-1.85388e-01,
6.48301e-02,-2.50405e-02,-2.81793e-02,-9.74700e-02,-1.86374e-01,2.51066e-01,-1.63073e-01,-4.47863e-01,-2.20119e-01,4.81515e-01,1.27594e-02,2.82388e-02,-1.95313e-01,-9.04926e-02,-2.51416e-01,-3.37828e-02,2.38966e-01,1.07401e+00,2.62960e-01,-1.23818e+00,-7.47216e-01,2.70387e-01,-1.18952e-01,1.22410e-01,1.06338e-01,-1.47286e-01,-1.72527e-01,6.47352e-02,7.22254e-01,-3.78929e-02,3.58259e-01,-1.01834e-01,9.67772e-02,-7.05191e-02,-6.00773e-03,-7.72917e-02,-3.37789e-01,5.03798e-01,-2.38644e-02,1.59503e-02,3.55946e-01,-1.40695e-01,5.70124e-01,-1.02478e-02,-8.05354e-01,4.10017e-01,6.81318e-02,1.38501e-01,-2.17547e-02,2.37955e-02,
5.97722e-02,-3.54048e-02,3.01853e-02,1.79436e-02,5.92299e-02,1.63543e-01,1.84813e-01,-4.65373e-02,3.27852e-01,-3.43302e-01,-3.16263e-02,-2.38753e-02,4.79913e-02,-3.53349e-01,-1.09319e-01,-3.50860e-02,-9.82246e-02,1.06925e-01,1.19146e-01,-1.92306e-01,-4.03981e-01,-6.94006e-03,-3.42637e-01,-1.21235e-01,-1.53934e-02,2.14819e-01,3.51757e-02,1.49971e-01,1.10336e-01,2.70769e-02,-5.58819e-03,8.99596e-02,-4.32639e-01,-1.76967e-01,-9.15820e-03,-4.90801e-01,2.62202e-01,-5.29029e-01,3.58300e-02,4.15987e-02,1.79480e-01,4.42570e-02,-1.71648e-01,-3.20885e-02,-1.23134e-02,3.37972e-02,-9.31097e-02,5.80367e-02,1.78802e-01,-1.72700e-01,
2.35440e-01,-4.52972e-02,-1.70661e-02,-1.77835e-02,-4.18297e-01,-1.28591e-01,-3.44155e-01,1.33523e-01,-1.92282e+01,-1.28669e-02,4.06287e-02,2.25496e-01,8.85057e-02,2.10649e-01,2.42802e-01,1.12174e-03,-1.79745e-01,3.70441e-02,-1.08041e-02,5.02014e-01,6.82159e-02,8.86621e-02,8.54476e-01,-5.10634e-01,5.55985e-02,8.10185e-03,-1.33477e-01,-4.28865e-02,-3.64216e-01,-2.16721e-02,8.36302e-01,-3.39113e-01,-1.55313e-01,5.29150e-02,2.83054e-02,4.63193e-01,-3.23664e-01,4.39871e-01,5.20709e-02,5.80058e-01,1.66551e-02,1.08989e-01,3.72319e-02,2.95992e-01,1.75822e-01,-3.22008e-04,5.51141e-01,-2.10166e-01,5.05472e-02,8.59984e-03,
-9.06707e-02,-2.77682e-02,1.24939e-02,-1.27604e-01,-5.36993e-01,-2.73388e-02,-3.88380e-01,-1.51992e-01,2.30056e-01,-2.16444e-01,-5.69599e-03,-9.94591e-02,1.54629e-01,-3.90452e-01,2.24366e-01,-1.06282e-02,-1.70402e-01,-1.62165e-02,-5.15269e-02,-7.99703e-02,-2.25106e-01,-7.75257e-02,1.78720e-01,1.12881e-03,-8.33120e-03,3.24431e-02,9.92375e-02,-4.44631e-03,6.95309e-01,2.96675e-02,-2.33544e-01,1.77376e-01,5.59380e-01,-2.36619e-02,4.39655e-02,1.11415e-01,6.49916e-02,-4.94579e-03,7.63011e-03,-1.80881e-02,-9.91697e-02,-1.78684e-02,1.44733e-01,1.59239e-01,-9.87450e-02,-1.39643e-01,3.75317e-02,-2.59802e-02,-2.18799e-01,-2.97634e-01,
1.18776e-02,4.06188e-02,2.81518e-02,1.72948e-01,-5.02760e-01,-1.45912e-01,2.20651e-01,-1.72824e-01,-9.20732e-02,-8.72715e-03,4.14089e-02,2.07504e-02,5.78195e-02,5.80438e-01,-6.18183e-02,-5.18566e-02,8.95070e-02,5.16207e-01,-2.09396e-01,-1.37007e+00,-1.47062e-01,1.67101e-01,1.56811e-01,1.03398e-01,-7.25090e-02,-1.30029e-01,-9.28818e-02,-9.32969e-02,-2.30884e-01,2.11910e-02,-1.47987e-01,3.04653e-01,-1.41566e-01,2.86518e-01,2.05802e-02,4.20847e-01,-1.58224e-01,-3.28658e-02,3.67068e-02,4.37518e-01,-3.41398e-02,-3.40114e-01,-1.90993e-01,-9.36120e-02,-1.20020e-01,1.25249e-01,-1.07449e-01,4.88882e-01,1.49861e-01,3.74440e-02,
1.88725e-01,-8.83061e-03,-4.50962e-03,2.55809e-01,7.65318e-01,-6.20088e-01,-1.19524e+00,2.85359e-01,1.01427e+00,-5.51625e-01,-5.70246e-03,-2.32657e-01,1.86849e-01,-1.59408e+00,-2.08928e-01,4.15974e-02,-2.51243e-01,-3.27606e-01,3.11289e-02,6.54932e-01,-2.99883e-01,2.16383e-01,-3.11706e+00,-4.16978e-02,1.44890e-01,-2.28755e-01,-2.63196e-01,-5.16282e-01,-7.02621e-02,2.27861e-02,-1.26790e-01,-4.02614e-01,1.51879e-01,-7.12550e-01,-7.87620e-03,-5.10188e-01,6.11971e-01,-1.97358e-01,3.42337e-03,2.28167e-01,1.04698e-01,-2.17565e-01,1.24532e-01,-1.18893e-01,-1.31877e-01,-3.06263e-01,-1.31958e-01,-1.16072e+00,3.58960e-01,6.41026e-01,
8.38713e-04,1.14039e-02,1.34055e-02,-2.70651e-01,4.33293e-01,4.69956e-02,4.69363e-01,5.31604e-02,3.67200e-02,7.41423e-02,3.00678e-02,-8.59607e-02,2.81430e-01,-7.85351e-01,-2.05939e-01,7.86312e-03,-6.17154e-01,2.80184e-01,-5.18069e-01,-5.04830e-01,1.31329e-01,2.33524e-01,2.93379e-01,-8.00678e-02,-4.34542e-01,-6.07438e-01,-5.03382e-01,-5.89754e-01,5.20027e-01,2.64497e-02,-2.43522e-01,3.01885e-01,-7.42412e-01,-1.57281e-02,-1.70345e-03,-1.47276e-02,4.54056e-01,6.61807e-02,3.54308e-02,2.06761e-01,-4.76493e-02,-3.35106e-01,-4.39116e-01,-5.19471e-02,4.26641e-01,-5.03944e-01,7.13851e-01,1.12801e-01,1.28665e-01,5.85371e-02,
-5.58718e-01,-2.90477e-02,3.92349e-02,9.51944e-01,6.76290e-01,-1.39615e-01,-8.71848e-01,5.03508e-02,-1.55879e+01,-2.42068e-01,1.52148e-02,1.22119e+00,-1.13122e-01,-1.50797e+00,2.35895e-01,2.01969e-02,1.36695e-01,-1.71226e+00,-2.64334e-01,-4.03098e-01,-5.83625e-01,9.23953e-02,-9.32877e-01,-3.86356e-01,-1.46208e-01,-1.45437e-01,5.69144e-02,-4.42982e-02,5.20967e-01,3.46300e-03,6.75003e-02,-8.29901e-01,3.28400e-01,-1.21314e+00,2.74840e-02,-3.35438e-01,-3.60529e-01,5.09595e-01,-2.95755e-03,1.38199e-01,1.00006e-01,-4.43993e-01,2.30360e-01,-2.27985e-01,-2.57869e-01,4.12927e-01,4.15664e-01,1.00846e+00,1.46177e-01,4.48068e-01,
3.71429e-01,3.54849e-02,1.96052e-02,4.65459e-01,-5.91021e-01,3.69504e-01,8.79415e-01,-5.34680e-01,3.26034e+00,1.20362e-01,-3.90869e-02,-8.97333e-01,2.15808e-01,5.06782e-01,6.00527e-02,3.09147e-02,-6.78617e-01,-9.29913e-02,-4.25322e-01,3.08225e-01,5.64460e-01,1.35845e+00,2.02113e-01,6.00700e-01,9.70507e-02,5.86195e-01,-3.04837e-01,-4.56009e-01,-1.04561e+00,-4.93035e-02,-5.35544e-03,1.45621e-01,-6.92231e-01,1.88191e-01,2.82948e-02,7.04648e-01,-4.46247e-01,-3.23596e-01,2.21448e-02,6.48740e-01,-4.38714e-02,-8.76676e-01,3.36513e-03,-4.15285e-01,6.75432e-01,-9.56735e-01,-4.31730e-01,-3.89529e-01,-1.76261e-03,-1.15707e-01,
-1.11100e-02,-1.80335e-02,-3.92812e-02,-2.24817e-01,-2.66574e-01,1.09769e-01,-4.65222e-01,1.30565e-01,1.78166e-01,2.46181e-01,-4.67003e-03,1.62639e-01,-1.42971e-02,1.40376e-01,-8.03103e-02,1.95579e-02,1.15350e-02,3.29092e-03,6.52198e-02,3.88032e-01,1.80913e-01,3.17864e-02,-1.02666e-01,-7.89083e-02,8.39407e-02,3.38733e-02,8.71107e-02,5.32857e-02,-1.15852e-01,-4.18231e-02,4.67295e-01,-1.25522e-01,3.30115e-01,-4.47703e-01,7.25999e-03,1.62229e-01,-4.31888e-01,5.49186e-01,4.19637e-02,-3.39835e-01,-1.09512e-01,2.05129e-01,2.33482e-01,4.02012e-01,-9.40747e-02,4.66749e-01,2.01695e-01,4.04030e-01,-1.56748e-01,-2.02118e-01,
7.54183e-01,2.57561e-02,1.50005e-03,4.03807e-01,-7.27105e-01,-4.97968e-01,2.22099e+00,3.14894e-01,3.81494e-01,-6.12642e-01,-4.08240e-02,1.44595e-01,3.11250e-01,4.44491e-01,-9.61651e-02,-1.92647e-02,4.15300e-01,-2.78119e-01,8.06101e-02,-2.51503e+00,1.60708e-01,-4.12781e-01,1.33603e-01,4.59293e-01,-1.79900e-01,4.76912e-01,-1.12681e-01,-2.20864e-01,-5.05350e-01,-4.76530e-03,-8.98210e-01,-3.90493e-01,-4.86339e-01,-5.28357e-02,-4.03898e-02,-1.16506e+00,4.74877e-01,-2.24225e+00,-6.56922e-03,3.56864e-01,3.24665e-01,-8.01717e-01,-4.19567e-01,9.36733e-03,-2.71131e+00,6.47363e-01,-6.33380e-01,-1.98636e-01,-4.94153e-01,-5.82629e-01,
-2.47801e-02,1.09434e-02,-2.67098e-02,3.29931e-02,3.64453e-01,1.91137e-01,-4.94006e-01,3.29844e-02,1.66277e-01,2.80823e-01,4.40482e-02,-1.93617e-01,1.23149e-01,-1.13969e+00,-3.09386e-01,4.62895e-02,-5.18977e-01,4.44320e-01,-3.40635e-02,-6.10805e-01,1.83568e-01,4.67551e-01,3.88061e-01,-6.40760e-02,1.37399e-01,-1.09435e-01,-2.46961e-01,1.88118e-01,1.98073e+00,-1.80638e-03,-4.41713e-02,2.03274e-01,-4.67007e-01,2.34415e-02,3.89187e-02,-1.89905e-01,1.15143e-01,-6.96100e-01,3.84865e-02,4.92157e-02,1.42208e-01,-2.32179e-01,9.22887e-02,1.26658e-01,-6.24497e-01,-7.25062e-01,-8.97231e-02,-1.68102e-01,-1.31866e-01,4.39784e-02,
6.67751e-01,3.72320e-02,4.14564e-02,-2.26324e-01,-1.58136e+00,-4.65928e-01,2.05152e-01,-4.25639e-01,-1.49084e+00,1.95005e-01,-6.50791e-04,-6.42657e-02,-1.67502e-02,-3.36415e-01,2.52998e-01,1.22191e-02,-6.74971e-03,-1.33747e+00,-5.58096e-01,-1.22948e+00,2.28833e-01,-5.78879e-02,8.93517e-02,-4.79994e-01,1.03446e-01,-4.20742e-02,-2.79216e-01,-5.08840e-01,-7.09485e-01,4.67349e-02,-1.48199e+00,3.52618e-01,-2.24358e-01,3.06029e-01,2.60876e-02,-2.77206e-01,-7.89988e-02,1.37288e-01,1.81700e-02,5.05381e-01,2.91649e-01,4.74865e-01,-1.11330e+00,2.25585e-01,2.90940e-01,-4.29700e-01,-6.78148e-01,-5.85938e-01,-5.13854e-01,5.56996e-01,
-4.68750e-01,-3.50686e-02,-2.81540e-02,-4.06265e-01,8.31806e-01,-7.43433e-01,2.74523e-01,-5.55426e-01,4.09361e-02,6.44539e-02,2.69495e-02,-2.02569e-01,2.30737e-02,8.19534e-01,-3.71061e-01,2.68789e-02,-2.81406e-01,4.91078e-01,-1.68431e-01,7.89232e-01,-5.86589e-04,-3.99843e-01,-4.07987e-02,-2.21144e-01,-8.12462e-02,-4.51416e-01,-1.78615e-01,1.21547e-01,-3.35688e-01,2.27300e-02,-3.81299e-01,1.15595e+00,-7.10733e-02,-3.96367e-04,-5.97824e-03,3.50709e-01,1.59136e-01,-3.56046e-02,3.35829e-02,9.56448e-01,4.54321e-02,-1.03251e+00,-4.85616e-01,1.43004e-01,2.63316e-01,-4.71816e-01,4.36058e-01,2.53556e-03,5.58214e-01,-1.19262e-01,
-1.32723e+00,-3.99925e-02,-2.26171e-02,-8.66352e+00,-2.55406e-01,2.38439e-02,5.41282e-01,3.13919e-01,-1.99894e+00,-1.70914e-01,-3.98156e-02,3.88861e-01,-2.85673e-01,8.22919e-01,-1.80901e+00,2.05928e-02,5.45312e-01,2.46698e+00,1.16131e+00,-1.11322e+00,-3.12387e-01,1.13488e+00,-1.43900e+00,-2.15146e-02,2.34523e-01,-8.07719e-03,4.15044e-01,4.08490e-01,2.11679e+00,9.71962e-03,-6.38591e-01,-3.20406e+00,6.15772e-02,9.93860e-02,2.24132e-02,3.22553e-01,4.22275e-01,1.06104e-01,4.39086e-02,-6.59834e-01,8.14935e-01,3.75938e-01,-2.56174e+00,-2.38895e+00,1.79573e-01,-3.55636e-02,3.95687e-01,-2.87389e-01,-6.41534e-01,4.36468e-01,
-4.54337e-02,-2.18532e-02,-3.36129e-02,-7.75710e-02,-1.65554e+00,4.46762e-01,-9.17555e-01,-3.33483e-01,1.46774e-01,-5.86497e-01,2.33978e-02,7.54064e-01,-6.22908e-01,3.26958e-01,2.17546e-01,2.13631e-02,1.47729e-01,-1.68347e+00,1.69082e-01,-3.96959e-01,3.83057e-01,1.02309e+00,1.49721e-01,-1.20303e-01,3.30407e-01,-4.25119e-01,2.27584e-01,4.21023e-01,1.83560e+00,2.73935e-02,-2.09987e+00,-6.53935e-01,-5.65166e-01,3.44883e-01,-3.02405e-02,-3.98574e-01,-3.41400e-02,1.38091e+00,-3.27258e-02,-4.42678e-01,1.33098e-01,-3.79614e-01,1.25420e-01,7.61535e-02,5.09527e-01,7.11447e-01,-8.85322e-01,-5.62793e-02,-1.04002e+00,-3.97344e-01,
1.48109e-01,1.69811e-02,-3.37917e-02,-8.06544e-01,5.98521e-01,1.11830e-01,4.77715e-02,1.02675e-01,1.96051e-01,2.33399e-01,-3.31207e-02,-2.02470e-01,-3.72401e-01,-1.41740e-01,6.86153e-01,1.66887e-02,3.40542e-01,-3.64182e-01,-1.49109e-01,3.51573e-02,1.88173e-01,6.67661e-02,-2.78036e-01,-2.72023e-01,-1.46140e-01,-3.84342e-01,1.44816e-01,8.44927e-02,4.96904e-01,2.83390e-02,-1.84403e-01,-6.42310e-01,4.73081e-02,-1.04324e-02,1.20467e-02,3.19276e-01,9.77656e-03,-1.22634e+00,-4.31684e-02,-5.85541e-03,-2.22542e-01,-3.98826e-01,-8.95216e-02,-1.10271e-01,-9.56598e-01,-2.66604e-01,-2.93338e-01,3.56995e-01,-2.03331e-01,1.38081e-01,
3.84952e-01,-1.70613e-02,-2.43087e-03,5.65035e-01,1.31955e+00,1.74531e-01,1.48425e-02,2.13165e-02,4.08031e-01,1.44274e-02,-2.95651e-02,-1.50550e-02,1.20102e-01,3.44068e-01,-1.11908e-01,-3.73839e-02,1.11977e-01,-2.04418e-01,1.23913e-02,-4.46154e-02,2.13271e-01,-3.95318e-02,-7.59128e-01,5.78089e-01,2.58580e-01,-2.97171e-01,-1.76117e-01,-8.63236e-02,1.10751e-02,2.17838e-02,-5.91384e-01,5.16455e-01,-7.11172e-01,1.21268e-01,-6.46359e-02,3.35239e-01,3.52191e-01,-1.84252e-01,-7.16535e-03,7.28253e-02,-1.22168e-01,1.02875e+00,-2.45454e-01,-2.49797e-01,5.05094e-01,2.03188e-01,-6.93726e-02,-2.26265e-01,-1.73597e-01,-3.24958e-01,
-3.98353e-01,-2.25168e-02,4.25849e-04,8.82534e-02,4.80779e-01,1.86854e-01,2.13933e-01,-1.52288e-01,-2.01762e-01,-7.17291e-01,-2.95664e-02,-8.14124e-01,5.24478e-02,3.02078e-01,-8.50543e-02,7.59784e-03,-9.03244e-02,-3.78030e-01,3.01328e-01,-1.59091e-01,-2.25856e-02,-7.45760e-02,-2.93567e-01,-2.98958e-01,-5.70861e-02,3.72848e-01,4.98500e-01,-1.88631e-01,-6.21309e-01,1.21988e-02,-1.17777e+00,-1.80862e-01,4.53965e-02,-4.14657e-02,3.92054e-02,3.78303e-01,5.03236e-01,2.80554e-01,3.16809e-02,4.09606e-01,-7.25155e-02,-2.34770e-01,9.17162e-02,-2.75169e-01,4.52146e-02,-3.07981e+00,-4.52654e+00,-2.21601e-01,-5.25526e-01,5.90931e-01,
1.50945e-01,2.62044e-03,-1.11643e-02,-9.95830e-01,-1.37573e+00,-2.09749e-01,-3.49973e-01,1.06459e-01,-2.74157e-01,-2.43526e-01,-2.58734e-02,-9.25754e-01,-1.23056e-01,1.35322e+00,-3.20612e-01,-3.44159e-02,1.19455e-02,-1.76618e-01,-9.69898e-01,-1.05381e-01,-2.03050e-01,-5.34249e-01,1.96810e-02,-2.54543e-02,1.80404e-01,-1.81232e-01,-1.14391e-01,6.30622e-02,1.18382e+00,4.06378e-02,-2.09599e-01,1.65319e-01,-5.03535e-01,1.37174e-01,2.58699e-03,6.01990e-02,-5.55250e-01,8.88085e-01,3.28005e-02,-1.14363e-01,5.61309e-02,-8.32265e-01,-1.38938e-01,-4.48971e-01,1.04528e+00,4.39921e-01,7.26732e-01,-9.99613e-02,-5.68076e-02,5.46411e-01,
-5.15268e-01,-4.08515e-02,-1.98366e-02,-1.37204e-01,-5.27194e-01,-1.36877e-01,-1.14132e+00,-3.59061e-01,6.29085e-01,-3.74662e-02,-1.41954e-02,-1.66059e-02,3.03340e-01,-7.19811e-01,-2.26235e-01,3.67169e-02,5.88239e-01,1.03501e-01,1.01381e-01,-1.01064e+00,-6.29495e-01,-1.46917e-01,2.55874e-01,-1.78689e-01,1.62649e-03,2.76103e-02,3.46356e-01,7.40901e-02,1.01321e+00,-2.18039e-02,-2.01099e-01,2.15692e-01,6.66022e-01,5.34548e-01,6.47293e-03,-4.11005e-01,5.55628e-02,-9.36561e-01,-2.81005e-02,-6.14269e-01,-5.17832e-02,5.83720e-01,-4.63618e-01,2.04474e-01,-8.70999e-01,-3.02723e-01,-3.27628e-01,4.42070e-01,-4.13247e-01,-2.31702e-01,
-3.34117e-01,2.57323e-02,1.63331e-03,-6.25083e-01,7.54928e-01,5.55955e-02,4.38410e-01,-1.61852e-01,-3.02481e-02,-1.83906e+00,-4.42429e-02,5.53860e-01,-1.86339e-01,8.79138e-01,2.73484e-01,-1.83414e-03,4.96178e-01,1.78116e+00,1.66971e-01,-1.09326e+00,5.56744e-01,1.47422e-01,4.00404e-01,6.15947e-02,-3.31903e-01,4.43088e-01,-1.38813e-03,2.48977e-01,-1.48729e+00,2.93885e-02,2.11204e-01,-5.01398e-01,1.04920e-01,-5.52716e-01,1.27536e-02,-1.09031e-01,-4.48431e-02,1.28293e+00,-3.70553e-02,4.69195e-01,-4.06337e-01,-3.21813e-01,-1.43092e-01,-4.73732e-01,6.66173e-01,-1.85902e-01,-1.01135e+00,5.22766e-01,-2.80773e-01,4.69817e-01,
6.76399e-02,-4.78924e-02,-3.98508e-03,3.24645e-02,-1.58990e-01,-2.05659e-01,4.83539e-01,-1.43679e-02,7.37006e-03,4.21443e-01,6.45858e-03,-3.48517e-01,-7.97891e-02,6.86645e-01,4.16737e-01,-2.66974e-02,6.90636e-02,-2.33192e-01,-2.09713e-01,-1.27432e-02,-2.90074e-01,-2.64842e-01,2.78645e-03,1.58809e-01,-6.50293e-02,9.70647e-02,1.93312e-01,6.51051e-03,3.84734e-01,-1.93022e-04,2.34845e-02,5.88258e-02,4.99907e-01,2.36945e-01,3.27982e-02,-6.27688e-02,2.22095e-01,1.45529e-01,2.40859e-02,2.36484e-01,-1.74032e-01,1.09986e+00,-2.77992e-01,-2.70215e-01,1.76071e-01,-6.12970e-02,8.56748e-02,4.29556e-01,-4.35488e-01,5.86991e-02,
-1.69040e-01,-4.02710e-02,-2.27258e-02,-3.24268e-01,-7.82428e-01,-1.29574e-02,4.24367e-01,3.79026e-01,6.75447e-01,-1.30595e-01,1.35786e-02,-9.67842e-02,-4.28108e-01,-2.05303e-01,-7.81414e-02,-2.32496e-02,-1.36228e+00,1.93135e-01,-1.00261e+00,4.58742e-01,3.69470e-01,-4.01820e+00,1.87739e-01,-6.69155e-01,-1.54178e-01,3.86391e-01,-1.92480e-01,-2.41973e-01,-1.15757e+00,-5.49987e-03,3.25002e-01,-2.28879e-03,7.52713e-01,-2.85216e-01,-3.46634e-02,6.03007e-01,3.77023e-01,-2.97845e-01,-1.10161e-02,3.40305e-01,2.64395e-01,9.86100e-04,-1.88142e-02,-4.21590e-01,-7.73866e-02,-8.38954e-01,4.90001e-01,5.78233e-01,-1.99707e-01,-5.19376e-03,
-3.20003e-02,-2.81029e-02,2.51411e-02,2.89866e-01,4.91820e-01,-4.91735e-02,6.14655e-01,6.34515e-01,2.26007e-01,5.57531e-01,-1.00816e-02,9.82186e-01,1.01126e-01,-1.00555e+00,8.87199e-02,-3.36508e-02,3.51269e-01,-3.05525e-01,-3.16519e-04,-4.10037e-01,2.06749e-01,-9.44635e-02,3.39583e-01,-2.38447e-01,2.43410e-01,2.84020e-01,3.20607e-02,4.97154e-01,-2.15556e-01,3.32580e-02,1.54721e-01,9.95145e-01,-1.78606e-01,3.39376e-01,-2.16858e-02,5.29916e-01,1.45106e-02,-3.77778e-01,2.94604e-02,1.97898e-01,4.81001e-01,2.84877e-01,-2.60003e-01,-4.82182e-01,-4.58835e-01,-6.83933e-02,-3.61904e-02,-1.89789e-01,5.05437e-01,3.34304e-02,
-4.49503e-01,-1.64034e-02,-2.20081e-02,3.50432e-01,3.38061e-02,-4.37994e-01,-4.02823e-01,-1.99989e-02,2.52723e-01,2.15957e-02,9.21236e-03,-8.42859e-02,-8.38962e-02,3.12642e-01,-3.97716e-01,2.05432e-02,4.32857e-02,5.79681e-01,1.13645e-02,-1.27285e-03,6.72250e-01,-5.24961e-01,-4.23307e-01,-1.69850e-01,4.92837e-02,3.97336e-01,3.51084e-01,4.02168e-01,6.91516e-01,8.56059e-03,5.29064e-01,6.55686e-01,5.00878e-01,5.21701e-01,3.82554e-02,-3.91147e-02,-4.17728e-01,5.80557e-01,-3.23285e-02,3.65062e-01,8.29952e-01,1.00786e+00,-1.23743e-01,-7.12498e-02,-3.74038e-01,-1.42242e+00,2.68190e-01,-3.22915e-01,2.84073e-01,5.01194e-01,
-8.47298e-02,-3.33670e-02,4.90678e-03,1.68955e-01,-3.57918e-01,5.00285e-02,-2.56759e-01,-2.83604e-02,1.80137e-01,-1.16685e-02,-2.77800e-02,9.53591e-02,4.50757e-02,5.56096e-02,-1.59201e-02,-8.00525e-03,1.15142e-01,2.71989e-01,2.13633e-01,2.99420e-01,-8.23756e-01,-8.71818e-04,1.77131e-01,-1.96786e-01,-2.75054e-03,-7.11464e-02,1.14255e-01,1.00598e-01,-3.84227e-03,3.69552e-03,-8.29593e-03,1.90940e-02,1.33753e-01,9.41493e-02,6.67324e-03,-1.00222e-01,1.85216e-01,8.33986e-02,1.30785e-02,1.82577e-01,1.25933e-01,2.74969e-01,3.01298e-02,9.79731e-02,-1.46222e-02,3.93997e-02,-2.69329e-02,-2.83557e-02,-3.58687e-02,-5.00093e-02,
2.03818e-02,2.57636e-02,-2.20778e-02,-4.24083e-01,-7.15974e-01,1.21738e-01,4.32988e-02,-2.31614e-01,3.94045e-03,1.47523e-01,-1.38591e-02,-1.18583e-01,-5.04008e-02,-1.13224e+00,6.22085e-01,3.38201e-02,-2.16413e-01,9.78695e-02,1.50179e-01,4.78078e-01,-2.62545e-01,-3.12666e-01,1.06912e+00,-2.43461e-01,2.42005e-01,-1.09512e-01,-1.57786e-01,2.72801e-01,-5.47098e-01,-7.60938e-03,1.07897e-01,-1.47722e-01,-6.84606e-02,1.74001e-01,-3.69194e-03,5.71192e-01,-1.48291e-01,3.69127e-01,2.52926e-02,5.98526e-01,-2.05307e-01,-5.90554e-01,3.51080e-01,-4.01312e-01,-2.53965e-01,3.28332e-01,-5.62717e-01,-3.17567e-02,1.02518e-01,-2.21354e-01,
8.30978e-02,3.75324e-03,3.44296e-02,-5.56305e-03,2.06131e-01,-2.28827e-01,-4.28697e-01,2.84613e-01,7.45465e-01,-5.45676e-02,6.33154e-03,-6.27095e-01,8.46319e-03,-1.98370e-02,1.03112e-02,-2.40017e-02,-2.49460e-01,-1.62852e-01,-2.93384e-01,3.05601e-01,2.76226e-01,-4.61226e-01,-1.52437e-01,1.34384e-01,-8.73025e-02,3.88918e-01,1.00536e-01,1.41087e-01,2.91658e-01,-4.41283e-02,3.12520e-01,2.16489e-01,-2.60575e-01,-6.89237e-02,1.35972e-02,1.84852e-01,-2.00419e-01,5.61969e-01,5.49264e-03,4.59023e-01,-6.57199e-02,4.45270e-01,3.19494e-02,-2.89153e-01,1.40191e-01,1.66356e-02,2.25254e-01,-7.51667e-02,1.43904e-01,1.54509e-01,
3.68899e-01,7.85925e-03,8.28841e-03,1.75710e-01,-3.45379e+00,-1.98129e-01,2.15004e-01,9.25655e-01,1.03255e+00,-4.11211e-01,-6.42679e-03,-2.93970e-01,2.06486e-02,-5.31658e-01,-6.65755e-01,-1.84352e-03,-1.16869e+00,-1.63627e+00,4.68706e-01,6.94493e-02,-5.17771e-01,4.95745e-01,3.45982e-01,-1.01032e+00,5.15312e-01,1.08643e+00,-9.20069e-02,3.54983e-01,-1.56729e+00,-4.81031e-02,6.94125e-01,-8.61235e-01,-1.97286e+00,-9.24788e-01,6.52936e-03,4.15719e-01,-1.74858e+00,2.43476e-01,1.43014e-02,6.68646e-01,4.58923e-01,7.82785e-02,5.09325e-01,8.48794e-01,-3.33808e-02,4.43415e-01,-8.43930e-03,1.53061e-02,1.27515e-01,5.20553e-01,
-5.58530e-02,-2.40573e-02,1.82554e-02,-5.32135e-02,-2.50862e-02,1.29648e-02,-5.20442e-03,-4.46083e-02,-3.76702e-02,1.74246e-02,-3.14805e-02,-3.40311e-02,2.42162e-02,-1.82465e-02,3.09898e-02,-3.77235e-02,1.71596e-03,-1.50289e-03,-6.14816e-02,-2.67127e-02,-7.29147e-02,4.21507e-02,-5.15030e-02,-1.96844e-02,8.38730e-03,-1.02476e-02,5.76647e-03,-1.44724e-02,1.24782e-02,4.93240e-02,-2.66020e-02,-2.12205e-02,2.75963e-02,-6.19623e-02,1.76419e-02,-4.48899e-02,2.41447e-02,9.62003e-03,-1.67692e-02,1.55965e-02,3.75945e-03,-3.10048e-02,-1.01143e-02,2.82431e-02,-5.35971e-02,1.63195e-02,2.82584e-03,-5.74567e-02,-7.50762e-03,-4.02299e-03,
-1.98181e-01,-1.75736e-02,4.07265e-02,4.43072e-01,-3.74861e-02,-8.79658e-01,1.42507e+00,-4.52032e-01,-4.59583e+00,1.89141e-01,-2.14352e-02,-1.67316e-01,-1.99466e-02,-1.27847e+00,-2.34280e-02,-1.49365e-02,1.09476e-02,-2.68197e-01,3.19473e-01,-4.27362e-01,8.85797e-01,-1.44068e-01,-6.31412e-01,-2.79422e-01,-2.03095e-02,-3.04178e-01,1.47431e-01,3.93360e-01,8.34496e-01,-1.28074e-02,-3.18182e-01,-2.77239e-01,4.42393e-01,-2.31196e-01,-4.16554e-02,-4.16847e-01,2.85881e-01,1.08678e+00,1.41907e-02,-2.93455e-01,3.69798e-01,-5.69295e-01,-8.13531e-02,1.27765e-01,-2.73747e-01,5.16219e-02,-3.57588e-01,-1.89653e-01,3.40005e-01,1.23040e+00,
-2.89889e-01,1.13811e-02,8.90353e-03,2.26252e-01,-2.18715e-01,-5.16855e-02,-5.08815e-01,-8.27550e-02,-3.96229e+00,-1.97079e-02,9.70598e-03,-6.98118e-02,-4.82906e-02,4.18351e-01,-2.45608e-01,-3.89442e-02,-2.77061e-02,6.61786e-02,1.04016e-01,-2.74112e-01,3.50664e-01,1.70153e-03,-9.92269e-02,5.05440e-02,1.37639e-01,2.71326e-01,-1.18205e-01,2.83969e-01,5.00217e-01,-3.11980e-02,5.48844e-01,-2.87252e-01,-5.33170e-01,6.25776e-02,1.49998e-02,1.34403e-01,-2.51103e-01,6.10023e-01,-3.21968e-02,1.80044e-01,3.63943e-01,-2.30620e-01,8.54787e-02,1.55474e-01,3.29687e-01,-3.87210e-01,2.70597e-01,-2.33315e-01,4.45469e-01,2.38285e-01,
-2.06888e-01,-3.41409e-02,4.70402e-02,3.16295e-01,4.06050e-01,-2.07680e-01,-3.13744e-01,-5.54300e-02,-1.98287e-01,1.84507e-01,3.44267e-02,2.63536e-01,-1.28486e-01,6.56338e-01,-3.27381e-01,-4.16013e-02,2.70936e-01,-1.43767e-01,-2.34514e-01,6.62939e-02,2.04616e-01,-1.35797e-01,-1.61400e-01,-1.94376e-01,-6.57218e-02,2.51980e-01,4.66016e-02,1.71422e-01,3.45309e-01,-3.47550e-03,6.40114e-01,-4.52941e-01,-3.35304e-02,-4.60956e-03,-3.70998e-02,-5.59383e-02,-3.88245e-01,-1.13565e+00,3.55023e-02,2.62808e-01,8.84831e-02,-5.00103e-01,1.95672e-01,-5.90768e-01,-4.40771e-01,3.54122e-02,-1.53394e-01,1.45940e-01,3.24871e-01,8.10561e-02,
2.57789e-01,-8.93076e-03,2.65527e-02,6.13432e-01,8.03748e-02,1.66104e-01,1.21039e-02,-3.42774e-02,-1.10753e+00,1.23766e-02,6.94112e-03,1.34471e-02,-4.90315e-02,4.20413e-01,1.96221e-01,-1.00390e-02,-1.54405e-01,2.00585e-01,2.75809e-01,2.08705e-01,4.45810e-01,4.81821e-01,4.02921e-01,5.53271e-02,2.58966e-02,1.52656e-01,-2.94456e-01,-6.89969e-02,-3.49222e-01,3.68172e-02,1.41407e-01,-7.99334e-01,-2.34944e-01,-8.54532e-02,-3.47803e-03,5.21937e-01,-9.97303e-02,-2.13614e-01,-3.34556e-02,3.24371e-01,-1.32028e-01,5.90944e-01,1.96678e-01,3.48387e-01,5.18451e-01,-1.69307e-01,7.00995e-02,-7.10226e-02,-3.82477e-01,3.18983e-01,
3.57254e-02,1.81292e-02,-2.07996e-02,-1.01845e+00,-2.19843e+00,-3.12344e-03,-4.62542e-02,7.67817e-02,2.08415e-02,-8.32070e-02,-2.45553e-02,-2.95535e-02,-1.79355e-02,7.05673e-01,1.52582e-01,-1.49933e-02,1.14996e-02,-1.21809e-01,-2.22745e-01,6.19880e-01,2.72642e-01,-1.64223e-01,-9.26636e-02,-6.57768e-02,-1.13744e-01,-1.18591e+00,1.11732e-01,-8.72386e-02,5.22495e-01,-4.63743e-02,-6.49556e-02,2.40981e-01,1.48803e-01,-2.46317e-01,-9.78469e-04,-8.76073e-02,2.89125e-01,-9.47488e-02,1.30790e-02,-5.62450e-02,-3.41603e-02,-2.25579e-01,-8.10042e-02,1.33557e-01,1.66750e-01,3.60600e-01,-4.03921e-01,2.83496e-02,-9.38460e-01,-3.09680e-02,
-3.73977e-01,9.73048e-03,-4.11241e-02,3.61459e-01,-3.04859e+00,-1.09669e-01,-5.57860e-01,6.99585e-01,-8.99678e+00,2.99908e-01,-2.62078e-02,1.13813e+00,-5.90710e-01,6.34648e-01,-2.13323e-01,-2.12347e-02,3.94750e-01,4.16466e-01,-4.89576e+00,2.49944e-01,-6.42853e-01,-1.22040e-01,1.63200e+00,2.35089e-01,2.13788e-01,2.99625e-01,-3.52994e-02,-4.08296e-01,-9.05635e-01,3.94949e-02,3.26190e-01,4.52281e-01,6.78434e-01,-7.54315e-01,1.28379e-02,-6.62736e-01,-5.66697e-01,1.23956e+00,-4.75674e-02,-2.72542e-01,2.90513e-01,-4.86822e-01,1.13125e+00,-6.95467e-01,6.31325e-01,7.20554e-01,1.28538e-01,1.29620e-01,2.46739e-01,9.33111e-02,
-4.65837e-01,-4.23658e-02,1.99248e-02,5.79215e-01,1.08968e-01,-3.42126e-01,3.91559e-01,5.03692e-01,-1.85539e+00,-4.25523e-01,-4.00600e-02,-4.96039e-01,-1.66178e-01,1.90932e-01,-2.48081e-01,2.80200e-02,-4.57392e-02,-6.02679e-01,-3.20648e-01,-3.94853e-01,7.80609e-01,-1.08963e-01,4.10360e-01,3.11865e-01,-2.69632e-01,1.11983e+00,2.29469e-02,-4.10997e-02,-5.04140e-01,-1.14511e-03,5.31395e-01,-9.70527e-02,4.86586e-01,1.28977e-01,1.12118e-02,-5.36245e-02,-4.58638e-01,4.64827e-01,7.52096e-04,-1.80501e-01,-1.19979e-01,3.56191e-02,-1.25486e-01,-9.53947e-02,9.88090e-01,-1.00891e+00,2.29537e-01,-1.59499e-01,5.82194e-01,9.77294e-01,
-3.13773e-01,-2.59968e-02,-1.70004e-02,6.89790e-01,8.46241e-01,-1.48979e-01,1.36481e-01,1.99293e-01,-1.88872e+00,1.66909e-01,-3.04116e-02,-6.03918e-01,1.99889e-01,6.68609e-01,3.60010e-02,3.29961e-02,-1.32739e+00,-4.36839e-01,3.28838e-01,-1.00702e+00,-1.01243e+00,-4.36492e-01,-3.19985e-01,-1.71086e-02,-1.13891e-01,-4.02001e-01,-1.71301e-01,7.70637e-02,-1.39534e+00,-8.72848e-04,-1.91998e-01,-1.49070e-01,1.58923e-01,-2.03685e-01,1.99381e-03,6.83690e-01,-4.11350e-01,5.53488e-01,-4.18279e-02,7.48838e-01,-1.77942e-01,-7.32892e-01,3.08487e-02,-6.29115e-01,1.61306e+00,7.06945e-01,5.19055e-01,-2.59970e-02,4.99151e-01,2.71182e-01,
-8.78805e-01,2.68619e-02,3.15198e-02,9.87832e-02,-4.33985e-01,-3.33384e-01,-3.02776e-01,-2.42455e-01,-5.56091e-01,1.11663e-01,1.25174e-02,-1.14041e-01,-6.55679e-01,6.72363e-01,-6.55817e-02,-2.77522e-02,-7.53987e-01,1.67036e-01,-1.42852e+00,6.91275e-01,4.34375e-01,-1.74968e-01,-4.85636e-01,-6.96534e-02,8.82979e-02,-1.51530e-01,-7.90093e-02,3.18733e-01,-8.00038e-01,4.43817e-02,-1.85031e+00,-9.67131e-01,-1.69484e-01,2.62907e-01,-2.97852e-02,1.05725e+00,6.03851e-01,1.56563e+00,7.91065e-04,-3.01943e-02,9.12353e-03,-1.92668e+00,2.40842e-01,-8.20861e-01,6.97568e-01,8.68950e-02,4.95553e-01,4.43047e-01,4.60979e-01,6.35334e-01,
-9.41859e-01,
-7.95494e-01,
-5.18801e-01,
3.35650e-01,
3.92768e-01,
5.72164e-01,
-1.06088e+00,
-9.62107e-01,
-1.36801e-01,
1.31206e+00,
8.37923e-01,
6.54146e-01,
-2.43805e-01,
4.35748e-01,
3.17548e-01,
9.64113e-02,
6.71660e-01,
9.17896e-01,
-1.63374e+00,
-2.60570e-01,
-5.10535e-01,
1.52127e-01,
4.61573e-01,
2.91939e-01,
-8.96805e-01,
1.18398e+00,
-2.89979e-01,
-4.10838e-01,
-7.44461e-01,
4.97536e-01,
3.37965e+00,
-7.12338e-01,
-4.99933e-01,
-6.80980e-01,
-2.07166e+00,
-9.94450e-01,
6.94613e-02,
-2.36461e-01,
-8.74987e-01,
