// Neural Network File Format by Kyle Julian, Stanford 2016
7,5,5,50,
5,50,50,50,50,50,50,5,
0,
0.0,-3.141593,-3.141593,100.0,0.0,
60760.0,3.141593,3.141593,1200.0,1200.0,
19791.091,0.0,0.0,650.0,600.0,7.5188840201005975,
60261.0,6.28318530718,6.28318530718,1100.0,1200.0,373.94992,
-3.02143e-01,7.18840e-03,-4.32994e-03,-1.12147e+00,-3.49455e-01,
-1.34009e+00,6.89705e-02,2.40304e-01,-1.85468e-01,-2.60596e-01,
7.09354e-02,1.45248e+00,2.23476e-01,3.83436e-01,-1.23499e-01,
3.80148e-01,7.97733e-01,-7.97863e-01,-3.75550e-01,2.61837e-01,
-5.05590e-01,1.96705e-02,5.89488e-03,2.36101e-01,-4.40510e-01,
1.38492e-02,1.62953e-03,2.83630e-02,-4.23928e-01,-4.17963e-01,
-1.45457e+00,-9.37515e-02,9.93670e-03,-1.01678e-02,5.55508e-03,
7.10520e-01,2.57537e-02,-3.39523e-01,-7.69795e-02,-1.25037e-01,
9.84687e-02,1.23220e+00,4.60538e-01,3.20370e-01,-1.95380e-01,
2.71685e-02,3.01632e+00,9.02229e-02,1.01456e-01,-5.83035e-01,
7.38044e-02,1.80605e+00,-1.77653e+00,1.50783e-01,-3.46041e-02,
-1.11922e-01,5.76113e-01,-1.77249e+00,6.61339e-02,-4.61497e-01,
7.81035e-01,1.24027e-02,-3.67388e-03,1.72293e-01,-2.76320e-01,
2.95184e-01,3.85300e-01,-1.46553e-01,2.78899e-01,4.44403e-01,
-1.00989e-01,-7.77415e-02,-3.83209e-02,-3.12003e-01,-2.29189e+00,
1.72492e-01,-2.24664e-01,1.48482e+00,-3.16300e-02,3.29270e-01,
1.13059e-01,-1.72603e-02,-3.60550e-02,-8.91631e-03,8.35846e-01,
1.30399e-01,-1.07200e+00,1.04765e+00,-1.11780e-01,6.11720e-02,
-1.04906e+00,1.01099e-01,-1.94800e-01,6.11288e-03,2.89446e-02,
-9.90851e-01,6.55483e-02,-1.89650e-01,-1.71563e-01,-1.51744e-01,
-1.51559e-01,-3.00699e-01,-3.77252e-01,2.74800e-02,-1.52819e-01,
-1.17293e-02,-2.18231e-01,2.20914e-01,-6.33059e-01,-5.66351e-02,
2.45122e-02,-2.56918e-01,1.51112e-02,-2.15505e-01,5.27890e-02,
-2.91355e-01,-1.01585e-01,-1.18096e+00,5.35099e-02,5.12960e-02,
3.92254e-02,-2.62724e-01,4.04550e-01,-2.10374e-01,1.14837e-01,
-3.64780e-02,9.13114e-01,1.36426e-01,-3.11230e-01,8.77420e-02,
7.24277e-01,-1.90878e-02,9.67355e-02,5.14942e-01,-1.06037e+00,
2.31444e-01,-5.29109e-01,7.81964e-01,2.53409e-01,-1.44239e+00,
-1.31465e+00,-2.01037e-01,1.80506e-01,1.88857e-02,-9.68324e-03,
6.99161e-02,-2.34280e+00,1.58549e-01,4.04456e-01,-8.62892e-01,
1.25951e-02,-7.34365e-02,-2.30666e+00,1.69589e-02,1.19025e-04,
-2.87375e-02,4.07232e-01,-6.15190e-01,-4.26631e-02,9.38722e-02,
-1.65761e-01,3.31956e-02,3.14567e-03,2.29190e-01,2.09234e-01,
6.90012e-01,2.00808e-02,4.44548e-02,-1.14758e+00,7.99285e-01,
1.16856e+00,8.32219e-04,6.80551e-04,9.56382e-04,-1.19194e-03,
-6.92612e-01,1.17580e-01,6.72583e-02,1.63746e-02,5.00857e-02,
-2.50083e-02,8.11445e-02,1.73993e+00,5.48682e-02,-3.23448e-03,
-7.08615e-01,-1.62878e-01,-4.96511e-01,-2.32832e-01,1.60002e-01,
-9.18800e-01,1.05619e-01,7.11435e-01,-4.70076e-01,2.08443e-01,
3.61906e-02,-2.36358e+00,-6.88648e-02,2.44924e-01,1.10251e-01,
-2.23513e-01,-7.68223e-02,4.46469e-01,3.60814e-01,-6.41576e-01,
5.09666e-01,2.72667e+00,-3.32513e-01,-5.00196e-02,9.25211e-02,
-5.84998e-02,3.16745e-01,-5.15290e-01,-5.54716e-01,-4.34285e-02,
-1.56918e-01,-5.04032e-02,2.26351e-02,-6.38186e-01,6.80911e-01,
2.32487e-01,1.22204e+00,-4.42641e-02,4.11813e-01,-8.78329e-01,
-1.33601e+00,2.85575e-02,6.66533e-04,-7.26674e-04,1.66454e-02,
-1.35529e+00,2.85733e-02,1.00839e-01,1.45895e-02,-5.12612e-02,
6.22890e-03,1.77079e-02,-1.21062e-01,-4.79622e-01,-9.35570e-03,
-2.46467e-01,1.13859e-01,-4.07977e-01,2.40842e-01,-4.72255e-01,
-1.52435e+00,-6.97083e-03,2.60631e-05,1.67352e-03,-2.03047e-03,
-5.75619e-01,
-3.17107e-01,
1.39028e-01,
3.76153e-01,
-6.42247e-02,
-1.11228e-01,
-3.90821e-01,
8.21288e-02,
-5.33642e-02,
-1.97369e-01,
-5.74238e-01,
-3.19625e-01,
2.90834e-01,
-9.52945e-02,
-9.36926e-01,
5.29407e-02,
-2.07842e-01,
5.38087e-01,
-2.26285e-01,
-1.71576e-01,
6.77500e-02,
-1.92560e-01,
4.87348e-02,
-3.29118e-02,
1.27974e-01,
1.39315e-01,
1.39667e-01,
-4.84382e-01,
-2.78757e-01,
-2.20556e-01,
3.37223e-02,
2.93603e-01,
1.23054e-01,
-4.73773e-02,
3.75459e-01,
-1.36669e-01,
2.42774e-02,
-1.62213e-01,
-2.33994e-01,
1.94406e-01,
2.59341e-02,
7.08040e-01,
-2.13362e-02,
4.42113e-02,
-1.32518e-01,
-2.02317e-01,
-3.73387e-01,
1.29925e-01,
7.82927e-03,
-4.08928e-01,
1.26848e-01,-5.64357e-02,-1.52004e-01,3.20215e-01,-1.11681e-01,-1.98111e-01,-1.68718e+00,-1.23444e-01,3.07920e-01,-8.44922e-02,-9.41416e-02,2.19421e-01,4.90512e-01,2.66279e-02,1.66545e-01,1.28581e-01,3.56197e-02,2.77235e-01,-1.06077e+00,5.00878e-02,7.23178e-01,1.75613e-01,6.59067e-02,-1.58513e-01,1.87287e-01,2.51041e-01,1.19549e-02,-1.17470e-01,-5.83646e-01,8.43201e-02,1.50821e-01,2.47173e-01,5.43550e-01,-3.08485e-01,2.70248e+00,6.72661e-02,-5.69050e-02,1.96169e-01,-2.06476e-02,2.54261e-01,6.19275e-02,2.19291e-01,-1.53024e-01,-4.25753e-02,9.57766e-02,-1.02058e+00,-3.94122e-01,2.54378e-01,-1.79743e-01,-2.48981e+00,
5.16853e-03,-1.13367e-03,9.63993e-03,-3.44731e-02,-4.05083e-02,-4.21097e-02,2.41736e-02,9.76104e-03,-2.63390e-02,-1.68302e-02,-2.98311e-02,8.14011e-03,-1.44065e-02,2.85203e-02,-1.90087e-02,-5.04656e-02,-2.11790e-02,2.37903e-02,2.11903e-02,-3.87712e-02,-1.06303e-02,6.80092e-03,2.93974e-02,-1.16381e-02,1.90925e-02,-6.49192e-02,9.81118e-04,3.44574e-02,2.81561e-02,-2.04368e-02,1.12431e-02,-4.04455e-02,-4.23476e-03,-9.00864e-03,-6.22279e-02,-1.93686e-02,-4.92871e-02,2.52303e-03,-1.81320e-02,-2.04477e-02,2.56449e-02,-7.86421e-03,3.68668e-02,2.27114e-02,-3.17160e-02,2.01997e-02,-3.37275e-02,2.04485e-02,-7.59739e-03,2.39792e-02,
5.86211e-01,-2.58797e-02,6.25700e-02,-6.80216e-01,-5.22237e-01,1.22020e+00,3.05522e-01,1.04084e+00,3.70111e-01,2.82899e-01,-1.00504e+00,3.00767e-01,-3.23377e-01,5.33725e-01,-5.65270e-01,-3.00874e-01,-1.11677e-01,3.07704e-01,-5.59050e-02,7.73228e-03,-1.09989e-01,1.55020e-01,2.77794e-01,1.36254e-01,5.78985e-01,3.40171e-01,-8.66579e-01,5.51518e-01,5.26484e-01,5.81279e-01,3.56788e-01,2.88561e-01,-9.89824e-01,-1.86209e-01,-1.41846e-01,-1.02422e-01,1.71329e-01,-1.10105e-01,-4.24583e-01,4.54007e-01,-1.82805e-01,7.40951e-01,-3.04396e-02,1.05588e+00,2.97940e-01,-1.08395e-01,-1.43792e+00,5.39413e-01,6.59168e-03,2.12376e+00,
1.73191e-01,8.94417e-02,-6.54224e-01,-9.42241e-01,-2.72365e-01,-2.54031e-01,-6.50556e-01,-3.40973e-02,-4.50528e-02,-3.99326e-01,-4.74026e-02,-8.35050e-03,1.38115e-01,-8.66790e-01,-2.04227e-01,3.72604e-01,-6.76279e-03,2.26363e-01,-1.40196e+00,6.89833e-02,-5.78664e-01,7.96473e-02,-4.06084e-01,8.19003e-01,-3.60558e-02,-2.65449e-01,-1.28127e-01,-3.15766e-01,3.96181e-02,9.82205e-02,-2.68177e+00,-9.59760e-01,-5.72469e-01,-9.22187e-03,-4.76018e-01,2.49362e-01,1.14297e+00,4.68099e-01,-6.59248e-01,1.34963e+00,1.90515e-02,-1.33868e-01,3.83286e-01,4.52750e-01,3.15579e-01,-3.12034e-01,4.33995e-01,6.65257e-01,1.83204e-01,-5.82880e-01,
4.10758e-01,-1.39937e-01,6.95107e-01,5.10957e-01,3.34229e-01,-2.66395e-01,3.50973e-01,2.81920e-02,-9.72933e-02,-5.46875e-02,1.68475e+00,-6.78777e-01,-1.28858e-01,-6.68413e-02,-1.44252e+00,-1.38667e+00,2.71473e-01,-2.14339e+00,6.19316e-02,-1.79652e-01,1.45734e-01,-1.05441e+00,-3.91938e-01,3.73620e-01,-1.21244e+00,4.76868e-01,-1.90682e-01,8.85516e-01,8.98689e-01,-1.62393e-01,6.37568e-01,5.23707e-01,-5.17934e-01,3.17873e-01,-5.13072e-02,2.54804e-01,-3.79513e+00,2.12026e-01,-7.94208e-01,-5.33686e-01,5.65738e-03,6.09119e-01,-9.76554e-02,-9.76777e-02,-4.11593e-01,3.88076e-01,-1.45883e-02,-3.84916e-02,3.77793e-01,4.56426e-01,
-1.56429e+00,-7.19932e-01,1.35185e+00,-3.04089e-01,2.54594e-01,1.27471e+00,9.48761e-01,-5.96824e-01,-2.92875e-01,-7.01466e-01,7.66766e-01,-4.30706e-01,2.00050e-02,-8.80430e-02,5.22389e-01,-3.37815e-01,3.89154e-01,-1.95258e-02,-5.05834e-01,-8.77014e-01,1.03179e+00,-7.73406e-02,8.46792e-01,-6.09164e-02,1.97889e+00,-7.85810e-01,-5.89462e-01,-7.67423e-01,3.49095e-01,2.05389e-01,2.08395e-01,1.47905e+00,-9.64658e-01,-3.81460e-01,5.00455e-01,-4.40223e-01,1.97912e-01,-1.37325e+00,-5.83504e-01,2.09953e-01,9.10415e-01,-4.90714e-01,-4.90999e-01,-2.92488e-01,5.72172e-01,1.09995e-01,-5.18402e-01,-1.84372e+00,-1.26909e-03,9.77941e-01,
5.49732e-01,6.29113e-02,-1.31000e-01,-4.22231e-01,2.02941e-01,8.82693e-01,3.12491e-01,2.39247e-01,-1.78401e-02,5.63521e-01,-1.38075e-01,-1.29231e-02,-2.64232e-01,-3.22048e-02,1.31681e+00,-3.37955e-01,-1.00330e+01,2.33276e-01,-1.25705e-01,-1.03148e-02,2.59465e-02,-5.29567e-01,3.84043e-01,4.80527e-02,-3.92416e-01,-1.36514e-01,4.22262e-01,-1.49466e-01,-1.36443e-01,4.88941e-01,9.41016e-03,3.93619e-01,-1.43079e+00,-1.83968e-02,1.46450e-01,1.50982e-01,4.34478e-02,-1.55579e-01,1.41310e-01,-6.41698e-01,-3.25989e-03,-3.72378e-01,2.56643e-01,-7.24502e-01,-2.20508e-01,1.80281e-01,6.78996e-01,3.47038e-01,1.77380e-01,-3.24929e-01,
-8.55341e-02,3.70534e-01,-5.50687e-01,-1.16588e+00,-3.04588e-01,-2.06900e-01,-3.97500e-01,3.22170e-01,4.14294e-01,5.34048e-02,8.56502e-01,6.54013e-01,5.44056e-01,4.81380e-01,-2.21722e-01,8.92789e-02,-7.05667e-02,1.39070e-02,4.69468e-01,-4.66572e-01,3.66571e-01,7.64620e-02,-1.03574e-01,-3.28232e-01,1.82755e-01,-1.06651e+00,4.32574e-02,-7.59759e-01,5.38930e-01,-6.38579e-02,9.99685e-01,-8.05447e-01,-2.52756e-01,3.03655e-01,3.67070e-01,1.37338e-01,4.75261e-01,5.78402e-01,1.63959e-01,-4.07140e-02,2.05731e-01,-4.18929e-01,5.61541e-01,6.11345e-01,4.46410e-01,2.86379e-01,2.93046e-01,3.65308e-02,-1.11003e+00,7.95488e-01,
-4.18234e-01,-2.83313e-01,3.84044e-02,8.12727e-01,2.62577e-02,-5.54041e-01,1.79567e+00,3.12367e-01,5.50642e-01,4.47761e-01,-3.22270e-01,4.61472e-01,3.61962e-01,-6.75780e-02,2.21158e-01,-3.37371e-01,3.38947e-01,4.14927e-01,1.06391e+00,-6.09518e-02,1.77201e+00,7.87652e-01,7.53275e-01,-3.67835e-02,2.30441e-01,4.76140e-01,1.39614e-01,-1.26855e-01,-4.24267e-01,2.93443e-01,-7.30528e-01,3.19763e-01,-7.87170e-02,-1.06089e-01,2.30539e+00,6.30560e-02,1.05420e-01,9.53626e-01,5.63198e-01,4.96487e-01,-8.23579e-02,2.38414e-01,-4.01577e-01,-5.43184e-01,-1.13455e-01,5.19325e-02,-4.82752e-01,-9.51124e-01,-5.51483e-01,-1.75270e+00,
3.93053e-01,-9.41543e-02,-2.60509e-01,-9.47527e-01,9.58543e-02,-2.12836e-01,9.21331e-02,-1.60110e-02,-4.04839e-01,-1.55282e-01,1.82076e-01,7.89954e-02,5.95243e-02,-2.57978e-01,-6.99960e-01,9.44786e-01,6.92117e-02,8.73693e-01,-1.11080e+00,1.93496e-01,8.82364e-01,4.47116e-01,-4.17487e-01,-3.09121e+00,2.62216e-01,-6.69905e-01,1.17907e-01,-5.48571e-01,2.86335e-01,-3.16274e-01,-3.05076e-01,-3.18689e+00,4.90769e-01,3.41728e-01,2.84115e-01,-1.95644e-01,8.25786e-01,5.70874e-01,-9.39179e-02,4.98929e-01,-7.79559e-02,-6.96681e-01,-1.00077e+00,-1.40898e-01,-5.07480e-02,-1.56018e-01,4.34657e-02,1.31241e-02,-8.74027e-01,9.70548e-02,
1.57531e-01,5.03326e-02,6.94021e-01,1.07268e+00,1.20023e-01,1.97074e-01,-1.06980e+00,1.32996e-01,-5.10668e-01,-4.79759e-01,1.77975e+00,1.44116e+00,9.23852e-02,-3.15529e-01,1.34916e+00,1.04534e+00,5.09032e-01,4.56128e-01,1.21134e+00,4.93660e-01,-6.50905e-01,-8.39370e-01,1.01676e-01,4.25115e-01,-2.84062e-01,-9.58656e-01,1.88578e-01,-9.50788e-02,4.81456e-01,1.76091e-01,5.87501e-01,-8.45027e-02,8.89289e-02,-2.30026e-01,-5.02610e-01,-4.26383e-01,3.78476e-02,5.77356e-01,-2.01878e-01,-9.25001e-01,1.24458e+00,3.85784e-01,-2.74678e-01,9.11751e-03,-5.84581e-01,-9.44101e-01,1.78447e+00,-3.68964e-01,-7.02520e-01,-1.72528e+00,
1.40331e-04,-4.53587e-03,-2.55362e-02,-3.70097e-02,-2.41252e-02,2.00756e-02,-2.08640e-02,-8.68403e-03,-2.86525e-02,-3.40269e-02,1.65484e-02,3.59121e-02,2.24086e-02,6.33536e-03,-2.51961e-04,-8.13353e-03,-4.91742e-02,1.83398e-02,-5.37706e-02,-4.23230e-02,-3.27568e-02,-4.78622e-02,1.68635e-02,-3.86653e-02,-1.25170e-02,-2.95653e-02,-4.83332e-04,1.56949e-02,1.21755e-02,3.49694e-02,-7.17614e-03,-4.45254e-02,-1.99476e-02,-3.12885e-02,-1.46288e-02,9.39025e-03,-4.93666e-02,1.09935e-02,1.92190e-02,-4.42206e-02,-2.21635e-02,-3.96875e-02,8.64342e-03,2.96477e-02,-4.15495e-02,2.63365e-02,4.07842e-04,2.04974e-02,-5.49595e-02,3.87812e-02,
-8.55090e-01,7.96649e-01,-3.38386e-01,2.29767e-01,-1.42617e-01,1.10018e+00,-4.38676e-01,-7.90569e-01,2.57084e-01,-3.83310e-04,-1.79485e+00,6.72292e-01,1.97660e-01,2.82257e-01,1.82653e+00,-2.23012e-03,-1.95053e+00,2.25480e-02,-6.68214e-01,-9.32021e-02,-1.05236e-01,7.47599e-01,7.85412e-01,-1.52790e-01,6.05026e-01,-6.71526e-01,8.76201e-01,3.78286e-01,-8.55407e-01,8.73122e-01,-4.22450e-01,2.08928e-01,-1.82588e+00,2.84981e+00,-1.15197e+00,-6.42215e-01,-1.01104e+00,5.81730e-01,-2.57350e-01,-8.50952e-01,5.16537e-02,5.59637e-01,2.85420e-01,-3.36850e+00,8.35170e-01,-3.59688e-02,-3.28684e-01,-1.84348e+00,8.46681e-02,-1.86158e+00,
9.46835e-01,7.65125e-01,2.79299e-01,-5.13768e-01,-4.02237e-01,3.02000e-01,1.31168e+00,2.32355e+00,4.10384e-01,-6.07030e-01,8.46875e-01,-1.27596e+00,-1.21642e+00,-2.24912e+00,1.17560e+00,-1.36822e-02,-1.00220e+00,1.29535e-01,1.12126e+00,-4.70242e-02,1.79349e-02,5.33941e-01,3.13240e-01,1.15111e+00,3.30905e-01,-5.51342e-01,2.11326e-01,5.89906e-01,-1.23714e-01,-1.01612e-01,1.05208e-01,2.07905e-02,-9.42947e-01,-5.19354e-01,-7.03363e+00,-4.62832e-02,3.54992e-01,4.91390e-01,6.34661e-01,-1.77626e-01,-5.80105e-01,1.66865e-01,1.94619e-01,-3.45040e-01,3.93227e-01,-9.63461e-02,9.26301e-01,-6.82271e-01,-4.15965e-01,1.64959e+00,
-3.83037e-01,-1.04525e-02,2.60071e-01,3.68770e-01,1.50032e-01,4.64056e-01,4.21791e-01,1.33184e-01,-2.23105e-01,2.46136e-02,-1.91225e+00,-5.13902e-02,1.39224e-01,-4.16337e-01,6.50245e-01,5.50155e-02,3.35684e-01,-4.55711e-01,1.52729e-01,1.99563e-01,-7.05182e-02,5.24158e-01,-8.86058e-01,7.18736e-01,1.02837e-01,-1.38926e-01,5.05734e-01,3.94007e-01,-1.48332e-01,-2.70070e-01,-7.65543e-02,7.00050e-01,-3.28504e-01,-1.77598e-02,6.85578e-01,1.65845e-01,-9.53859e-01,-4.15072e-02,-3.68850e-01,-5.59436e-01,1.32463e-01,1.68814e-01,-1.19006e-01,-3.93589e-01,-1.00427e-02,1.10073e+00,-9.79244e-02,-3.47811e-02,-3.02028e-01,1.13395e+00,
-1.51707e-01,-3.46489e-01,-1.54820e-01,-2.52087e-02,4.54005e-01,5.28263e-01,-1.63846e+00,2.90105e-01,1.56382e-01,3.05767e-01,-2.83918e-01,1.02275e+00,-6.89629e-01,-2.63287e-01,-7.36407e-01,-1.31803e-01,-3.11644e-02,-1.97295e-01,-2.69582e-01,3.99119e-01,4.20448e-01,2.80222e-01,1.29964e-01,-7.16244e-01,2.90142e-01,-1.08776e-01,-6.90282e-01,-5.52442e-01,-6.75702e-01,-2.78041e-01,-1.05998e+00,3.64242e-01,1.33329e+00,-1.12663e+00,1.03366e+00,-2.30456e-01,-3.09348e+00,3.68273e-01,3.33957e-01,2.19604e-01,8.69913e-01,-8.00422e-02,-7.27637e-01,-2.57562e-02,3.55765e-02,-6.07344e-01,1.42730e+00,4.14502e-01,5.27995e-01,9.73252e-01,
8.56556e-01,1.63970e-01,-1.57011e-01,-4.09175e-01,4.49280e-02,2.04247e-01,1.68152e+00,2.11710e+00,9.44913e-02,1.22005e-01,1.19236e+00,-4.27104e-01,-3.31141e-01,1.66197e-01,2.23991e-01,-6.95580e-01,9.02548e-01,-1.73914e-01,2.78700e-01,-3.84774e-03,2.04481e-01,-6.54237e-01,2.10810e-01,1.38367e-01,1.34905e-01,6.60848e-01,-1.13147e-01,-5.39656e-02,4.04263e-01,2.73116e-01,1.57937e-01,-6.45665e-01,-3.34133e-01,-3.03516e-01,-3.78396e+00,4.00473e-01,-2.74878e-01,4.67304e-01,6.00340e-01,3.76368e-01,-1.83475e-01,-8.61350e-02,-6.90475e-01,4.53793e-01,-4.63426e-01,7.67113e-01,1.15066e+00,-5.36075e-01,5.68613e-01,2.88478e+00,
2.42674e-02,-6.09894e-02,2.79549e-01,-6.83205e-01,1.31725e+00,8.72788e-01,-7.53582e-01,6.44427e-01,-4.39844e-01,7.96810e-01,-1.77029e+00,5.61737e-01,-8.13972e-01,1.76258e-01,2.00210e-01,3.82407e-01,4.04812e-01,-2.42062e-01,-7.80096e-01,2.90967e-01,-2.64004e-01,-1.69051e+00,-4.24838e-01,-1.52793e-02,4.24620e-01,1.26943e-01,8.93389e-01,-1.24411e+00,1.76445e-01,-2.20904e+00,-9.00222e-02,1.29379e-01,-2.09296e-01,-2.30932e-01,2.29826e-01,-9.54851e-01,1.44645e-01,-8.57029e-01,-1.46632e-01,-1.46258e+00,5.33852e-01,4.67658e-01,-1.35947e+00,-1.03400e-01,3.29900e-01,-8.82072e-01,-3.34990e-01,-7.11928e-01,1.68746e+00,-8.79491e-01,
-1.63482e-02,-2.46873e-01,3.56671e-01,-5.56878e-03,-7.55337e-01,2.38321e-01,3.94990e-01,8.79602e-01,4.29019e-01,8.23503e-02,-1.09943e+00,1.02008e+00,4.72557e-01,5.46015e-02,3.66221e-01,7.63350e-02,3.72339e-01,6.74739e-01,-7.82296e-01,-2.58277e-01,-1.91491e-01,1.82460e-01,4.26452e-01,-1.06664e-01,2.28463e-01,5.28432e-01,3.70440e-01,5.15671e-01,1.57871e-02,4.68980e-01,3.57099e-02,-5.81812e-01,2.41416e-01,2.77528e-01,2.80022e-01,1.46075e-01,-1.48143e+00,2.22536e-01,-1.69906e-01,-1.01682e+00,-3.25811e-01,1.44401e-01,-7.12670e-02,-5.69815e-01,5.40699e-02,-1.22344e+00,-9.21932e-01,-7.70141e-01,-2.41599e-01,-5.49038e-01,
-4.52919e-03,1.30678e-02,-1.55068e-02,2.25398e-04,-3.44834e-02,-4.25700e-02,-3.58790e-02,-2.76517e-02,-2.23355e-03,3.91013e-02,-3.44909e-02,-2.71405e-02,-1.83998e-03,-3.97482e-02,2.74447e-02,-1.90950e-02,2.29056e-02,1.32301e-03,2.92941e-02,-2.34186e-02,-4.58209e-02,3.64643e-02,3.86758e-02,4.38783e-03,-2.99691e-02,2.65577e-02,-4.43876e-02,2.89095e-02,-3.99228e-03,3.17741e-03,-4.54922e-02,-4.06052e-02,1.00412e-02,2.47058e-02,3.13284e-03,1.36324e-02,4.18002e-03,4.73332e-02,-4.25708e-02,-5.20567e-02,4.52199e-02,-3.82435e-02,-5.38211e-03,-3.31383e-02,-2.59105e-02,7.92651e-03,-2.85789e-02,4.36193e-02,-4.97637e-02,-4.97501e-02,
4.40954e-01,-8.06841e-01,-1.87624e-01,1.19898e+00,3.30833e-01,4.12497e-01,1.10291e+00,-2.86419e-01,-3.88403e-01,2.81441e-01,-1.71733e+00,-1.78728e-01,2.58762e-02,1.55528e-01,-2.74978e-02,2.01249e+00,6.06896e-01,-7.52974e-01,4.10836e-01,-3.22543e-01,-9.70543e-01,-7.45292e-01,-2.92306e-01,-4.94452e-01,-2.57190e+00,3.71410e-01,7.52775e-01,-7.67748e-01,-3.59065e-01,-4.05574e-01,-4.76869e-01,2.26740e-01,-6.19010e-01,-4.69773e+00,-1.52878e+00,2.00289e-01,-1.84211e-01,-1.17492e+00,-2.40373e+00,-3.10395e-01,9.81423e-01,3.54493e-01,1.37422e+00,-2.15969e+00,4.75430e-01,1.23748e-01,4.58729e-01,-8.74437e-01,-1.72605e-01,1.30384e+00,
-2.32487e-02,8.01907e-03,-7.20693e-02,-3.54745e-02,-5.41998e-03,3.47534e-03,6.11412e-03,-3.21498e-02,-3.59004e-02,-4.44624e-02,-3.92537e-02,7.28965e-03,-4.11687e-02,5.43180e-03,9.68635e-03,4.58230e-02,-6.52109e-02,-4.38326e-02,2.08117e-02,-3.93217e-02,-5.26636e-02,-4.73808e-03,-3.45809e-02,3.38650e-02,2.01221e-02,-2.90299e-02,-2.40531e-02,-2.32135e-02,-3.15206e-02,-1.83171e-02,2.64544e-02,1.28183e-02,-3.26399e-02,-5.08097e-02,-1.06738e-02,-2.90430e-02,6.90560e-03,1.58259e-02,7.23807e-03,7.40186e-03,1.41980e-02,-3.82649e-03,-5.42963e-02,-3.09462e-03,-8.78854e-03,-4.78453e-02,-4.85958e-02,-1.18073e-02,2.51062e-02,2.51616e-02,
2.10642e+00,-3.33057e-02,7.72962e-01,-3.17949e-01,-2.36411e-01,6.72721e-01,8.45338e-03,9.36414e-01,-2.30421e-01,-1.85547e-01,1.83453e-01,-3.99342e-01,-4.26083e-01,6.95162e-01,2.24855e+00,6.91506e-01,3.72458e-01,-2.46854e-01,-5.26046e-01,4.34077e-01,1.54310e-01,6.15420e-01,5.23240e-01,-3.71008e-02,-8.37657e-01,-2.73378e-01,-4.70106e-01,3.85818e-04,1.25379e-02,1.46127e-01,2.84584e-01,-4.32918e-01,2.88038e-01,4.96793e-01,-5.40604e-01,-1.53467e-01,4.64679e-01,-4.44974e-01,-3.73718e-01,-5.09130e-01,-2.88824e-01,-1.18315e-01,5.98443e-01,1.65578e-01,4.66203e-01,-7.26556e-02,-4.53812e-02,4.11713e-01,2.90256e-01,3.21241e-01,
-7.12572e-01,-3.52317e-01,-3.10588e-01,1.21113e-01,-8.89500e-02,-1.09245e-01,3.02265e-01,-1.40539e-01,-8.31964e-01,-2.16593e+00,-3.43669e+00,-1.16471e+00,8.84271e-02,-5.66518e-01,7.19470e-01,4.27690e-01,3.37868e-01,-4.45116e-01,5.51523e-01,5.32634e-01,-7.76041e-03,3.86295e-01,-3.52661e-01,1.91111e-01,1.17359e-01,-7.01356e-02,4.47115e-01,7.15839e-01,1.02499e-01,5.19786e-01,1.14934e+00,7.60681e-01,-2.89593e-01,5.45130e-02,1.61780e-01,-7.91978e-01,3.50377e-02,2.76091e-02,-2.29187e-01,-2.71231e-03,2.13407e-01,-4.71982e-01,-2.92960e-01,-5.14854e-01,-8.89205e-01,-2.87607e-01,-1.06978e+00,-2.77951e-01,5.26394e-01,-3.72357e-01,
-3.37366e-01,-2.76646e-01,2.12692e-01,7.65002e-02,-3.02996e-01,-3.14369e-02,-9.85067e-01,-3.31916e-01,-3.55165e-01,3.63825e-01,-6.39046e-01,1.21376e-01,5.46704e-01,-5.17946e-01,-1.61535e-02,1.49728e+00,-5.27409e-02,-2.08968e-02,-3.44428e-01,1.71485e-01,8.33593e-02,4.28772e-01,-1.96342e-01,-5.43880e-01,1.99040e-01,-2.77625e-01,-1.79917e-01,1.02549e-01,3.76789e-01,-2.25293e-02,4.11919e-01,-3.54331e-01,1.96847e-01,-2.72873e-01,-3.22027e-01,-2.49613e-01,3.24950e-01,-3.98008e-01,-2.17959e-01,-3.15230e-01,-1.52524e-01,-2.87387e-02,-1.49298e-01,-1.01864e-01,3.88402e-01,1.50864e-01,-1.29477e+00,1.62142e-01,1.91915e-01,9.79382e-01,
2.79206e-02,-3.21390e-01,8.60210e-01,4.72856e-01,-9.18603e-01,5.69785e-02,1.12162e+00,6.39942e-01,7.66833e-01,2.59363e-01,-4.63384e-01,-6.90238e-01,-5.42398e-02,4.42760e-01,-5.86306e-01,-1.22296e+00,8.07631e-02,-9.22405e-02,-3.65328e-01,-6.65651e-01,1.11564e+00,5.68161e-01,8.50719e-01,-1.02858e+00,5.00857e-02,2.87080e-01,-3.26133e-01,5.53843e-01,7.94804e-01,-1.14230e-01,-3.11486e+00,1.15353e-01,-1.26592e-01,-1.68223e-01,1.79306e-01,3.48668e-01,-1.03647e-01,-1.12784e+00,1.01746e+00,1.13277e+00,1.82471e-01,3.30923e-01,-2.41249e-02,-1.68511e-01,-1.08452e+00,-4.08931e-01,9.34446e-01,2.64802e-01,-1.13129e+00,-8.27669e-01,
3.82342e-02,-2.91379e-01,-2.03173e-01,1.52863e-01,3.74043e-01,-1.09221e+00,1.35063e+00,-2.58776e-01,3.57298e-01,-1.03858e-01,1.17017e-01,-1.66504e-02,-7.72466e-02,5.51658e-01,-6.26522e-02,-1.64576e-01,2.48697e-01,3.79411e-01,-7.08212e-01,6.73563e-01,1.01072e+00,-4.41427e-01,1.24639e+00,1.98965e-01,-2.28349e-01,1.57146e-01,-3.86728e-01,-3.33044e-01,1.03202e-01,-2.61609e-01,6.49014e-01,-4.35522e-01,-1.99769e+00,2.24467e-01,3.07978e-01,2.32877e-01,9.00671e-01,-1.26109e-01,-5.25671e-01,-4.34139e-01,2.90015e-01,-2.24227e-01,2.88221e-01,3.53546e-01,-3.13120e-01,3.08912e-01,3.05654e-01,-1.75589e-01,9.08063e-01,2.34178e-01,
-3.67770e-02,2.19265e-01,-8.50255e-02,1.46464e-01,-1.87002e-02,9.15395e-02,1.75452e+00,-3.44443e-01,1.05745e-01,-1.22095e-02,6.45815e-02,3.81823e-02,1.34637e-01,1.96404e-02,2.30415e-03,8.47051e-02,6.67160e-02,4.17498e-02,-1.31708e-01,2.33140e-01,1.36051e-01,9.25430e-02,-2.85651e-01,-1.54826e-01,1.58069e-02,2.31076e-02,6.83103e-02,7.88752e-02,7.73163e-01,-2.78199e-02,-1.91217e-03,6.96572e-02,2.85748e-01,-5.96600e-02,-6.89607e+00,1.23182e-01,-6.38333e-02,9.08741e-02,-2.49374e-01,-6.05398e-03,-2.00780e-02,6.65327e-02,1.29739e-02,8.53656e-02,-9.18766e-02,2.65582e-01,9.11500e-01,1.28768e-02,1.40386e-01,2.21564e+00,
1.59941e-01,6.80801e-02,4.63603e-02,-8.53031e-02,-2.09909e-02,-1.91409e-03,2.65703e-01,8.87217e-02,1.14954e-01,9.13145e-02,2.10237e-01,-4.23486e-02,-9.32012e-02,-1.60483e-01,1.15342e-01,-2.73633e-04,-3.78973e-01,-2.22175e-02,8.07820e-02,-2.04097e-02,5.45466e-02,-3.64449e-02,-3.68882e-01,-1.73408e-01,-5.99867e-02,9.71634e-03,5.27817e-02,4.23916e-01,-6.87877e-02,-3.13507e-01,-1.41648e-01,-3.72520e-02,-1.11584e-01,-1.33147e-01,-3.83577e-01,-7.17589e-02,3.60784e-02,-6.25516e-02,7.60046e-03,-3.56804e-01,1.81229e-02,-1.62624e-02,1.04943e-01,1.61741e-01,1.73512e-01,-1.15821e-01,6.38916e-02,-1.01728e-01,6.67881e-02,2.55064e-01,
2.04298e-02,2.02884e-02,2.53751e-02,-5.86233e-02,-3.89239e-02,2.71980e-02,-1.88636e-02,1.60550e-02,-3.99783e-02,3.04668e-02,-3.78056e-02,9.86475e-03,-8.39828e-03,-4.69752e-03,-2.28682e-02,-5.18812e-03,3.46285e-02,2.90987e-02,-3.66754e-04,3.50120e-02,-4.60481e-02,-2.66266e-02,-1.05769e-03,-4.36461e-02,2.16064e-02,-8.64251e-03,-4.22312e-02,-3.86320e-02,-1.94335e-02,-2.84956e-02,-2.24967e-02,-2.69562e-02,2.47019e-02,1.84284e-02,-1.14327e-02,3.65963e-02,-2.94373e-02,1.77567e-02,-5.51438e-02,-5.12753e-02,-3.06950e-02,7.52697e-03,-3.72697e-02,2.93944e-03,1.56861e-02,-2.80959e-02,-1.05549e-02,2.73682e-02,-3.31602e-02,-4.69992e-02,
1.99892e+00,-4.66126e-01,2.79551e-01,2.10660e-01,-1.23893e-01,8.36829e-01,-1.35864e+00,-7.63865e-02,1.15060e+00,1.74652e-01,-7.61286e-01,8.07572e-01,-3.88497e-02,5.10002e-01,-1.16063e+00,1.09887e+00,-9.88405e-01,-1.45396e+00,3.87836e-01,3.55381e-01,-1.13533e+00,6.38818e-02,1.24055e+00,4.80605e-01,2.65557e+00,3.77911e-01,-1.80480e+00,3.11511e+00,-2.80510e-01,4.81561e-01,-3.51294e-01,-2.39354e-01,-3.95841e-01,1.02245e-01,-3.22072e-01,1.83247e-01,-1.68472e+00,-4.16520e-01,7.67887e-01,9.58360e-01,-3.10908e+00,2.12423e-01,9.85581e-01,3.35767e-01,3.31817e-01,-7.73214e-01,-1.17850e+00,2.55890e-01,-1.35678e+00,2.29361e+00,
1.03408e+00,-8.21959e-02,-5.00414e-02,-7.59402e-01,1.00544e+00,1.74227e-01,-9.75640e-01,6.97892e-01,-8.99330e-01,-1.59433e+00,-1.96230e-01,-2.39192e-01,-8.39628e-01,-4.81131e-01,7.42640e-01,7.83043e-01,-1.55361e-01,-1.60660e+00,-2.08694e-01,8.88678e-03,-2.98289e-01,-4.66777e-01,9.79968e-01,2.68638e-01,-1.45323e+00,-1.19274e-01,-4.87053e-02,-6.63719e-01,-1.71604e-01,-7.32234e-01,3.01399e-01,1.58132e-01,1.76179e-01,-2.81797e-01,1.06583e+00,3.33999e-01,7.78343e-01,1.88948e-01,-7.33320e-01,1.37046e+00,-4.96655e-01,-4.53107e-01,5.59970e-01,8.65466e-01,-1.17689e-02,-4.45326e-01,1.99172e+00,-8.91944e-01,8.46655e-01,-6.93151e-02,
2.98241e-01,-9.29414e-02,3.37990e-01,2.54580e-01,-5.89020e-01,-1.78923e-01,7.32492e-01,-2.98716e-01,6.25902e-02,-1.81407e-01,8.56589e-02,-1.96397e-01,5.88177e-01,1.42895e-01,-4.80604e-01,-1.55606e-01,-1.79762e-01,-8.30073e-01,4.94659e-01,3.21674e-02,-2.85392e-01,-3.67016e-01,2.35827e-01,3.14530e-01,-4.50751e-02,2.49595e-01,-1.72781e-01,3.68766e-02,-2.34568e-02,1.75007e-01,4.71794e-01,3.42406e-01,8.82347e-01,-8.96084e-02,-2.59051e-01,4.48225e-02,-1.19546e+00,3.72453e-02,-1.28667e-01,-4.62937e-01,3.58025e-01,2.35101e-01,3.54913e-01,1.92122e-02,-2.38795e-01,2.52470e-01,4.77893e-01,1.32391e-01,-1.47569e-01,1.19675e+00,
-7.01531e-03,-3.69229e-02,-3.15564e-02,1.38387e-03,-3.19467e-02,1.22755e-02,-2.27171e-02,9.38591e-03,-3.36865e-02,-4.90591e-02,3.13248e-02,-6.83382e-03,-1.07514e-02,-1.14653e-02,1.77528e-02,-4.41330e-02,-2.59463e-03,-3.72564e-02,2.80780e-02,-8.86348e-03,1.07395e-02,-5.53976e-03,-3.09318e-02,1.24880e-02,-5.09598e-02,-4.64679e-02,1.94790e-03,-2.89128e-02,-4.77414e-02,-1.56992e-02,1.53273e-03,2.88353e-02,-3.94493e-02,-3.27521e-02,-1.23834e-02,3.40666e-02,-4.18541e-02,-1.86658e-02,7.38627e-03,2.36271e-02,2.03174e-02,-2.71559e-02,3.29110e-02,-2.28171e-02,-2.25300e-03,-2.64565e-02,-4.48165e-02,-1.93043e-02,-3.98845e-02,2.51323e-02,
4.89103e-02,2.68080e-01,-3.07954e-01,1.04390e-01,-3.51323e-01,2.42825e-01,-8.73028e-01,-7.09489e-01,3.03183e-01,-1.54926e-01,1.00378e+00,-8.79731e-01,4.04175e-01,7.46951e-01,-2.27735e-01,-1.14289e+00,-5.70707e-02,7.86361e-02,-2.24173e-01,-3.35420e-01,2.18097e-02,1.96031e-01,-1.99459e-01,1.08160e+00,5.87948e-02,1.93063e-01,3.15067e-01,1.21728e-02,-2.55007e-01,-2.01224e-01,5.82424e-01,4.56897e-01,-3.76395e-01,3.18827e-01,3.06991e-01,-7.80251e-02,-8.04080e-01,3.84219e-02,-1.73251e-01,1.99091e-01,2.69211e-01,-3.67189e-01,-1.62373e-02,-2.31442e-02,1.84297e-02,-2.72346e-01,-7.88939e-01,-5.49006e-01,-2.71430e-01,-2.43534e+00,
3.68126e-01,3.82287e-01,1.03951e+00,-1.56754e-01,-9.68341e-01,-1.63798e-01,5.28368e-01,-1.02691e+00,1.26933e+00,3.81942e-01,2.48430e+00,1.23024e+00,6.55152e-01,1.63608e-01,-8.78744e-01,1.98640e-01,-4.40847e-01,-2.43605e-01,-2.05406e-01,9.78511e-02,-6.37612e-01,4.30987e-01,7.47055e-02,-1.26573e+00,2.31439e-01,-1.35372e-01,-2.97140e-01,-8.06883e-01,2.06051e-03,-3.48295e-01,-8.58596e-01,5.74997e-01,9.99556e-01,-1.40505e-01,3.96324e-01,8.71638e-01,-6.92814e-01,1.26376e-01,5.10994e-01,-1.00288e+00,-5.11651e-01,1.35475e+00,9.39584e-03,3.31662e-01,1.05831e+00,-1.29741e-01,-3.68476e-01,6.13420e-01,-1.39180e+00,-7.15954e-01,
1.36694e-01,-4.50453e-01,6.52189e-02,1.35065e-01,4.71973e-01,-3.08488e-01,1.55546e+00,-9.64488e-01,1.42290e-01,3.15754e-01,1.23169e-01,5.91242e-03,-3.83168e-01,2.69702e-01,3.64942e-01,-8.64743e-02,-9.14093e-02,1.42645e-01,6.83861e-02,-1.00646e-01,-2.88797e-02,-1.75650e-01,1.03767e-01,2.90498e-01,-2.15764e-01,1.39945e-01,1.51213e-01,-2.18649e-01,5.80804e-01,1.61580e-01,7.16769e-01,3.09749e-01,3.95701e-02,-5.71498e-02,-1.03661e+01,3.97295e-01,-8.38672e-02,1.57631e-01,6.42240e-01,3.79401e-02,1.36856e-01,1.05493e-01,-1.01538e-01,-1.83775e-01,2.50107e-01,4.69796e-01,8.65884e-01,1.42958e-01,-2.80204e-01,2.09123e+00,
-2.33218e-01,-1.01376e-01,2.12566e-01,3.05732e-01,3.11078e-01,-3.95411e-01,-8.91817e-01,-4.94896e-01,-2.32535e-01,2.04488e-01,-2.87222e-01,-1.59795e-01,-4.67565e-02,-4.21589e-01,-3.70132e-01,2.38862e-01,-2.62619e-01,-1.28546e-01,7.46793e-01,5.40992e-01,1.10888e-01,2.72381e-01,-5.55043e-01,-2.09012e-02,3.11205e-01,-9.82202e-01,4.00706e-02,7.59733e-01,-5.09179e-01,-2.04554e-01,1.60915e-01,7.12340e-01,8.12169e-02,-5.82076e-01,7.39317e-01,-3.59812e-02,-4.32313e-01,1.05904e-01,1.95148e-01,9.76094e-02,-2.45182e-01,-2.91644e-01,3.11578e-01,3.66792e-01,-5.78789e-01,-2.28632e-01,-7.11059e-01,5.30244e-01,2.30567e-02,-4.81712e-01,
-8.87804e-01,-3.09839e-01,-2.09364e-01,1.98905e-01,8.52166e-01,-9.38485e-02,-2.30062e+00,-7.61581e-01,-1.29099e-01,2.50563e-01,-1.92107e-01,-3.15471e-02,7.97584e-02,-1.08963e-01,5.97910e-01,-2.35759e-01,-1.27654e-01,8.35924e-02,-2.71239e-01,1.85943e-01,-3.67939e-02,-5.72534e-01,-1.31607e-01,9.71161e-03,-6.88335e-03,-1.14426e-01,4.40657e-01,-1.14628e-01,1.13537e-01,1.46124e-01,4.00030e-03,6.84369e-01,7.06708e-02,-3.42742e-01,3.47228e-01,-1.70101e-01,3.75199e-01,3.15389e-01,2.97491e-01,-4.61704e-01,2.98506e-01,-3.88663e-01,-7.42526e-02,1.63461e-01,1.23018e-01,4.60929e-01,6.80562e-01,-5.13030e-01,4.37247e-01,-8.01212e-01,
1.04735e+00,-7.06010e-01,-1.53654e-01,5.44800e-01,2.20587e-01,7.41854e-02,-2.32073e-01,1.34195e+00,1.08968e+00,-6.87958e-02,-1.88435e+00,-2.14169e-02,-9.46487e-02,-2.24850e-02,-1.05497e+00,-1.01593e+00,-1.30910e-01,-5.13530e-02,3.03678e-01,-2.15161e-01,1.64395e-01,1.17427e-01,-4.84729e-01,-6.67009e-01,9.38277e-01,3.37005e-01,-1.05668e+00,8.05213e-01,-1.09880e-02,-3.66638e-01,-4.91313e-01,5.00774e-01,5.39581e-01,-6.43969e-01,6.05336e-01,1.72923e-01,-4.54138e-01,5.25470e-01,6.27884e-01,-5.46260e-01,-6.47590e-01,-3.14980e-01,9.33324e-01,2.69521e-01,-4.19777e-01,-2.97412e-01,-3.52475e-01,5.39817e-01,-5.69876e-01,5.05476e-01,
1.50296e+00,-4.67697e-01,-8.43113e-02,5.23203e-01,-1.77672e+00,1.47447e+00,-3.27101e-01,2.72084e-01,-2.68021e-01,1.98025e-01,-3.26310e+00,-7.48432e-02,3.91526e-02,-2.19783e-01,-2.00018e+00,-1.06402e+00,-4.29580e-01,3.80067e-01,-4.76415e-01,1.00868e-01,-6.82332e-01,-1.42037e-01,2.94796e-01,-3.14891e-01,3.28671e-01,5.25793e-01,4.12655e-01,1.09457e+00,-4.34675e-01,-1.56541e-01,-1.23924e+00,2.94286e-01,-1.71031e+00,-5.09321e-02,2.85416e-01,-2.47724e-01,-1.00485e+00,-4.01386e-01,-7.56998e-01,-7.75350e-01,-7.46531e-01,-5.70534e-01,-5.96831e-02,1.87604e+00,-8.65905e-01,2.87959e-01,7.79850e-01,5.96707e-01,-1.20312e+00,9.87171e-02,
1.54914e+00,9.33192e-01,-2.89622e-01,1.52052e-01,-6.02711e-01,6.81277e-01,6.02793e-01,1.83030e-02,2.86205e-01,8.76339e-02,-2.64552e-01,2.47911e-01,-7.47150e-02,-4.79411e+00,6.59050e-01,-3.12623e-02,-4.62038e-01,2.94094e-01,6.22689e-01,1.00836e+00,6.36124e-01,4.96037e-01,-5.14176e-01,-3.18179e-01,4.97151e-01,1.60102e-01,-2.84712e-01,-2.31639e-01,5.64617e-01,-2.50936e-01,-5.67463e-02,-5.33386e-01,1.71691e+00,-2.19054e+00,-1.05813e+00,-1.77611e-01,-5.29433e-01,3.05089e-01,-1.60490e-01,3.95516e-02,4.79700e-01,1.65136e-01,2.49070e-01,-8.59665e-01,1.96994e-01,-8.68473e-02,5.98470e-01,8.60350e-01,-3.52019e-01,-4.96551e-01,
3.37293e-01,2.85323e-01,6.13596e-01,-2.59564e-01,-1.70740e-01,1.93538e-01,3.04406e-01,-1.35688e-01,-3.46040e-01,-8.20462e-02,-6.98033e-01,2.67059e-02,-1.64364e-01,7.25708e-02,-1.67506e-01,-1.56002e+00,-5.69782e-01,-1.87213e-02,-2.18845e-01,7.06196e-02,-1.02776e-01,-9.62125e-01,-1.43702e-01,-1.62916e-01,5.14224e-02,-3.08805e-01,-3.51780e-02,3.65010e-01,1.72703e-01,2.61198e-02,-3.97010e-01,-3.02196e-01,1.45744e+00,6.12353e-01,4.53955e-02,8.02353e-01,-3.34326e-01,7.18265e-01,-4.35885e-01,8.95992e-02,-1.29626e+00,-6.40882e-02,7.66746e-01,1.04399e-01,6.06168e-02,6.44420e-01,-4.78864e-01,8.24190e-01,-2.50784e-01,2.76268e-01,
-9.49418e-01,2.98558e-01,-1.03599e+00,-1.13614e+00,5.80221e-01,-1.51972e-01,2.51620e-01,-3.25204e-01,-8.04245e-01,-2.27697e+00,2.91562e-02,1.70477e+00,5.31783e-02,2.35368e-01,4.75317e-01,8.40918e-01,1.96783e-01,8.66610e-01,1.66867e+00,-1.24859e-01,3.47810e-02,-6.03221e-01,3.91360e-01,-1.59799e+00,5.84959e-01,-5.56378e-01,2.58415e-01,4.02604e-02,-4.94858e-02,2.60726e-01,-3.42147e+00,-1.58672e+00,-6.12548e-01,1.44152e-01,2.09084e-01,1.08032e-01,4.55257e-02,-1.46385e+00,1.87842e-01,6.33970e-01,7.01095e-01,-6.79119e-01,6.23949e-02,-2.86054e-01,-1.69168e-01,-4.21024e-01,2.23242e-01,-1.02948e+00,1.26034e+00,7.87162e-01,
-4.63008e-02,-2.18167e-02,1.34026e-02,-4.79744e-02,-9.26967e-03,-7.17589e-03,1.64511e-02,7.43828e-03,6.46282e-03,1.66444e-02,1.13083e-03,-3.69361e-02,3.11965e-02,-6.23974e-04,-1.40318e-02,-2.89282e-02,-5.55080e-02,-1.73657e-02,-2.26572e-02,4.36450e-02,2.38252e-02,-4.65842e-02,-5.07075e-03,1.47446e-03,-5.29759e-02,3.12623e-02,9.42794e-03,-1.84784e-02,-2.22253e-02,-1.90332e-02,1.01032e-02,-1.14742e-03,-5.08312e-02,1.68558e-02,9.72571e-03,3.14619e-02,1.28166e-02,1.76639e-02,-1.40595e-02,-2.35178e-02,4.72825e-03,-1.86297e-02,-3.80192e-02,2.05160e-02,-4.13473e-02,1.97474e-03,1.41201e-03,-4.48485e-03,-1.63304e-02,4.16769e-02,
5.88845e-01,-3.66257e-01,-2.91689e-01,5.10661e-01,-7.60927e-02,5.31112e-01,-1.24744e+00,-3.87315e-01,1.28121e-01,5.82386e-01,4.01696e-01,-4.02037e-01,6.34867e-01,3.69646e-02,5.68436e-01,1.69232e-01,-3.58007e-01,6.38598e-01,-8.40706e-01,-6.34027e-01,-5.74513e-01,2.96832e-01,8.80050e-01,3.75604e-02,2.86657e-01,5.54741e-01,4.01590e-01,5.93691e-01,4.56156e-01,-9.29642e-02,5.10166e-01,1.67570e-01,1.31493e-02,-3.49202e-01,-7.28407e-01,-3.61273e-01,-1.32946e-01,5.48715e-02,7.70205e-01,1.63622e-01,1.32104e-01,3.18307e-01,2.18408e-01,-3.21436e-01,4.90763e-02,-1.31334e+00,-2.42531e-01,2.28596e-01,6.35026e-01,-1.84360e+00,
7.76031e-02,7.64093e-01,-2.74559e-01,-2.71146e-01,2.44598e-01,2.76778e-01,-9.97968e-01,-6.73815e-01,5.81046e-01,-1.01593e+00,7.97573e-01,-2.78250e-01,-3.15704e-01,6.97345e-01,-1.93784e-01,5.31517e-01,-2.83491e-01,-2.72626e-01,-1.57990e+00,-9.28945e-02,7.15277e-01,-2.73667e-01,-3.65560e-01,4.03714e-02,3.51715e-01,1.08024e-01,-6.96282e-02,-5.50876e-01,-6.43000e-02,-1.65461e-01,2.16141e-02,-3.77691e-01,1.12646e+00,1.61434e-01,-6.16769e-03,1.76762e-01,-1.96378e-01,8.18972e-01,3.75510e-01,-4.35126e-01,1.68813e-01,-1.48162e-01,-2.84380e-01,-4.96743e-01,3.79054e-01,9.97576e-01,-8.87835e-01,1.34783e-01,1.27720e+00,3.91409e-01,
-7.59719e-01,-2.35506e-01,4.91236e-01,-4.79235e-01,-4.27847e-01,6.99615e-02,1.10819e+00,3.62858e+00,-1.54698e-01,1.45769e-01,3.11145e-02,8.70171e-01,-4.96111e-01,-1.16699e-02,8.93362e-01,4.78291e-01,-1.90621e-01,8.34979e-01,-4.41867e-01,1.07888e+00,1.01075e+00,-1.51510e+00,-3.89659e-01,-1.16075e+00,-3.76632e-01,1.34063e-01,2.21363e-01,-2.64454e-01,5.75317e-03,-1.59870e-02,-4.50802e-01,-6.80440e-01,3.42547e-01,5.80157e-01,-5.07028e+00,-2.08915e-01,3.95815e-01,-3.28437e-01,-6.85374e-01,-3.96435e-01,2.27216e-02,-5.69323e-02,5.95650e-01,4.17779e-01,1.51538e-01,6.02201e-02,7.51584e-01,-8.01741e-01,6.49463e-01,2.40937e+00,
9.18515e-03,6.47503e-03,4.69603e-03,-8.60601e-03,1.10826e-02,6.83393e-03,-5.33454e-02,3.66691e-03,3.24792e-02,4.34026e-02,-5.76921e-02,-1.45828e-03,-1.63179e-03,-1.13841e-02,-3.91296e-02,-2.34225e-02,2.53833e-02,6.94373e-04,-2.58794e-02,-2.08662e-02,1.15683e-02,1.40700e-02,-1.64430e-02,-1.67270e-02,-3.81426e-02,7.41637e-03,-5.24860e-02,4.36859e-02,4.49025e-03,-1.50862e-02,-4.55100e-02,1.38743e-02,-4.21004e-02,1.05396e-02,-1.99547e-02,-1.92466e-04,-3.81077e-02,-3.53832e-02,5.03659e-03,-3.32038e-03,1.89482e-02,-3.56035e-02,-2.84556e-03,3.38961e-02,-5.54159e-02,-1.84569e-03,-8.96691e-03,-4.99431e-03,5.67139e-03,1.75103e-02,
-5.29776e-02,-1.35788e-02,2.07772e-02,1.35079e-02,-2.67047e-02,-2.06197e-02,1.17626e-02,1.24721e-02,-6.14534e-02,-3.27521e-02,-1.54531e-04,-3.72045e-02,-3.34172e-03,-7.76355e-02,-4.69984e-02,-2.73956e-02,-5.89233e-02,-2.86613e-02,-1.57867e-02,9.10507e-03,-9.74103e-04,-3.54954e-02,-2.46358e-02,-4.23478e-02,1.39061e-02,-6.37091e-02,-3.67458e-02,3.43689e-03,-8.91093e-03,-4.33439e-02,2.06889e-02,-9.32577e-03,1.25877e-02,2.39193e-03,-1.96263e-02,-1.54425e-02,3.62912e-02,2.27780e-02,2.54547e-02,-2.84152e-03,3.06154e-02,-5.12002e-02,-4.24817e-02,-5.17903e-02,-1.52533e-02,2.11914e-02,4.00154e-02,-1.94370e-02,-6.32954e-02,4.05745e-02,
-1.98516e-02,
-1.97830e-02,
-1.07400e+00,
-1.35593e+00,
-8.78785e-01,
-4.86080e-01,
8.38489e-01,
2.59069e-02,
-1.63221e+00,
-1.12326e+00,
-1.23169e+00,
-4.31559e-03,
8.16512e-03,
-5.51884e-03,
1.89278e-01,
3.35297e-01,
-2.40646e-01,
9.90255e-01,
8.69959e-01,
-3.95396e-03,
-3.53333e-01,
-2.69457e-02,
-7.94295e-01,
3.10899e-01,
1.14548e-01,
-1.70510e-01,
-1.50605e-01,
-8.99897e-02,
-1.01890e-01,
-1.26671e-02,
-1.11648e+00,
1.37735e-01,
-3.84121e-01,
-2.62559e-02,
5.70103e-01,
6.21986e-01,
-4.49647e-01,
1.09354e-01,
2.00730e-01,
4.26775e-01,
8.83478e-01,
-7.63920e-01,
2.62874e-01,
-1.10400e+00,
-1.00270e-02,
-7.26381e-01,
1.69286e-01,
-8.76182e-02,
-1.12999e-02,
-1.50703e-02,
5.43402e-01,4.35807e-02,1.49500e-01,3.97642e-01,1.25554e+00,-4.29753e-01,-1.24460e-01,-3.17937e-01,-2.65187e-01,4.43382e-01,-1.49805e-01,-3.46369e-02,5.42073e-01,7.81301e-02,6.74478e-01,1.91381e-01,-6.82343e-01,4.45698e-01,2.10263e-01,-2.61754e-02,-1.50383e-01,4.87574e-03,4.25857e-01,-1.27286e+00,2.56272e-01,-4.03047e-01,3.44260e-01,-7.65523e-01,1.66320e-01,-4.41131e-02,-6.16719e-01,-2.99607e-01,4.16909e-01,-5.79701e-04,-5.69552e-01,-1.16952e-03,3.75723e-01,-2.54529e-01,2.31305e-01,-6.57727e-01,-3.36212e-01,4.24890e-01,-6.88282e-01,7.61917e-01,2.85498e-02,5.71941e-01,-5.84010e-01,1.96163e-01,-8.27815e-03,-9.53235e-03,
-5.26666e-02,1.49306e-02,-3.83574e-02,-4.66390e-02,1.30255e-02,-1.31131e-02,3.11083e-02,3.01511e-02,1.56029e-02,9.73485e-03,-3.62394e-02,2.28463e-02,-5.14858e-03,-1.95064e-02,-3.74231e-02,-8.20593e-03,-2.75033e-02,3.69518e-02,-1.15212e-02,-3.83406e-02,-3.07538e-02,5.83557e-03,1.99537e-02,8.87257e-03,-3.55646e-02,-8.27442e-03,6.08997e-03,3.18767e-02,2.69568e-02,4.19440e-03,8.11401e-03,-2.20733e-02,1.12472e-02,1.48354e-03,-7.95500e-02,-4.81818e-02,-2.90622e-02,1.11056e-03,-2.32769e-02,-5.04961e-02,3.72740e-02,6.41569e-03,-8.93999e-03,1.16711e-02,-4.61103e-02,-5.07530e-02,-4.65916e-02,-3.28868e-02,-4.41432e-02,1.53585e-02,
-8.51313e-03,1.42044e-02,-4.21577e-02,5.26862e-03,2.28345e-02,-1.47802e-02,-5.93979e-02,1.16738e-02,-2.64755e-02,-2.01305e-02,3.62677e-02,-2.12608e-02,-4.76500e-02,4.21645e-02,3.50399e-02,-3.18212e-02,-1.76726e-02,1.72590e-02,8.68478e-03,8.93975e-03,-2.91639e-02,-1.56038e-02,2.23973e-02,-1.38655e-02,-4.55763e-02,-1.01552e-02,-2.56349e-02,-4.58543e-02,-2.20011e-02,1.46616e-02,-4.69289e-02,3.17141e-02,5.95665e-03,-1.83678e-02,-4.95300e-02,-5.77097e-02,-3.05875e-02,-5.78315e-03,2.77038e-02,-1.60432e-02,-4.04271e-02,1.84451e-02,2.26285e-02,3.31255e-02,-4.84668e-02,-5.29360e-02,-3.74634e-02,-7.48059e-03,1.07971e-02,-4.81155e-04,
3.32890e-01,3.49437e-02,1.53388e-01,1.40917e+00,5.49900e-01,-5.88754e-01,1.43204e-01,-3.21473e-01,-2.24749e-01,6.88092e-01,-3.01530e-02,1.12963e-02,1.19225e+00,4.90623e-01,-7.45365e-01,-3.97939e-01,-1.61952e-01,-3.85780e-01,8.49947e-01,5.47443e-04,8.67839e-01,-2.50047e-02,9.40487e-01,1.38157e+00,-3.12783e-01,2.85795e-01,-6.74489e-01,-8.30697e-02,6.56955e-02,-1.49808e-02,9.34561e-01,-1.25158e-01,3.60990e-01,-4.55032e-02,-1.80566e+00,-1.45409e-01,-2.65131e-01,-1.11514e-01,1.78501e-01,1.35423e-01,6.00951e-01,4.64852e-01,-6.43716e-01,-1.00829e+00,-1.81051e-02,1.50367e-01,5.16736e-01,5.40400e-01,3.95044e-02,4.10502e-02,
1.05924e-01,-2.63895e-02,8.76087e-02,-4.43336e-01,4.12818e-05,-2.45352e-01,-1.18587e-01,-3.31482e-01,-2.50925e-01,2.97185e-01,-1.18881e-01,-3.46729e-02,-3.65183e-01,-2.72392e-02,8.54265e-02,2.22064e-01,4.43762e-01,2.62984e-04,-1.04310e-01,3.03133e-02,9.08830e-02,-4.21376e-02,-1.05507e-01,-3.21850e-01,5.89809e-02,2.51246e-02,3.03338e-02,-1.36009e+00,9.15522e-02,-2.20834e-02,-4.67137e-01,-2.61819e-02,-1.06345e+00,1.43665e-02,-6.70540e-01,1.86456e-01,-1.03109e+00,-4.56360e-01,2.10047e-01,5.61177e-01,1.50682e-01,7.01763e-01,-2.36058e-01,7.26840e-01,2.10039e-02,1.02265e-01,-3.32040e-01,2.01222e-02,3.47230e-02,-2.17883e-02,
-1.46237e+00,-4.29132e-02,-1.99678e-02,9.76646e-01,5.36273e-01,4.61472e-01,3.00367e-01,-5.09508e-01,-7.96408e-01,1.78299e-01,-1.44501e-02,-3.98168e-02,1.81390e-01,9.86034e-02,-5.09390e-01,2.10721e-01,-1.93334e-01,2.47135e-01,1.70838e-01,-2.28682e-02,4.92059e-01,-5.00306e-02,3.12316e-01,5.42596e-01,-4.68986e-02,1.60324e-01,4.09976e-01,-8.01303e-01,-3.13633e-01,-3.92734e-02,-1.05514e-01,1.96971e-01,-3.02962e-01,-2.25172e-02,-1.38818e-01,2.54215e-01,7.06350e-01,3.48145e-02,4.07900e-02,-7.87681e-02,2.23924e-01,-2.04313e-01,-3.18130e-01,1.81019e-01,6.85929e-03,-4.25638e-01,-6.60695e-01,1.44623e-01,1.52869e-02,-5.58952e-03,
-3.02776e-02,-4.76362e-02,-1.90909e-01,4.14010e-01,-4.08148e-01,4.55300e-02,-5.70282e-02,3.75429e-02,3.58995e-02,1.32105e-01,-1.36219e-01,4.85488e-02,-3.46291e-01,2.25599e-01,1.39204e-01,3.47649e-01,-8.61547e-03,-5.41949e-02,6.42394e-02,4.90975e-02,-6.66933e-02,-3.77639e-02,1.37171e-01,-1.64720e-01,-4.11426e-01,-2.54526e-01,1.76470e-01,1.06716e+00,-1.87436e-01,-4.94331e-02,5.09097e-03,2.59396e-01,-1.53455e-01,-2.38058e-02,-3.68498e-01,-1.73111e-01,5.66087e-01,-1.43104e-01,-2.72344e-02,8.92451e-02,2.47727e-02,-3.73541e-01,2.91276e-01,-2.04859e-01,1.86020e-02,4.37789e-01,-2.79886e-01,1.49255e-02,-4.59872e-02,-4.12691e-03,
1.59412e-01,-1.39284e-02,-8.65580e-01,1.11295e+00,-9.08399e-02,-4.03345e-01,1.34230e+00,-5.00341e-01,-5.42851e-01,7.92163e-03,1.45421e-01,4.65940e-03,9.98810e-02,-7.15157e-01,-4.12590e-01,3.68066e-01,3.14121e-01,-4.94865e-02,-4.86802e-02,4.72337e-02,-3.61342e-02,-6.73939e-03,1.42195e+00,6.71294e-01,2.96240e-01,6.39868e-01,-1.21825e+00,-2.75876e-01,6.62847e-01,-3.33816e-02,-1.54498e+00,2.41165e-01,5.45442e-01,-1.09926e-02,9.09053e-01,1.23700e-02,-2.30381e-01,-1.14693e+00,-1.07607e+00,3.76489e-01,-5.21724e-01,-7.52994e-02,-7.87273e-01,-8.00815e-02,3.58716e-02,-5.14065e-01,9.44533e-01,7.02572e-01,3.58675e-02,-1.50416e-03,
-1.31803e+00,2.69134e-02,-1.20577e-03,-2.48083e-04,-1.02737e-01,7.18873e-02,-9.79706e-02,-3.91836e-02,-4.08828e-02,2.54496e-03,5.45388e-03,4.66070e-03,3.70843e-02,8.87383e-02,-9.52660e-03,1.13176e-01,9.66131e-02,-4.26140e-02,-8.90645e-02,3.40735e-02,-1.17346e-02,3.77402e-02,-3.74320e-02,-3.34580e-02,-1.94721e-02,3.81217e-02,-1.59564e-02,2.04623e+00,-1.54926e-01,-1.81932e-02,-1.22224e-01,1.03181e-02,-1.24222e-01,7.49177e-03,-1.47508e-01,1.21722e-02,1.08007e+00,-2.39227e-02,-2.86137e-01,-1.08901e-02,3.93630e-02,4.60501e-02,-1.65251e-02,1.04244e-02,-4.15839e-02,-1.64116e-01,-2.75285e-02,6.45740e-02,4.03543e-03,4.55373e-02,
-3.84171e-01,-3.00941e-02,1.52014e-01,-6.76651e-01,5.83320e-02,6.81786e-02,-2.15628e-01,1.75611e-01,5.60406e-01,-3.74008e-01,8.91515e-02,5.77964e-03,2.01353e-01,-1.17783e-02,2.35883e-01,-6.78846e-01,-6.25087e-03,-1.27050e-01,-7.74729e-02,1.88954e-02,1.49395e-01,3.61436e-02,7.07359e-01,-2.62680e-01,7.59553e-02,-8.51114e-01,5.40807e-01,1.01688e-02,-3.89308e-01,-1.52790e-02,1.93181e-01,-1.19607e-01,-9.58534e-01,3.59037e-02,-3.84092e-02,-2.34699e-02,3.49198e-01,-1.92302e-01,6.39667e-03,8.28452e-01,1.83793e-01,-1.56171e-01,-1.58802e-01,2.48955e-01,1.78558e-02,4.57560e-01,1.33635e-01,9.08962e-02,2.32372e-02,-5.39198e-02,
-2.27032e-02,-5.77583e-03,-3.18098e-02,-3.64441e-02,-1.39266e-03,-3.44628e-02,-2.04699e-02,2.88326e-02,-1.63164e-02,-4.37598e-02,-5.04113e-02,1.30809e-02,3.58486e-02,-2.94309e-02,-3.22389e-02,1.28568e-02,-5.27203e-02,-2.81174e-02,-2.63528e-02,3.69679e-03,3.02105e-02,1.39913e-02,4.80666e-02,1.43543e-02,1.37399e-02,-2.05897e-02,-1.58666e-02,3.41724e-02,1.18125e-02,4.44927e-02,-1.73013e-04,1.55362e-02,-3.22286e-02,-2.97601e-03,-5.00899e-02,-2.87527e-03,-3.59187e-02,3.28265e-02,-3.11739e-02,1.84405e-03,-4.62900e-02,-2.46195e-02,1.82487e-02,2.47643e-04,-3.23448e-02,2.08855e-03,-4.91026e-02,2.10147e-03,2.46571e-02,7.67040e-03,
-3.74276e-01,-1.65549e-02,-1.76482e-01,1.01491e-01,4.53896e-01,2.36802e-02,-3.28897e-03,-1.11042e-01,2.60396e-02,-2.88827e-01,6.57873e-02,-3.32393e-04,-4.04808e-02,-6.81193e-02,3.14599e-01,2.27723e-02,-1.74812e-01,9.85047e-02,4.76860e-01,5.59001e-02,-2.02750e-02,2.18181e-02,6.65372e-01,-2.48021e-01,8.37170e-01,-1.53380e-01,6.74148e-02,1.04380e-01,-3.56900e-01,2.65423e-03,3.55414e-01,-1.52893e-01,4.35375e-01,-7.66902e-03,-2.46225e-01,-2.29353e-01,4.53001e-01,2.87932e-01,9.13452e-02,-4.17074e-01,-7.02706e-01,1.45054e-01,-2.36672e-01,3.28410e-01,4.19445e-02,-2.94234e-01,7.20460e-02,1.48442e-01,-9.46406e-03,1.09314e-02,
-1.21271e-01,3.31106e-02,1.01508e-01,-1.63834e+00,7.01781e-01,6.49275e-01,5.43393e-01,3.05601e-01,-5.11142e-01,7.67020e-01,-3.13150e-01,-1.79912e-02,8.07332e-02,3.45027e-01,-4.32849e-01,-1.01906e-01,6.51217e-01,-2.92085e-01,-4.29133e-03,4.38014e-03,5.11649e-01,4.24034e-02,-3.46462e-01,1.39206e+00,3.50923e-01,-2.67476e-01,4.66093e-01,3.78406e-01,-2.61974e-01,-1.52558e-02,8.19785e-01,2.07682e-01,5.95833e-01,-4.41987e-03,-2.89701e-01,6.91202e-02,-7.67078e-01,2.06631e-01,8.76278e-03,2.53839e-02,3.14602e-02,3.31317e-01,-2.66027e-01,9.50292e-02,2.77409e-02,-1.20010e-01,5.26003e-01,-3.73884e-01,-2.28528e-03,-2.50944e-02,
-6.68586e-01,1.24991e-02,1.10484e-01,-2.21070e-01,-1.15078e-01,-1.70666e-01,1.02953e-01,-5.19869e-01,1.02260e-01,3.45495e-01,1.26241e-01,3.11117e-02,-4.03829e-02,-2.34812e-01,-9.59522e-02,1.57905e-01,2.82694e-01,2.63757e-02,-1.88288e-01,-4.82275e-02,2.38792e-02,2.89645e-02,-7.71308e-01,1.02055e-01,-1.15313e-01,2.64097e-02,-1.82038e-01,8.76406e-02,-3.40457e-02,1.55667e-04,-1.13518e-01,-8.28530e-02,-2.65579e-01,1.66804e-02,4.04337e-02,1.53586e-01,-4.45065e-01,1.46763e-01,1.26217e-01,1.49435e-01,-8.05251e-02,5.44056e-02,3.36049e-01,-1.57858e-03,1.71832e-02,-3.99486e-01,3.16518e-02,-3.25986e-01,-4.86836e-02,2.13010e-02,
3.59248e-01,-7.67913e-03,-3.08431e-01,-1.46024e+00,-1.22765e+00,-4.62238e-01,-5.13569e-01,-4.67777e-01,-1.50929e-02,-8.54567e-01,4.15689e-01,-1.26941e-02,-6.30922e-01,4.96783e-02,9.17896e-02,-5.05399e-01,5.94705e-01,-1.07311e-01,-4.83269e-01,-3.53326e-02,3.18392e-01,-1.59415e-02,-4.27525e-01,-1.81156e-01,1.11524e-01,5.17180e-01,-7.83052e-02,1.18888e-01,4.92047e-01,2.32769e-02,-8.04164e-02,-2.38327e-01,-1.47951e+00,1.12148e-02,-1.24122e+00,6.85556e-01,-1.27997e+00,-1.12976e+00,3.93945e-01,8.05039e-03,-7.84154e-02,2.01487e-01,-4.77994e-01,-1.15092e+00,2.48078e-03,-1.62867e-01,4.43985e-01,-2.66435e-01,1.29256e-02,-3.70904e-03,
-2.21538e-02,-3.98684e-02,1.25554e-02,3.25665e-02,1.16325e-02,-2.91675e-02,2.11903e-02,-2.15273e-02,-4.79187e-03,2.97707e-02,1.47349e-02,8.15006e-04,-1.50331e-02,-5.01216e-02,-4.85782e-02,-3.18574e-02,-3.22434e-02,7.83789e-03,-4.69469e-02,-1.53935e-02,-2.38779e-02,-9.31229e-03,8.70326e-03,-2.46238e-02,-5.48914e-02,1.68271e-02,-2.87481e-03,-5.96416e-02,-4.00053e-02,-4.40773e-02,-2.20716e-02,1.21348e-02,2.53970e-02,-4.52213e-02,-6.31863e-02,2.93886e-03,1.62560e-02,-1.35514e-02,-6.02350e-03,-2.52732e-02,-1.04609e-03,-2.73874e-02,1.58504e-02,-5.12845e-02,1.89071e-02,-5.58134e-02,-4.12136e-02,-5.21219e-03,-3.95345e-02,-3.33918e-02,
-7.49617e-01,1.55052e-02,-4.16389e-01,-1.29890e-01,4.84384e-01,2.21072e-02,2.38748e-01,-1.44962e-01,8.66927e-01,-3.73183e-01,-2.89241e-01,3.40617e-02,2.97536e-01,1.20443e-01,3.88891e-01,2.91126e-01,-6.50855e-01,2.71320e-02,2.13053e-01,1.70572e-02,1.58718e-02,4.16795e-02,-2.90190e-01,2.95802e-01,9.09491e-01,-1.95881e-01,1.40515e-01,2.08010e-01,-4.06429e-01,-2.89344e-02,-1.63200e-01,7.29294e-01,2.57529e-01,4.11144e-02,2.34687e-01,-1.04788e-01,-4.90589e-01,-5.36316e-01,2.65727e-01,-2.71185e-01,6.36088e-02,-2.03955e-01,-5.55435e-01,-2.87796e-02,-3.45719e-02,1.81459e-02,-1.52953e-01,-2.94540e-01,-8.76275e-03,3.40217e-02,
-2.19775e-02,2.88731e-02,3.59837e-01,4.75411e-01,2.40972e-01,5.07571e-02,1.87472e-02,-2.72360e-01,-1.93272e-02,-1.82759e+00,-4.14973e-01,-3.77406e-02,-4.15563e-01,-1.64614e-01,3.19112e-01,-6.84808e-02,-2.54714e-02,-1.08773e-01,1.83923e-01,1.87781e-02,-1.99735e-01,4.39076e-02,-1.23032e+00,-1.01397e-01,-1.00347e+00,-3.22436e-01,1.97463e-01,1.64939e-01,3.10584e-01,-1.60264e-02,-2.41433e-01,-4.66081e-02,9.15083e-01,-3.48554e-02,-4.76363e-01,-2.19515e-01,2.56542e-01,2.14039e-01,5.23440e-01,7.30441e-02,-3.14709e-01,-1.09407e-01,3.24704e-01,-1.18706e-01,4.46499e-02,1.43679e-02,1.59379e-01,1.27823e-02,8.44890e-03,-4.74259e-02,
5.35978e-01,1.74640e-02,-2.30440e-01,-7.62464e-01,-7.60023e-01,-1.02012e-01,2.74111e-01,-5.03716e-01,2.87400e-01,-2.07963e-01,5.92025e-01,2.66786e-02,-3.09763e-02,1.85944e-01,1.70881e-01,-2.65084e-01,2.96727e-01,4.56836e-02,-2.77977e-01,-2.86757e-02,4.07292e-01,-1.00512e-02,-7.51205e-01,-3.23768e-02,2.06690e-01,1.00934e-01,-4.33535e-01,5.09820e-01,-2.16743e-01,-1.29584e-02,-2.69465e-01,-4.89201e-01,-5.00517e-01,-2.78808e-02,8.33124e-01,3.70791e-01,-7.37916e-01,-3.89701e-01,-5.75972e-01,-3.42111e-01,1.89194e-03,-9.15031e-02,-7.68572e-01,-1.67215e-01,-3.29204e-02,-2.75130e-01,2.05760e-01,8.49537e-01,3.71577e-02,4.32654e-02,
-6.47951e-01,-2.07914e-02,6.03306e-02,-1.70426e-01,1.80896e-01,-1.04240e-01,-1.92817e-01,2.03198e-01,1.12318e-01,-1.42443e-01,-1.14516e-01,3.71823e-02,8.94165e-02,2.75091e-02,3.17225e-01,-3.70527e-02,-2.04980e-02,-5.60336e-03,-1.04780e-01,1.86020e-02,-5.77162e-02,3.60521e-03,1.29260e-01,-8.68817e-02,1.69835e-01,3.79698e-02,-2.15403e-01,1.20134e+00,1.69159e-01,9.87931e-03,2.29658e-01,4.71204e-02,2.79517e-01,-4.77981e-02,1.36560e-02,-1.11020e-01,5.50310e-01,-1.53268e-01,-1.10924e-01,-4.67927e-02,-2.18619e-02,-2.78040e-01,-2.31731e-01,-1.07608e-01,1.56063e-03,-2.36693e-01,2.55731e-01,3.84535e-01,-3.36880e-02,-2.21109e-02,
9.06251e-01,-3.33586e-02,-1.47438e-01,4.33548e-01,-2.60819e-01,3.09784e-01,5.29461e-01,-2.96682e-01,-4.15221e-01,1.34578e-04,1.29737e-01,3.00990e-02,-1.39695e-01,-6.88301e-02,-6.05004e-01,2.00307e-01,6.10805e-02,3.63411e-02,6.09190e-01,1.03240e-02,4.67273e-01,-3.29786e-02,3.13500e-01,3.84932e-01,-1.71979e-01,5.16122e-02,8.62939e-02,-8.90467e-01,2.87140e-03,-1.82833e-02,-2.41589e-01,-2.68727e-02,-6.37727e-01,-3.57038e-03,2.15164e-01,2.05057e-01,-3.60192e-01,3.68753e-01,-4.37700e-01,3.95523e-02,-5.06097e-02,-1.93727e-01,1.25857e-01,3.51183e-01,1.41969e-02,2.25551e-01,-2.82737e-01,-2.49468e-01,-7.94764e-03,1.08539e-02,
3.51636e-01,-4.79021e-03,-7.45535e-02,1.70771e-01,9.35015e-01,4.90656e-01,-2.16153e-01,8.25646e-01,-1.59200e+00,-2.10948e-01,-2.35095e-01,-2.64556e-02,-4.46492e-01,6.65867e-01,4.13239e-01,-8.25189e-01,-2.79082e-02,2.07039e-01,-5.92108e-01,4.47677e-02,8.13977e-01,2.26577e-02,-1.04994e+00,1.24175e-01,-1.41713e+00,8.93327e-01,1.09144e+00,-7.30210e-01,4.30397e-02,-3.81827e-02,2.49616e-01,2.52481e-01,7.87404e-02,-3.39860e-02,-3.71074e-01,-2.37296e-01,5.08706e-01,-4.74356e-02,-2.01839e-01,-4.27791e-01,-8.98970e-01,3.83746e-01,-8.16582e-01,1.35444e+00,2.04703e-02,5.38367e-01,-7.87683e-02,-4.23255e-02,-2.46310e-02,-2.59519e-02,
-2.07018e+00,9.33556e-03,9.10344e-02,-6.18461e-02,-3.72616e-01,5.47943e-01,1.13528e-01,-8.52205e-02,-3.85157e-01,4.90948e-01,2.92453e-01,-4.00365e-02,-8.78128e-01,-1.64938e-01,-8.10016e-02,6.76227e-01,4.15527e-01,-1.75223e-01,1.40807e-01,-3.30904e-02,8.15808e-01,2.94591e-02,1.08839e+00,2.10131e-01,-4.51261e-01,2.53986e-01,-1.94535e-01,-1.03053e-01,-1.14577e-01,2.95912e-02,-6.54203e-01,-1.74320e-01,7.87217e-02,-4.21832e-02,3.90456e-02,2.10619e-01,-2.36916e-01,-4.33480e-02,3.26938e-01,1.18585e-01,-5.33048e-04,1.27451e+00,4.32820e-02,1.08283e-01,2.28975e-02,-1.65542e-01,-1.35597e-01,-1.66719e-01,-6.67643e-03,-3.60086e-02,
2.08188e-01,-3.37393e-02,2.13190e-01,-9.55999e-01,5.76131e-01,1.02277e+00,-1.97548e-01,4.59671e-01,-4.44671e-01,1.14501e+00,4.93114e-01,1.93070e-02,-1.51227e+00,7.08395e-01,-1.52088e+00,3.18909e-01,-1.64565e+00,-7.53822e-01,5.82330e-02,-8.86011e-03,-1.94745e-01,-2.20890e-02,2.22622e+00,2.04686e+00,1.42965e-01,-1.15178e-01,6.54502e-01,-4.44993e+00,2.25130e-01,-2.18733e-03,-2.08652e-01,-2.45866e+00,-3.31977e-01,-5.21738e-02,4.18966e-01,5.14422e-01,-2.39645e-01,-6.35845e-03,-1.59899e+00,-8.68766e-02,6.68222e-03,-4.26692e+00,1.30188e-01,7.00654e-02,2.81381e-02,4.69064e-01,-2.00332e-01,-3.77441e-01,-6.31315e-04,-1.88083e-02,
1.00351e+00,2.69576e-02,-9.19904e-01,-7.78006e-01,-1.80022e+00,-1.43060e+00,-9.28053e-02,-1.68204e+00,-7.12838e-01,-2.23149e+00,2.07538e+00,-4.92747e-02,5.18616e-01,-1.50580e-01,-2.70004e-01,3.80378e-01,3.60190e-01,1.14822e+00,1.05100e+00,1.85132e-02,-5.65735e-01,2.40278e-02,2.09871e+00,-2.68585e+00,-4.99467e-01,4.45113e-01,-6.39342e-01,-1.70934e+00,-1.62893e-01,-4.09057e-02,-1.60528e+00,-9.81141e-01,-2.65481e+00,1.39167e-02,-2.23436e+00,1.06827e+00,-1.34163e+00,-1.93171e+00,-1.75335e+00,-3.14438e-02,1.17446e+00,-2.35251e-02,-1.18176e+00,-3.71078e+00,5.67728e-03,2.08600e-01,-1.39129e-01,-8.42422e-01,2.11162e-02,-9.36198e-03,
2.43762e-01,-2.49929e-02,7.78070e-02,5.86255e-01,5.23191e-01,2.04326e-01,-2.78129e-02,-7.82046e-01,4.10389e-02,1.31794e+00,-1.67579e-01,-4.63320e-02,-1.09921e-01,1.69210e-01,5.47356e-01,-8.13427e-01,-6.06799e-02,2.41025e-01,-6.13090e-01,-2.07835e-02,-2.22538e-01,1.02676e-02,-8.37618e-01,-2.42361e-01,6.32089e-01,2.67282e-01,1.92553e-01,4.89771e-02,-5.21470e-02,3.09595e-02,-1.12626e-01,4.26735e-01,-2.79573e-01,3.48420e-02,-4.69248e-01,1.11713e-01,2.09022e-01,3.25107e-01,-1.42457e-01,-4.19857e-01,1.52501e-01,-1.13803e-01,5.08613e-01,-1.52255e-01,1.81155e-02,4.66535e-01,-1.57381e-01,-3.00168e-01,1.05406e-02,4.17713e-02,
-1.14058e+00,4.99223e-02,6.37943e-01,-6.77552e-02,-1.94362e-01,-3.90676e-01,-1.73669e-01,-3.74727e-01,8.89877e-01,1.03655e+00,6.95273e-01,1.70506e-02,-3.61430e-01,6.27413e-01,-2.28281e-01,3.30297e-01,1.17183e-01,1.87275e-01,4.83537e-01,2.12413e-02,-5.45746e-02,-8.29887e-03,5.53869e-01,-8.97636e-01,-1.71012e+00,6.24203e-01,-4.96055e-02,7.04770e-02,4.11741e-01,-2.60168e-02,2.58144e-01,-5.66670e-01,-1.04134e+00,-4.49229e-02,-4.07216e-01,-5.18438e-03,3.25743e-01,1.26858e+00,9.09543e-01,-1.80896e-01,1.12653e+00,8.31085e-01,5.19390e-01,-4.26211e-01,1.79071e-02,4.42843e-01,9.68125e-01,-1.92414e-01,3.81460e-02,1.00592e-02,
-2.33799e-01,4.30120e-02,8.41357e-01,-1.99667e+00,-3.97128e-02,-1.33792e+00,-1.67168e+00,-1.12063e+00,-2.36797e-01,-8.04159e-01,-5.89908e-01,-1.64881e-02,-5.80132e-01,-4.46032e-01,-9.42888e-01,7.42757e-02,-1.52431e-01,1.53543e-01,9.06320e-01,4.19071e-03,5.66026e-01,-2.50842e-03,-6.76950e-01,-1.03072e+00,3.46414e-01,1.00920e-01,-4.80089e-01,5.90796e-01,3.99258e-02,-2.95721e-03,-6.65983e-01,-4.56874e-01,-1.17295e-01,-4.39768e-03,4.01849e-01,-1.00468e-01,-2.77692e-01,1.03496e+00,1.64746e-01,-7.31762e-01,1.44011e+00,1.35286e+00,-1.39557e-01,-1.78351e+00,-2.43427e-02,-1.15995e-01,1.01792e+00,-1.61270e-01,1.47311e-02,-3.11486e-02,
-9.47982e-01,2.49392e-02,-3.32236e-01,-4.98196e-01,-1.20039e-01,1.37871e-02,-8.18837e-02,5.40546e-01,2.14825e-03,-1.95123e-01,-2.69424e-01,-1.72246e-02,-7.10498e-01,-6.53780e-02,-1.13125e+00,-4.10196e-02,5.25740e-02,5.14951e-02,-5.27886e-01,4.75083e-02,2.10263e-01,9.46870e-03,-2.44392e+00,-2.32153e-01,-2.37883e-01,2.84494e-01,-1.16660e-01,2.31418e-01,-2.18753e-01,2.23384e-02,4.81775e-01,3.98236e-01,6.02336e-01,1.70184e-02,-1.16730e+00,-9.69998e-02,-4.42105e-01,-1.04964e+00,1.34017e-01,7.53593e-01,-3.87150e-01,3.88879e-01,-2.09543e-02,2.01784e-01,2.67836e-02,-1.30441e-01,2.85486e-01,-4.73973e-02,-8.38403e-03,-4.83052e-02,
-1.09023e-02,-2.25779e-02,-2.05528e-03,4.34508e-02,4.10004e-02,5.38508e-03,2.61582e-02,1.90990e-02,2.03531e-02,-4.26875e-02,9.58798e-03,3.58178e-02,2.10854e-02,-3.79502e-02,-4.15236e-02,-4.61328e-02,-2.12842e-02,2.49210e-03,-4.65872e-02,3.44656e-02,8.31418e-03,-4.03166e-02,-4.68144e-02,2.12294e-02,-3.68350e-02,-5.56263e-03,-1.21622e-02,-5.16544e-02,3.75446e-02,1.55529e-02,1.58188e-02,-1.94513e-02,2.97811e-02,1.60580e-02,-2.76082e-02,-3.82140e-02,1.40851e-02,-2.32103e-02,-3.06003e-02,-3.00227e-02,-3.16304e-02,3.88744e-02,-3.58500e-02,-3.94097e-02,1.69407e-02,-4.82957e-02,1.04313e-02,-1.68476e-02,-4.38600e-02,-1.74808e-02,
3.44875e-01,3.10970e-03,3.26072e-01,-1.36289e+00,-6.34171e-01,5.14557e-01,-5.87979e-01,-6.42228e-01,-3.19782e-01,-1.19869e+00,-3.12071e-01,-3.44543e-03,-4.39557e-01,-1.43759e-01,5.32145e-01,9.62970e-02,4.00705e-01,-5.19745e-02,-1.48913e-01,3.46518e-02,-7.35042e-01,-1.69681e-02,-1.25770e+00,-1.33393e-01,-9.30707e-01,2.19549e-01,2.69531e-01,-2.44908e-01,2.34536e-01,1.45408e-02,2.33297e-01,7.58502e-03,-2.47456e-01,1.73004e-02,1.81874e-01,-2.41303e-01,1.35428e-01,5.28555e-01,-8.39911e-01,1.11137e-01,5.48570e-01,1.19205e-01,1.35633e-01,-1.62527e+00,1.85798e-03,7.84779e-02,2.64050e-01,-8.96396e-01,3.44829e-02,3.83086e-02,
6.28163e-01,-2.82699e-02,6.16569e-01,4.07046e-01,-1.93184e-01,1.79897e-01,-1.35318e-01,6.34296e-01,-4.91493e-01,-1.23407e-02,-2.59667e-01,-5.14441e-03,-1.64505e-01,1.70710e-01,4.23782e-01,3.87896e-02,8.07822e-02,7.49739e-02,-3.75521e-01,2.16197e-02,-3.43545e-02,1.04711e-02,-2.31661e-01,4.14755e-01,-1.11197e+00,1.19881e-01,2.45537e-01,5.82664e-02,7.05896e-02,-2.12579e-02,2.13524e-01,3.74082e-01,6.73250e-01,4.01641e-02,-6.44907e-01,2.12444e-01,-2.63920e-01,5.20276e-02,-5.01668e-01,3.94167e-02,5.64377e-02,-1.16553e-01,3.39792e-01,4.91546e-01,-4.34650e-02,1.72768e-01,3.76918e-01,5.72490e-02,4.24775e-02,-3.32443e-02,
-1.20180e-01,-2.09428e-02,-1.18715e-02,-8.12937e-01,-3.91177e-03,-1.59736e-01,7.62064e-02,-1.38613e-01,6.00020e-02,-3.70993e-01,-1.63266e-01,4.49129e-02,8.59579e-02,-9.89485e-02,-3.13096e-01,1.12314e-01,6.34169e-02,2.54413e-01,4.39171e-01,1.52987e-02,-2.23767e-01,-3.24679e-02,-4.65553e-01,-9.97435e-01,3.25589e-01,4.20680e-01,-1.36294e-01,-1.53632e-01,-6.26525e-01,-2.37466e-02,-6.26475e-01,-1.77392e-01,1.09937e+00,1.39004e-02,1.82084e-01,-6.19654e-01,1.41104e-01,1.17484e-01,-4.36023e-01,-1.03540e-01,3.01535e-01,-1.52752e-01,-1.67035e-01,-8.51814e-01,3.61465e-02,-2.19995e-01,7.71370e-02,4.02467e-02,1.37666e-02,2.89189e-03,
-5.72333e-02,-7.44262e-05,-1.87757e-01,-2.56853e-01,2.66823e-02,3.65256e-01,9.97508e-01,1.04574e-01,8.92278e-01,-3.81631e-01,-8.22956e-02,5.73279e-03,-5.77617e-01,1.08944e-01,7.83825e-01,1.40922e-02,1.56575e-03,-5.53259e-02,-2.27113e-01,-3.70844e-02,-7.16154e-03,-3.20128e-03,1.60207e+00,-3.94173e-01,-4.29940e-02,2.89293e-01,4.92724e-01,9.14300e-01,-1.22096e-01,2.72414e-02,1.84533e-01,-1.24701e-01,3.64002e-01,9.34415e-03,-6.45798e-01,-3.74679e-01,1.14255e-02,-7.94424e-03,-4.53622e-01,8.65131e-02,-4.29056e-01,7.36255e-02,1.48406e-01,1.00605e-02,9.36054e-03,6.70819e-01,3.26827e-01,-1.88314e-01,-1.22038e-02,-1.81407e-02,
-3.92016e-02,3.34160e-02,-4.79972e-02,3.39717e-02,2.12937e-02,2.62413e-02,-3.29982e-02,-4.51930e-02,2.84393e-02,-2.05524e-02,3.01321e-02,-3.43365e-03,-2.51903e-02,-6.88041e-03,-2.68003e-02,-2.90855e-02,-2.05245e-02,-1.25547e-02,-6.30742e-03,-5.44256e-03,1.14471e-02,-9.74551e-03,-8.44277e-03,-2.98051e-02,1.94261e-02,-3.68961e-02,-8.67487e-03,1.37249e-02,-2.98025e-02,-1.79829e-02,-2.13381e-02,-1.84496e-02,-2.13964e-02,-1.41337e-03,2.83495e-02,-1.65342e-02,-2.88643e-02,2.86239e-02,-5.59197e-02,-6.04078e-02,-3.26850e-03,-4.88034e-02,-1.07030e-02,9.49596e-03,1.77898e-02,-5.43129e-02,-3.10353e-02,3.01081e-02,1.27009e-02,7.91556e-03,
2.70326e-01,2.83283e-02,1.43581e-01,1.01235e+00,-4.15469e-01,6.16940e-03,4.52602e-02,-2.53821e-01,-4.82607e-01,6.39077e-02,-6.28355e-02,-3.44682e-02,2.93115e-01,2.33858e-01,-1.02284e+00,-4.00050e-01,-6.39364e-01,-3.26140e-02,-3.60247e-02,-4.21823e-02,-6.37165e-02,-2.03258e-02,-4.94024e-01,2.45943e-01,-5.48916e-01,-3.09949e-01,1.99166e-01,-6.05120e-01,7.62582e-02,-4.04355e-02,3.00459e-02,-6.26406e-01,-1.41097e+00,-4.33714e-02,6.42659e-01,2.93382e-01,5.24180e-01,4.44935e-01,-1.28423e-01,3.74765e-01,7.39419e-02,1.23908e-01,-3.41366e-01,-7.33829e-01,-1.09223e-02,-3.40835e-01,-5.71321e-01,4.10776e-01,-2.75923e-02,4.20218e-03,
6.48745e-01,-1.59698e-02,1.00515e+00,-2.76327e-01,7.43633e-01,3.71223e-01,-4.23438e-01,1.53569e-01,-1.20880e-01,-3.42528e-01,-3.46449e-01,7.97838e-03,-8.64859e-01,-3.85905e-01,-3.33675e-01,-4.81262e-01,4.31947e-01,-1.77623e-01,-1.19850e-01,2.45688e-02,1.51163e+00,-1.84537e-02,-3.31441e-02,-2.77963e-01,7.93348e-01,5.71900e-01,1.79839e-01,2.82736e-01,-5.29758e-03,1.46381e-02,1.03203e+00,-3.54843e-01,5.13316e-01,2.01000e-02,-3.87759e-01,-5.77405e-01,-3.27627e-01,5.20539e-01,-2.37673e-02,-5.73525e-01,1.91070e-01,3.58296e-01,-6.27141e-02,-1.11356e+00,1.32259e-02,1.35405e-01,4.30387e-01,-3.95601e-01,-4.34787e-02,-3.16700e-02,
2.86277e-01,-1.10833e-02,3.57362e-01,3.97295e-01,2.07915e-01,5.29832e-01,-2.02482e-01,1.07992e-01,-1.94778e-01,6.93837e-01,-5.60849e-01,1.66602e-02,-1.14867e-01,-3.45444e-02,7.72499e-01,-5.27240e-01,-4.22218e-01,-1.04604e-01,-2.28542e-01,3.66215e-02,6.61815e-01,-1.85588e-02,3.54605e-02,-4.89870e-01,-2.27553e-01,3.68386e-01,2.56453e-01,2.58469e-01,3.83371e-01,2.77832e-03,1.27753e+00,1.78016e-01,7.68552e-01,-9.82448e-03,-1.33240e+00,-3.77803e-01,-3.95973e-01,-3.93240e-01,1.97296e-01,-1.41041e+00,-4.55450e-01,4.57647e-01,-5.34123e-01,8.13206e-01,-1.25289e-02,2.68312e-01,-1.34351e-02,2.12024e-01,-4.17281e-02,4.71051e-02,
-6.06371e-02,-2.21093e-02,-2.18067e-02,2.13772e-02,-1.56433e-02,-3.09146e-02,-1.38711e-02,2.32950e-02,3.92853e-02,3.15340e-02,-4.28814e-02,8.85203e-03,-3.36705e-02,-4.37023e-02,4.06622e-02,1.71119e-02,-3.87022e-02,-2.62193e-02,3.32259e-02,1.38835e-02,1.70282e-02,4.73008e-02,2.61423e-02,9.74986e-03,-4.22270e-02,-4.06763e-02,-5.63070e-02,-3.52671e-02,6.63596e-03,-3.77870e-02,2.77729e-02,-1.24022e-02,-5.86053e-02,2.93888e-02,-4.95652e-02,5.78402e-03,-1.35320e-02,-4.55401e-02,-4.59335e-02,-1.49498e-03,-1.68723e-02,-1.36636e-02,3.02593e-02,-3.44019e-03,-2.17113e-02,3.51731e-02,-2.04710e-02,-3.12169e-02,-3.29615e-02,-4.10160e-03,
-1.67783e-01,3.00973e-02,-4.91314e-01,1.07956e+00,1.49121e-01,4.91851e-02,1.48567e-01,-4.83522e-01,4.76724e-03,-2.67161e-01,1.70452e-01,2.20374e-02,3.71481e-01,-2.72559e-01,-6.19080e-01,2.16647e-01,6.26748e-01,2.23309e-01,1.06681e-01,-1.07985e-02,3.13921e-01,-3.06870e-02,8.70698e-01,7.67595e-01,4.09660e-01,-7.32096e-04,-2.09879e-01,2.25362e-01,2.06916e-01,-3.69495e-03,-1.60271e-01,3.16302e-01,-7.63580e-01,3.78784e-02,2.77751e-01,5.37409e-01,2.79198e-01,1.58481e-01,-5.52492e-01,2.16811e-02,4.18229e-01,1.72111e-01,1.35839e-01,7.53687e-01,-2.74633e-02,-3.49876e-01,-3.66382e-01,-1.74143e-01,-5.27053e-02,-4.57686e-02,
-6.22051e-01,-1.41492e-02,7.10395e-01,-9.26367e-01,-5.45914e-01,-1.45828e-01,-1.36014e+00,9.21739e-01,4.54499e-02,1.11522e-01,-8.59927e-01,-3.82555e-02,1.50773e+00,3.53005e-01,-6.34217e-01,-3.93803e-01,9.46682e-02,1.16958e-01,-1.14493e+00,-3.86080e-02,3.02767e-01,3.94162e-02,6.25253e-02,-1.09792e+00,4.02818e-01,2.58560e-02,7.32444e-01,-9.35614e-01,-2.63573e-01,-2.56482e-02,4.51236e-02,-3.59934e-01,-3.46858e-01,1.01707e-03,-1.04244e+00,1.34289e-01,1.18878e+00,-3.85791e-01,-3.28312e-01,7.59821e-01,6.29722e-01,6.81371e-01,5.70500e-01,-1.84961e-01,4.27115e-02,-2.18908e-02,-3.17293e-01,-5.17422e-01,2.51825e-02,4.26861e-02,
6.99347e-02,-5.99241e-03,2.42335e-02,-1.02429e-01,-4.86643e-01,-8.31435e-03,2.28574e-02,-1.80133e-01,2.10365e-01,5.61535e-01,-2.47288e-01,-4.32653e-02,-3.34434e-01,-7.68718e-02,9.23876e-02,-7.93178e-02,-1.20352e-01,-3.60968e-01,1.52114e-01,1.98028e-02,-8.51445e-01,5.39758e-02,2.75197e-01,4.15922e-01,2.48553e-02,-2.02259e-01,-3.39706e-01,3.71508e-01,-3.23272e-01,1.81217e-03,1.81112e-02,3.96724e-01,3.34521e-01,-2.91262e-03,5.20031e-01,-2.47560e-01,1.71505e-01,-1.60329e-02,3.66237e-01,4.27469e-02,-2.82262e-01,1.25251e-01,1.19250e-01,2.09601e-01,-4.85674e-03,-2.96442e-02,1.10828e-01,1.77051e-02,1.65081e-02,-3.12902e-02,
1.76850e-01,-4.26706e-02,1.91797e-01,-6.73837e-01,-5.63289e-01,-5.19329e-02,-3.08676e-01,5.32295e-02,1.41327e-02,-1.50982e-01,-2.47429e-01,1.31397e-02,-2.13883e-01,-3.57368e-02,-8.39267e-01,-7.72827e-01,3.67994e-01,-3.34192e-01,4.68445e-01,3.30071e-02,-1.98452e-02,-9.71974e-03,-3.68730e-01,1.00391e+00,-4.11491e-01,1.74953e-01,2.48396e-01,3.16513e-01,-2.28853e-01,-1.59522e-02,1.02544e-01,3.06172e-01,-1.11941e+00,-3.56968e-02,1.16492e-01,2.15123e-01,3.17198e-01,9.61797e-01,2.86103e-01,6.72793e-01,4.69972e-01,-3.37702e-01,6.71096e-01,3.15502e-01,5.03360e-02,9.82174e-02,2.13282e-01,-3.94512e-01,-1.43525e-02,2.07098e-02,
3.81793e-01,-1.47185e-02,-8.61582e-01,-6.05001e-01,-7.01744e-02,1.39754e-01,7.07374e-01,-5.82774e-01,-9.20387e-03,9.57981e-01,3.83696e-01,-2.28324e-02,-7.66173e-01,2.62116e-01,-2.27208e-01,1.24994e+00,-2.65089e+00,-1.23005e-01,6.40240e-01,4.27461e-02,4.33047e-01,-4.57601e-02,7.55295e-01,3.50626e-01,-6.62525e-01,-2.71240e-01,1.05089e-01,-4.68917e+00,1.45853e-01,1.61969e-02,-1.97660e-01,2.58510e-01,-4.22400e-01,1.04317e-02,-8.48193e-01,2.97464e-03,-3.29920e-01,-9.17926e-01,2.11035e-01,3.70704e-01,-2.76177e-01,8.18389e-01,4.00516e-01,-4.57291e-01,-2.46068e-02,2.93034e-01,-4.34095e-01,-2.99933e-01,1.95301e-02,2.60233e-02,
-4.02090e-01,-2.52697e-02,-4.00800e-01,-6.81472e-01,3.23982e-01,3.14784e-01,5.19745e-02,1.40688e-01,3.38623e-01,-4.17852e-01,-3.15350e-01,-3.21252e-02,-7.87874e-02,8.37209e-02,-2.04750e-01,2.60640e-01,1.18712e-01,-1.93049e-02,-2.67767e-02,-3.08394e-02,-6.37642e-01,-5.04407e-02,-3.42435e-01,4.47030e-01,-6.57577e-01,1.06547e-01,1.95597e-01,1.22691e-02,-1.93526e-01,-1.81254e-02,4.25739e-01,4.23908e-01,-2.77588e-01,-3.88161e-02,1.30168e-01,-1.64580e-01,3.50447e-02,-5.00790e-01,-2.60315e-01,3.76805e-02,-9.61927e-02,2.81252e-01,2.54999e-01,3.47491e-01,-1.04686e-02,-1.74880e-01,-2.42378e-01,-1.78991e-01,-6.88291e-03,2.51801e-02,
5.78085e-02,3.21362e-02,1.32682e-01,-3.40880e-02,1.26690e+00,2.14857e-01,8.54998e-02,-1.56741e-01,-1.77671e-01,-5.23080e-01,-7.83467e-02,-3.22878e-02,-1.43655e-01,2.65889e-03,1.09494e-02,2.07011e-01,-8.87458e-02,-1.24005e-01,1.29675e-01,1.76723e-02,5.57652e-02,-1.19242e-02,-3.30135e-01,-6.19867e-01,-4.65715e-01,-8.78105e-02,-8.02983e-02,-2.49161e-01,-4.14574e-02,-9.23279e-03,5.42691e-01,-3.73539e-01,3.47088e-01,2.69718e-02,1.15813e-01,-1.68474e-02,-2.62407e-01,3.81023e-01,1.95122e-01,-2.79180e-01,-6.17496e-01,-6.59883e-02,-5.04614e-02,-7.71379e-01,3.19985e-02,2.40328e-02,7.01806e-01,-1.43785e+00,-3.58987e-02,-4.89341e-02,
6.98321e-01,4.87701e-02,6.77797e-02,-1.17790e+00,8.94685e-01,1.63357e-01,-5.70616e-02,1.48431e+00,-4.31504e-01,-2.23841e+00,-2.74810e-01,2.32635e-02,1.72717e-01,5.30508e-01,-2.36685e-01,3.58125e-01,-7.66099e-01,2.41234e-01,3.05564e-01,2.79220e-02,1.67094e+00,1.77383e-02,6.20261e-01,-3.56083e-01,-2.21828e-01,-1.63958e-01,6.57830e-01,-6.73652e-01,-3.99640e-01,-3.86087e-02,1.12083e+00,8.91266e-01,7.74046e-01,1.18543e-02,-5.29219e-01,-1.20340e+00,2.20985e-01,-5.09177e-01,-1.86406e-01,-1.50722e+00,-5.52057e-01,-5.37626e-01,-7.24461e-01,7.25725e-01,-2.32481e-03,-6.53659e-03,-7.24926e-02,1.57379e-01,8.89516e-03,5.18956e-02,
3.06293e-02,-1.79646e-02,4.78034e-01,-2.62301e-01,6.21636e-02,-3.39984e-02,3.90172e-01,4.44770e-01,-1.54941e-01,-1.43950e-01,-2.57222e-02,-1.82192e-03,-1.70809e-01,3.59698e-01,1.36441e-01,1.94676e-01,-1.59206e-01,-4.89790e-02,-7.19658e-02,9.22248e-03,1.06284e-02,-7.11547e-03,7.07014e-02,-2.55430e-02,-2.68794e-01,-2.94212e-02,1.57479e-01,1.66878e+00,1.77897e-01,-4.47330e-02,2.79126e-01,1.39616e-01,4.59028e-01,4.94900e-02,-6.63982e-01,-3.28466e-02,1.32195e-01,-3.18062e-01,-2.68901e-01,-9.15894e-02,-1.34895e-01,1.09410e+00,1.58290e-01,-1.53144e-01,-1.18979e-02,-1.51305e-01,1.32896e-01,-2.46237e-01,1.98287e-04,-3.30398e-02,
2.08282e-02,4.03288e-02,-1.77485e-01,-1.59210e+00,-5.87485e-01,-6.79004e-02,2.58569e-01,2.50948e-01,3.55083e-01,7.90084e-01,-3.36888e-01,2.07146e-02,-7.79078e-01,-9.23887e-02,4.08811e-01,2.03216e-01,-7.35834e-02,-6.20441e-01,1.48823e-01,-1.39439e-02,-5.85448e-01,-3.79098e-02,-3.51336e-01,2.47088e-01,-1.28478e-01,-6.00739e-01,-2.66196e-01,-9.60566e-02,-4.16561e-01,4.00188e-02,5.78801e-01,6.06112e-01,5.17891e-01,2.17888e-02,5.96610e-01,-4.74239e-01,-4.16280e-01,-1.21924e-01,4.83816e-01,2.55421e-01,-3.22200e-01,2.17178e-02,3.41189e-01,2.28156e-01,2.51312e-02,2.22336e-01,2.98708e-01,-2.72638e-01,-5.09199e-02,-3.27464e-02,
-3.36281e-01,-2.91112e-02,1.62378e-01,-1.60915e+00,-3.93050e-01,7.10066e-01,-3.40399e-01,9.19672e-01,-5.96506e-01,-8.88346e-01,8.63401e-02,-5.12799e-02,-7.73741e-01,-1.69762e+00,5.26854e-01,3.94312e-01,-9.38710e-02,-3.22019e-01,7.31228e-01,5.29377e-03,1.39509e-01,3.04606e-02,-7.56533e+00,-3.11702e-01,8.51748e-01,9.36151e-02,-9.10038e-01,-1.91498e-01,-3.18531e-02,3.91364e-02,-2.84175e-01,8.81352e-01,-5.29527e-01,1.62365e-03,5.33273e-02,4.10119e-01,8.07602e-01,5.97708e-01,2.27482e-01,3.33717e-01,1.27771e-02,2.01741e-02,-1.69703e-01,7.27676e-01,-2.69201e-02,-8.59649e-01,1.47173e-01,7.42537e-01,-2.80508e-03,-9.85956e-04,
-1.57298e+00,
-2.05121e-02,
-1.78010e-02,
-1.57549e+00,
4.86114e-02,
5.13749e-01,
4.54181e-02,
-6.04221e-01,
-1.55171e+00,
5.62770e-01,
-1.92666e-02,
1.30756e-01,
1.30278e-02,
4.15090e-01,
1.13552e+00,
-3.05272e-02,
4.44363e-01,
-2.50268e-01,
-1.52936e-01,
-6.06674e-02,
1.20812e-01,
-1.56568e+00,
-3.33800e-01,
-1.77453e+00,
3.44816e-01,
-1.57994e+00,
-6.79600e-01,
-3.75182e-03,
7.18869e-01,
-1.79536e-02,
7.73457e-01,
-1.15696e+00,
4.72240e-01,
6.95244e-01,
-2.77845e-02,
5.69090e-01,
-5.01030e-01,
-3.01238e-01,
-1.32081e-02,
-1.10755e-01,
1.08526e-01,
3.28128e-01,
4.93641e-01,
2.21504e-01,
7.10305e-01,
-1.58910e+00,
-9.15148e-02,
1.55608e-01,
6.78075e-01,
-1.44708e+00,
-3.45431e-01,-5.32396e-02,-2.55670e-02,-8.99521e-01,-3.35166e-01,-9.57234e-01,-4.14021e-01,9.19373e-02,2.84945e-01,4.37637e-01,-2.47638e-03,1.59875e-01,-3.80286e-01,1.69568e+00,2.18023e-01,-9.57278e-03,1.29309e+00,-5.26914e-01,5.11926e-01,6.59192e-01,-1.58540e-01,5.11752e-01,5.80083e-01,1.33596e+00,3.05369e-01,9.48489e-02,7.91581e-01,8.14973e-02,2.63348e+00,-4.64789e-02,-1.44530e+00,2.53034e-01,1.16060e+00,4.25962e-01,-1.06197e-02,1.60010e-01,1.58069e-01,-4.14948e+00,-1.95216e-02,-3.02884e-01,2.16812e-01,3.34098e+00,-8.03008e-01,2.92981e-01,-2.27506e+00,8.50946e-01,-8.78366e-01,-2.60712e-01,-2.56060e+00,-3.22378e-02,
-3.64507e-01,3.95267e-02,-1.86996e-03,1.00714e-01,-4.34097e-01,6.52906e-02,-6.48940e-01,-4.67203e-02,1.07637e+00,5.94059e-01,-1.39416e-02,-3.34741e-01,-3.87310e-01,6.89176e-01,3.78455e-01,3.85678e-02,3.93857e-01,1.25800e+00,-3.93623e-01,2.18917e-01,-3.31340e-01,2.95350e-01,-3.50303e-01,-3.87584e-01,-5.31885e-02,3.11751e-01,1.50585e-02,-8.70596e-02,1.84440e-01,4.47941e-02,1.99207e-01,6.10019e-01,1.14656e-01,4.33974e-01,-4.19786e-02,-8.60887e-02,9.84668e-01,1.78780e-01,-1.90856e-02,3.01677e-01,3.84233e-01,6.13851e-01,-3.78264e-01,1.63687e-01,2.39518e-01,-2.48436e-01,8.38559e-02,-1.57896e-01,1.25786e-01,-4.58244e-02,
8.84670e-01,-2.44873e-03,-4.72048e-02,7.96108e-02,-6.18752e-01,-8.10710e-01,-2.08533e+00,2.20493e-01,1.51467e+00,-2.66717e-01,2.81200e-02,-3.87049e-01,1.71763e-01,9.80320e-01,-2.17564e-01,9.95197e-03,2.65090e-02,-1.96864e-01,1.12383e-01,-7.66945e-01,-4.86682e-02,-3.89330e-01,4.94226e-01,1.63106e-01,-1.28268e-01,-1.37186e+00,-8.03592e-02,-1.00491e+00,1.48324e+00,-3.40672e-02,-1.36708e+00,3.82487e-01,-4.28467e-01,-2.12759e-01,2.29009e-02,-1.34961e+00,9.69776e-01,1.64218e+00,-3.74960e-02,4.95534e-01,2.64004e-01,-1.79734e+00,-1.54635e-01,4.60717e-01,3.07137e-01,1.04780e+00,-1.02445e+00,-5.54717e-01,-1.89804e-01,-3.66942e-02,
-9.69266e-01,-5.06729e-02,2.86723e-02,-1.27369e+00,-4.49335e-01,5.95538e-02,-6.75819e-01,-2.78644e-01,-9.15541e-02,8.39293e-01,2.90817e-02,-3.89988e-01,-8.01234e-02,5.98523e-01,1.88447e-01,-3.02399e-02,-6.13302e-01,-2.63178e+00,-7.08869e-01,2.06732e-01,8.86628e-01,4.50951e-01,-5.19519e-01,-7.97719e-01,6.34427e-01,-2.79482e-01,3.52196e-01,1.08075e-01,7.49229e-01,3.73375e-02,4.39084e-01,4.17897e-01,-8.62811e-01,9.71613e-02,2.17337e-02,3.50221e-02,-8.21167e-01,-3.52357e-01,-1.92567e-02,2.88272e-01,-5.95209e-02,6.06088e-01,1.00889e-01,-3.04786e-01,-8.98740e-01,-4.53103e+00,-6.79315e-01,1.36114e-02,-5.47025e-01,7.38302e-02,
3.36274e-01,4.22527e-02,2.04444e-02,-3.82154e-01,-2.07984e-01,-1.37253e-01,4.44716e-01,4.86831e-01,7.58989e-01,4.68989e-01,-8.71752e-04,-1.17504e+00,-4.83255e-01,4.71299e-01,1.27350e+00,-3.34300e-02,-9.47873e-03,-1.26326e+00,-2.72164e+00,3.60309e-01,-6.01839e-01,-4.11561e-01,1.19898e+00,-3.63391e-01,7.00356e-02,-1.78913e-01,4.15854e-01,-1.79713e-01,3.02989e-02,-1.07083e-02,-3.08570e-01,1.14907e+00,2.04489e+00,1.92625e-01,2.45646e-02,5.81626e-02,1.05651e+00,-1.11750e+00,3.58121e-02,4.15521e-02,-1.58057e+00,1.38831e+00,-8.37377e-01,-2.72057e-01,8.48929e-01,-7.91197e-02,1.31245e-01,1.46045e-01,-9.82159e-01,7.14012e-02,
-1.94074e-01,3.82057e-02,3.27432e-02,-7.74146e-02,-9.01254e-02,8.01592e-02,3.37326e-02,4.28124e-02,-4.53118e-02,-4.15120e-03,-4.38425e-02,8.16745e-02,1.47649e-01,-2.25511e-01,-8.85064e-02,6.97028e-03,1.18350e-02,5.17832e-02,-7.39616e-02,3.73246e-01,-6.49209e-02,-7.39896e-02,-3.33904e-02,-6.88223e-02,-8.96098e-02,-1.77931e-01,5.95110e-02,1.47058e-02,-1.20935e-01,2.37543e-02,-9.63988e-03,-5.26091e-02,-5.10070e-02,-1.53268e-01,2.74677e-02,-6.08359e-02,-6.44010e-02,5.81733e-02,3.95205e-02,-2.00839e-01,1.89459e-02,-1.93026e-01,-7.19489e-02,1.37789e-02,6.21893e-03,-2.14416e-01,4.75825e-02,-1.71564e-02,-1.20812e-01,-5.81641e-02,
6.67965e-01,2.76558e-02,-8.11762e-03,6.44213e-01,5.63771e-01,3.69651e-01,-1.33230e-01,-5.54281e-01,-1.29304e+00,-9.08580e-01,-3.61083e-02,1.55599e-01,-5.38884e-01,1.51238e-01,-5.64182e-01,2.72590e-02,2.85625e-01,1.26946e+00,1.32344e-01,-6.00318e-01,-2.84275e-01,5.79747e-01,-1.07226e+00,1.34452e+00,8.59035e-02,3.61824e-01,1.78839e-01,5.86142e-01,-2.38825e+00,-3.68143e-02,-2.73654e+00,-9.36274e-01,3.07112e-01,4.33203e-01,3.35399e-02,9.64914e-01,-2.79924e-01,8.58530e-01,5.96576e-03,-2.91244e-02,-1.00037e+00,1.60081e-01,1.21156e-01,-2.27227e-01,-1.67978e+00,-5.63677e-01,5.57345e-02,-3.53089e-02,-1.32570e+00,9.62484e-01,
-3.82825e-02,-5.53931e-02,3.01358e-02,1.65740e-01,9.11410e-02,3.28570e-01,-5.24715e-01,2.97078e-01,1.41582e+00,6.98335e-02,-7.39792e-03,2.04660e-01,2.71793e-01,9.82761e-01,1.50219e-01,4.94663e-04,5.13350e-01,-1.23076e-01,3.87364e-01,-3.27364e-01,-1.96753e-01,-3.23913e-01,2.85717e-01,-4.63989e-01,9.58106e-02,2.02149e-01,8.68046e-02,-1.18502e-01,-2.31270e-01,2.50221e-02,7.41021e-01,5.66567e-01,2.52924e-01,-2.06769e-01,5.87051e-02,-1.66900e-01,-5.81551e-01,2.10281e-01,3.20859e-02,-1.65037e-01,3.48772e-01,1.07358e+00,-8.80726e-02,2.20075e-01,4.95007e-01,2.38666e-01,2.50912e-01,-3.28012e-01,-1.52372e-01,-2.23576e-01,
-1.18083e-01,4.44058e-02,-5.23077e-02,1.02587e-01,5.31675e-02,3.97277e-01,-9.88550e-02,2.86376e-01,-1.53236e-01,-5.97101e-02,1.21596e-02,-1.57003e-01,3.63765e-01,5.68290e-01,-5.42216e-01,-4.87458e-02,-1.57874e-01,9.40589e-02,-9.78137e-02,2.45989e-01,6.12223e-02,4.66429e-02,-5.49071e-02,-9.52248e-02,-5.22413e-02,5.82376e-01,-4.08408e-02,2.70998e-01,-2.30559e-01,3.30286e-02,5.16107e-01,6.58989e-04,-3.38624e-01,-1.29300e-01,5.45242e-03,1.50935e-01,-1.64128e-01,2.98273e-01,-3.59300e-02,5.25589e-02,1.62710e-01,3.95414e-01,-1.35621e-01,5.24434e-02,4.03390e-01,-6.28088e-01,4.04612e-01,-4.99163e-02,5.67600e-01,-4.80159e-01,
-1.89890e-01,3.91671e-02,-3.44433e-02,-7.25550e-02,-1.90998e-01,1.34326e+00,-1.36742e+00,-2.14194e-01,-3.80540e-01,-5.72066e-01,-4.68111e-02,-8.97874e-01,2.20961e-01,1.78799e+00,-2.26227e-01,1.08799e-03,2.72622e-01,-3.30039e-02,1.62528e-01,-7.39570e-02,-9.17392e-01,4.82317e-01,6.66456e-01,-7.42907e-03,3.85665e-02,3.05682e-01,4.79232e-01,-9.57574e-02,-9.50337e-01,3.33757e-02,-4.89303e-04,-6.45357e-01,3.96654e-02,9.57785e-01,-2.85858e-02,-5.23937e-02,3.09044e-01,1.84862e-01,2.67290e-02,6.77582e-02,7.24702e-02,-1.11610e+00,4.45623e-01,-5.85723e-01,6.51101e-01,-1.98967e-01,-3.66601e-01,9.44468e-01,2.41600e-01,-1.85508e-01,
6.48338e-02,-2.44611e-02,-2.79746e-02,-1.00453e-01,-1.85494e-01,2.54886e-01,-1.66091e-01,-4.39031e-01,-2.18005e-01,4.87296e-01,1.23963e-02,2.83032e-02,-1.98029e-01,-9.04999e-02,-2.46292e-01,-3.43715e-02,2.45215e-01,1.07927e+00,2.56076e-01,-1.25573e+00,-7.57164e-01,2.71190e-01,-1.21401e-01,1.23753e-01,1.03313e-01,-1.50760e-01,-1.76034e-01,6.32078e-02,7.14315e-01,-3.85804e-02,3.65904e-01,-1.03782e-01,9.44542e-02,-6.93198e-02,-5.98302e-03,-7.85221e-02,-3.42691e-01,5.04779e-01,-2.37740e-02,1.62556e-02,3.57336e-01,-1.37074e-01,5.81222e-01,-1.03055e-02,-8.19697e-01,4.16680e-01,6.88093e-02,1.37562e-01,-2.12533e-02,2.41243e-02,
5.96347e-02,-3.51674e-02,3.00602e-02,1.82772e-02,6.05341e-02,1.61826e-01,1.81922e-01,-4.74439e-02,3.24463e-01,-3.53618e-01,-3.22154e-02,-2.34029e-02,4.67014e-02,-3.56897e-01,-1.06684e-01,-3.48046e-02,-9.62455e-02,1.07235e-01,1.16682e-01,-1.96636e-01,-4.13255e-01,-6.81700e-03,-3.45113e-01,-1.18271e-01,-1.53869e-02,2.09270e-01,3.51859e-02,1.52322e-01,1.08614e-01,2.62910e-02,-5.43763e-03,8.86399e-02,-4.32333e-01,-1.77246e-01,-9.27523e-03,-4.79434e-01,2.60689e-01,-5.22052e-01,3.63040e-02,4.24356e-02,1.78129e-01,4.29553e-02,-1.73938e-01,-3.26520e-02,-1.24463e-02,3.36295e-02,-9.17656e-02,5.67829e-02,1.76884e-01,-1.67797e-01,
2.41808e-01,-4.42008e-02,-1.69067e-02,-1.79635e-02,-4.29615e-01,-1.30759e-01,-3.46370e-01,1.29861e-01,-1.86901e+01,-1.26552e-02,4.06070e-02,2.24027e-01,8.61267e-02,2.16233e-01,2.49685e-01,1.12713e-03,-1.84193e-01,3.59891e-02,-1.06550e-02,4.99743e-01,6.62721e-02,8.67584e-02,8.37915e-01,-5.09417e-01,5.45160e-02,7.86544e-03,-1.36211e-01,-4.38733e-02,-3.54549e-01,-2.11513e-02,8.59607e-01,-3.44947e-01,-1.58040e-01,5.43827e-02,2.75302e-02,4.65652e-01,-3.14580e-01,4.29481e-01,5.08984e-02,5.79340e-01,1.63453e-02,1.11921e-01,3.73756e-02,2.97902e-01,1.73904e-01,-3.27564e-04,5.59721e-01,-2.06197e-01,5.13084e-02,8.43631e-03,
-9.06593e-02,-2.71145e-02,1.28030e-02,-1.23832e-01,-5.48692e-01,-2.81391e-02,-3.83380e-01,-1.55008e-01,2.27036e-01,-2.11093e-01,-5.54057e-03,-1.00288e-01,1.53500e-01,-3.79567e-01,2.30256e-01,-1.04436e-02,-1.74427e-01,-1.60914e-02,-5.22443e-02,-7.86461e-02,-2.21484e-01,-7.59237e-02,1.79405e-01,1.11793e-03,-8.31098e-03,3.19242e-02,9.70612e-02,-4.55775e-03,6.82698e-01,3.04684e-02,-2.26929e-01,1.74090e-01,5.60446e-01,-2.39748e-02,4.32255e-02,1.10778e-01,6.53547e-02,-4.96130e-03,7.77971e-03,-1.82094e-02,-1.00376e-01,-1.77579e-02,1.46037e-01,1.63016e-01,-9.80769e-02,-1.41802e-01,3.79300e-02,-2.58867e-02,-2.21102e-01,-2.97581e-01,
1.18111e-02,4.00291e-02,2.73547e-02,1.76336e-01,-4.99687e-01,-1.42953e-01,2.20374e-01,-1.69898e-01,-9.05524e-02,-8.68029e-03,4.25010e-02,2.09449e-02,5.67147e-02,5.79944e-01,-6.32684e-02,-5.05340e-02,8.84682e-02,5.07747e-01,-2.15804e-01,-1.37658e+00,-1.48290e-01,1.62396e-01,1.54858e-01,1.03313e-01,-7.19727e-02,-1.29233e-01,-9.07939e-02,-9.29062e-02,-2.29569e-01,2.07380e-02,-1.47642e-01,3.07732e-01,-1.38881e-01,2.94576e-01,2.01176e-02,4.26035e-01,-1.56225e-01,-3.25640e-02,3.56483e-02,4.37066e-01,-3.44354e-02,-3.30712e-01,-1.90673e-01,-9.56034e-02,-1.21704e-01,1.25654e-01,-1.05427e-01,4.88797e-01,1.45444e-01,3.63753e-02,
1.89819e-01,-8.84410e-03,-4.41895e-03,2.60878e-01,7.76063e-01,-6.14510e-01,-1.21940e+00,2.80615e-01,9.87869e-01,-5.67418e-01,-5.86464e-03,-2.30754e-01,1.85133e-01,-1.62617e+00,-2.04314e-01,4.07082e-02,-2.46865e-01,-3.34344e-01,3.18469e-02,6.65502e-01,-2.91765e-01,2.17558e-01,-3.13491e+00,-4.24539e-02,1.42583e-01,-2.33685e-01,-2.66718e-01,-5.11511e-01,-7.03379e-02,2.28815e-02,-1.28882e-01,-3.92709e-01,1.54269e-01,-6.92517e-01,-7.81325e-03,-5.13641e-01,6.00180e-01,-1.92418e-01,3.40052e-03,2.33208e-01,1.06600e-01,-2.16214e-01,1.28280e-01,-1.20023e-01,-1.33621e-01,-3.10197e-01,-1.28388e-01,-1.14972e+00,3.62824e-01,6.24152e-01,
8.40749e-04,1.13267e-02,1.34115e-02,-2.64607e-01,4.28414e-01,4.73439e-02,4.62491e-01,5.26011e-02,3.60426e-02,7.43025e-02,2.96734e-02,-8.75756e-02,2.85026e-01,-7.79022e-01,-2.08824e-01,7.74036e-03,-6.35821e-01,2.80430e-01,-5.02730e-01,-4.98378e-01,1.33043e-01,2.38612e-01,3.01917e-01,-8.08552e-02,-4.46369e-01,-6.13537e-01,-5.10785e-01,-5.72987e-01,5.29250e-01,2.70569e-02,-2.39608e-01,3.10764e-01,-7.39409e-01,-1.53949e-02,-1.73633e-03,-1.48950e-02,4.65742e-01,6.81166e-02,3.52913e-02,2.10622e-01,-4.75817e-02,-3.36810e-01,-4.34837e-01,-5.30259e-02,4.23221e-01,-5.12294e-01,7.11377e-01,1.16121e-01,1.27911e-01,5.94296e-02,
-5.68201e-01,-2.98341e-02,3.97917e-02,9.34537e-01,6.90519e-01,-1.35461e-01,-8.84295e-01,5.12536e-02,-1.58112e+01,-2.45897e-01,1.51548e-02,1.18651e+00,-1.11137e-01,-1.54103e+00,2.36497e-01,2.00819e-02,1.39216e-01,-1.74415e+00,-2.65288e-01,-4.15074e-01,-5.94927e-01,9.22359e-02,-9.59929e-01,-3.93969e-01,-1.47358e-01,-1.42785e-01,5.66359e-02,-4.48686e-02,5.27742e-01,3.53305e-03,6.69737e-02,-8.11599e-01,3.19997e-01,-1.18735e+00,2.70168e-02,-3.28621e-01,-3.50031e-01,5.19221e-01,-2.91497e-03,1.38594e-01,9.78614e-02,-4.33243e-01,2.27054e-01,-2.28492e-01,-2.55980e-01,4.13886e-01,4.16294e-01,9.80853e-01,1.46657e-01,4.60326e-01,
3.65172e-01,3.61850e-02,2.00872e-02,4.64044e-01,-6.05070e-01,3.68811e-01,8.98675e-01,-5.30889e-01,3.17131e+00,1.23761e-01,-3.88561e-02,-8.84417e-01,2.13614e-01,5.15886e-01,5.86536e-02,3.17154e-02,-6.62734e-01,-9.22086e-02,-4.21277e-01,3.08537e-01,5.48880e-01,1.38051e+00,1.99549e-01,5.85501e-01,9.58071e-02,5.68683e-01,-3.06383e-01,-4.55220e-01,-1.07767e+00,-4.79843e-02,-5.27738e-03,1.42787e-01,-6.85560e-01,1.88462e-01,2.89597e-02,7.11928e-01,-4.37040e-01,-3.14969e-01,2.17031e-02,6.51892e-01,-4.32469e-02,-8.84241e-01,3.31631e-03,-4.16005e-01,6.74455e-01,-9.62490e-01,-4.27544e-01,-4.00415e-01,-1.81441e-03,-1.12886e-01,
-1.13345e-02,-1.85336e-02,-4.02561e-02,-2.27877e-01,-2.71968e-01,1.07967e-01,-4.71624e-01,1.29548e-01,1.81204e-01,2.44450e-01,-4.74117e-03,1.63975e-01,-1.45461e-02,1.38541e-01,-7.85336e-02,1.97766e-02,1.12624e-02,3.34614e-03,6.53595e-02,3.93640e-01,1.85524e-01,3.21214e-02,-1.04094e-01,-7.75158e-02,8.18710e-02,3.36540e-02,8.67542e-02,5.42129e-02,-1.17958e-01,-4.24364e-02,4.67069e-01,-1.27682e-01,3.21574e-01,-4.45295e-01,7.28732e-03,1.65136e-01,-4.32594e-01,5.40206e-01,4.16714e-02,-3.42653e-01,-1.09075e-01,2.04281e-01,2.29987e-01,4.10398e-01,-9.57080e-02,4.60354e-01,2.02656e-01,4.12403e-01,-1.58486e-01,-1.96842e-01,
7.39935e-01,2.59962e-02,1.47867e-03,4.11168e-01,-7.44010e-01,-4.96580e-01,2.27425e+00,3.14294e-01,3.74493e-01,-5.94272e-01,-3.97980e-02,1.45991e-01,3.16465e-01,4.37188e-01,-9.91205e-02,-1.98120e-02,4.15606e-01,-2.81768e-01,8.03596e-02,-2.46945e+00,1.63171e-01,-4.22343e-01,1.34787e-01,4.68023e-01,-1.80707e-01,4.64051e-01,-1.10697e-01,-2.17732e-01,-5.06455e-01,-4.77711e-03,-8.84165e-01,-3.79973e-01,-4.96119e-01,-5.18849e-02,-4.01580e-02,-1.18770e+00,4.83451e-01,-2.28291e+00,-6.63481e-03,3.54466e-01,3.33875e-01,-7.87019e-01,-4.27129e-01,9.63004e-03,-2.76732e+00,6.44622e-01,-6.23400e-01,-1.97991e-01,-4.99865e-01,-5.69313e-01,
-2.54351e-02,1.08905e-02,-2.67861e-02,3.31330e-02,3.55153e-01,1.92541e-01,-4.94455e-01,3.23341e-02,1.65124e-01,2.86208e-01,4.39468e-02,-1.98566e-01,1.19704e-01,-1.10730e+00,-3.16718e-01,4.70176e-02,-5.33410e-01,4.45522e-01,-3.30772e-02,-6.10960e-01,1.79991e-01,4.78494e-01,3.93663e-01,-6.53029e-02,1.34961e-01,-1.10998e-01,-2.50425e-01,1.90315e-01,1.98321e+00,-1.81637e-03,-4.35793e-02,2.03141e-01,-4.54532e-01,2.37843e-02,3.77829e-02,-1.94213e-01,1.12511e-01,-6.95847e-01,3.81064e-02,4.98372e-02,1.42051e-01,-2.27721e-01,9.47125e-02,1.25599e-01,-6.35051e-01,-7.13247e-01,-9.23551e-02,-1.72962e-01,-1.28514e-01,4.37712e-02,
6.60320e-01,3.80750e-02,4.20952e-02,-2.22571e-01,-1.57577e+00,-4.53238e-01,2.00925e-01,-4.34691e-01,-1.50731e+00,1.89340e-01,-6.50273e-04,-6.39383e-02,-1.64356e-02,-3.31314e-01,2.55676e-01,1.23746e-02,-6.68863e-03,-1.30883e+00,-5.71496e-01,-1.20907e+00,2.28136e-01,-5.91180e-02,9.04511e-02,-4.78369e-01,1.04571e-01,-4.23028e-02,-2.85554e-01,-5.03968e-01,-6.89357e-01,4.74895e-02,-1.44344e+00,3.59736e-01,-2.22334e-01,3.01353e-01,2.68088e-02,-2.81301e-01,-8.07769e-02,1.39454e-01,1.82669e-02,4.98236e-01,2.87139e-01,4.88469e-01,-1.09445e+00,2.26925e-01,2.90745e-01,-4.38991e-01,-6.84868e-01,-5.92607e-01,-5.00995e-01,5.61648e-01,
-4.56984e-01,-3.55491e-02,-2.88715e-02,-4.15456e-01,8.40122e-01,-7.27059e-01,2.66654e-01,-5.42740e-01,4.05459e-02,6.25677e-02,2.73224e-02,-1.96975e-01,2.25667e-02,8.01249e-01,-3.62263e-01,2.66628e-02,-2.77163e-01,4.89606e-01,-1.65097e-01,7.99964e-01,-5.81636e-04,-4.02863e-01,-4.07099e-02,-2.15358e-01,-8.34694e-02,-4.52176e-01,-1.82028e-01,1.22207e-01,-3.26437e-01,2.32305e-02,-3.78260e-01,1.17866e+00,-7.21406e-02,-3.96614e-04,-5.87690e-03,3.60100e-01,1.60055e-01,-3.53702e-02,3.34400e-02,9.33247e-01,4.60065e-02,-1.01445e+00,-4.78915e-01,1.42728e-01,2.66048e-01,-4.65961e-01,4.28108e-01,2.46367e-03,5.62419e-01,-1.15821e-01,
-1.35045e+00,-4.00944e-02,-2.20033e-02,-8.69145e+00,-2.60084e-01,2.38108e-02,5.50571e-01,3.11065e-01,-1.97053e+00,-1.71380e-01,-4.04037e-02,3.79329e-01,-2.82102e-01,7.99483e-01,-1.86355e+00,2.10654e-02,5.43727e-01,2.44452e+00,1.17879e+00,-1.13385e+00,-3.06836e-01,1.11655e+00,-1.41971e+00,-2.10912e-02,2.38593e-01,-8.25240e-03,4.10505e-01,4.13668e-01,2.07440e+00,9.54778e-03,-6.26560e-01,-3.20252e+00,6.04990e-02,9.67398e-02,2.26897e-02,3.21270e-01,4.23505e-01,1.05314e-01,4.51489e-02,-6.72034e-01,7.99729e-01,3.84735e-01,-2.55436e+00,-2.43854e+00,1.79974e-01,-3.65852e-02,3.89917e-01,-2.92778e-01,-6.57764e-01,4.37230e-01,
-4.55859e-02,-2.18976e-02,-3.39314e-02,-7.59926e-02,-1.61043e+00,4.57014e-01,-8.92389e-01,-3.31213e-01,1.46097e-01,-5.99941e-01,2.27684e-02,7.37381e-01,-6.06425e-01,3.27515e-01,2.19550e-01,2.13622e-02,1.51874e-01,-1.70368e+00,1.71079e-01,-3.93426e-01,3.90858e-01,1.01068e+00,1.53378e-01,-1.21362e-01,3.35007e-01,-4.12595e-01,2.24339e-01,4.28923e-01,1.81998e+00,2.79721e-02,-2.14251e+00,-6.42045e-01,-5.66839e-01,3.38954e-01,-3.06509e-02,-3.99329e-01,-3.38850e-02,1.41074e+00,-3.33047e-02,-4.46770e-01,1.30948e-01,-3.88243e-01,1.24574e-01,7.62195e-02,5.17858e-01,6.91295e-01,-9.01013e-01,-5.74119e-02,-1.06475e+00,-4.06573e-01,
1.51965e-01,1.71625e-02,-3.45328e-02,-8.07645e-01,6.00018e-01,1.12906e-01,4.68181e-02,1.01693e-01,1.95623e-01,2.39529e-01,-3.31827e-02,-2.01106e-01,-3.64451e-01,-1.41663e-01,6.99935e-01,1.67146e-02,3.30256e-01,-3.64820e-01,-1.52503e-01,3.46871e-02,1.86196e-01,6.62185e-02,-2.72063e-01,-2.73841e-01,-1.46621e-01,-3.85913e-01,1.43496e-01,8.42489e-02,4.85476e-01,2.81368e-02,-1.86563e-01,-6.60235e-01,4.64634e-02,-1.04712e-02,1.20713e-02,3.24066e-01,9.50622e-03,-1.20517e+00,-4.26295e-02,-5.94308e-03,-2.27621e-01,-3.91747e-01,-9.21861e-02,-1.09293e-01,-9.42913e-01,-2.64099e-01,-2.89064e-01,3.50591e-01,-1.98514e-01,1.36741e-01,
3.89831e-01,-1.70698e-02,-2.49538e-03,5.52597e-01,1.33864e+00,1.72419e-01,1.48889e-02,2.15944e-02,4.03360e-01,1.43172e-02,-3.04000e-02,-1.54354e-02,1.16675e-01,3.36640e-01,-1.12932e-01,-3.76264e-02,1.09831e-01,-2.09250e-01,1.20299e-02,-4.44012e-02,2.07091e-01,-3.98691e-02,-7.60471e-01,5.65289e-01,2.53243e-01,-3.00872e-01,-1.75893e-01,-8.64570e-02,1.11161e-02,2.19080e-02,-6.05300e-01,5.17846e-01,-7.31332e-01,1.19106e-01,-6.62215e-02,3.26720e-01,3.58522e-01,-1.86454e-01,-7.13702e-03,7.23921e-02,-1.23792e-01,1.00045e+00,-2.48832e-01,-2.42581e-01,5.00031e-01,2.06001e-01,-7.11328e-02,-2.27953e-01,-1.73015e-01,-3.33327e-01,
-3.93703e-01,-2.18495e-02,4.29479e-04,8.70831e-02,4.93076e-01,1.84861e-01,2.19136e-01,-1.56459e-01,-2.01853e-01,-7.08179e-01,-2.95585e-02,-8.33107e-01,5.26972e-02,2.96462e-01,-8.76353e-02,7.54437e-03,-9.13388e-02,-3.70254e-01,3.01122e-01,-1.62761e-01,-2.21613e-02,-7.25154e-02,-3.00787e-01,-2.97969e-01,-5.77434e-02,3.76804e-01,4.87366e-01,-1.85765e-01,-6.20162e-01,1.19672e-02,-1.14501e+00,-1.75358e-01,4.52249e-02,-4.11985e-02,3.84010e-02,3.69069e-01,4.95420e-01,2.80461e-01,3.09309e-02,4.05072e-01,-7.30581e-02,-2.38877e-01,9.05998e-02,-2.68790e-01,4.41048e-02,-3.01701e+00,-4.43238e+00,-2.22855e-01,-5.12253e-01,5.81879e-01,
1.51661e-01,2.63559e-03,-1.12159e-02,-9.72790e-01,-1.34678e+00,-2.10246e-01,-3.45107e-01,1.07347e-01,-2.80733e-01,-2.38325e-01,-2.52302e-02,-9.47543e-01,-1.23548e-01,1.35679e+00,-3.21136e-01,-3.46582e-02,1.18732e-02,-1.74123e-01,-9.95536e-01,-1.07486e-01,-1.99662e-01,-5.47866e-01,2.01674e-02,-2.54811e-02,1.83630e-01,-1.76903e-01,-1.13176e-01,6.14209e-02,1.21183e+00,3.95345e-02,-2.15352e-01,1.64738e-01,-5.10649e-01,1.37621e-01,2.64449e-03,5.87608e-02,-5.65658e-01,8.84648e-01,3.22052e-02,-1.14998e-01,5.44712e-02,-8.27073e-01,-1.37890e-01,-4.43878e-01,1.02462e+00,4.39160e-01,7.10867e-01,-9.81932e-02,-5.76602e-02,5.32343e-01,
-5.19041e-01,-3.99494e-02,-1.97103e-02,-1.38411e-01,-5.32180e-01,-1.39550e-01,-1.14371e+00,-3.66078e-01,6.21177e-01,-3.73532e-02,-1.38303e-02,-1.68012e-02,2.99584e-01,-7.14345e-01,-2.23033e-01,3.60233e-02,5.73230e-01,1.05924e-01,1.00442e-01,-9.81917e-01,-6.37618e-01,-1.49662e-01,2.63802e-01,-1.76638e-01,1.60495e-03,2.80181e-02,3.35948e-01,7.35934e-02,1.03312e+00,-2.20212e-02,-2.05209e-01,2.14149e-01,6.80013e-01,5.27639e-01,6.55292e-03,-4.03905e-01,5.45499e-02,-9.56778e-01,-2.87710e-02,-6.31571e-01,-5.02124e-02,5.67786e-01,-4.68216e-01,2.01728e-01,-8.86252e-01,-3.02086e-01,-3.34121e-01,4.47148e-01,-4.08484e-01,-2.26199e-01,
-3.25833e-01,2.64443e-02,1.64648e-03,-6.43717e-01,7.56380e-01,5.55429e-02,4.46924e-01,-1.63469e-01,-2.94518e-02,-1.79922e+00,-4.39263e-02,5.51308e-01,-1.81718e-01,9.01247e-01,2.65661e-01,-1.88648e-03,4.89774e-01,1.74336e+00,1.70234e-01,-1.11196e+00,5.51785e-01,1.51503e-01,3.97434e-01,5.99286e-02,-3.31702e-01,4.50298e-01,-1.41379e-03,2.49531e-01,-1.46240e+00,2.93383e-02,2.14831e-01,-5.14790e-01,1.07999e-01,-5.54466e-01,1.26171e-02,-1.11476e-01,-4.38416e-02,1.26084e+00,-3.61237e-02,4.72853e-01,-4.12590e-01,-3.22109e-01,-1.45340e-01,-4.64493e-01,6.78745e-01,-1.89533e-01,-1.01711e+00,5.27469e-01,-2.76290e-01,4.75276e-01,
6.62560e-02,-4.66582e-02,-4.01755e-03,3.28531e-02,-1.62428e-01,-2.05032e-01,4.72628e-01,-1.43922e-02,7.44377e-03,4.32393e-01,6.41772e-03,-3.53805e-01,-8.17377e-02,6.73564e-01,4.25209e-01,-2.70539e-02,6.74291e-02,-2.37333e-01,-2.15338e-01,-1.27078e-02,-2.92474e-01,-2.65407e-01,2.74098e-03,1.56403e-01,-6.66452e-02,9.41835e-02,1.97552e-01,6.34044e-03,3.95698e-01,-1.88498e-04,2.32969e-02,5.71202e-02,5.08669e-01,2.30254e-01,3.20996e-02,-6.45687e-02,2.15501e-01,1.41386e-01,2.38359e-02,2.40219e-01,-1.76457e-01,1.08014e+00,-2.71958e-01,-2.62750e-01,1.74009e-01,-6.06289e-02,8.61827e-02,4.22171e-01,-4.23412e-01,5.79296e-02,
-1.68483e-01,-3.92045e-02,-2.24338e-02,-3.33417e-01,-7.72661e-01,-1.33225e-02,4.33213e-01,3.85901e-01,6.57352e-01,-1.28431e-01,1.39662e-02,-9.59001e-02,-4.26982e-01,-2.04821e-01,-7.72919e-02,-2.33641e-02,-1.39360e+00,1.97667e-01,-1.00625e+00,4.56748e-01,3.70172e-01,-3.89785e+00,1.87349e-01,-6.66916e-01,-1.58267e-01,3.76984e-01,-1.95317e-01,-2.39780e-01,-1.14716e+00,-5.37337e-03,3.30232e-01,-2.23340e-03,7.42422e-01,-2.82583e-01,-3.37099e-02,5.94075e-01,3.67263e-01,-2.93565e-01,-1.13255e-02,3.35387e-01,2.71849e-01,9.77608e-04,-1.83031e-02,-4.33078e-01,-7.82489e-02,-8.14440e-01,4.94221e-01,5.92680e-01,-1.96690e-01,-5.32460e-03,
-3.14950e-02,-2.82798e-02,2.54367e-02,2.89703e-01,4.86059e-01,-4.88475e-02,6.01270e-01,6.51837e-01,2.29281e-01,5.56375e-01,-1.01017e-02,1.00118e+00,1.00603e-01,-9.77217e-01,8.79133e-02,-3.40018e-02,3.60202e-01,-3.03994e-01,-3.14387e-04,-4.16266e-01,2.12079e-01,-9.71966e-02,3.39731e-01,-2.44772e-01,2.39547e-01,2.89345e-01,3.19511e-02,4.90257e-01,-2.13831e-01,3.41061e-02,1.59190e-01,1.00954e+00,-1.82788e-01,3.40516e-01,-2.22728e-02,5.38189e-01,1.42841e-02,-3.83956e-01,2.87950e-02,2.03567e-01,4.94249e-01,2.92594e-01,-2.53916e-01,-4.92354e-01,-4.68964e-01,-6.96722e-02,-3.56066e-02,-1.91298e-01,5.00786e-01,3.38780e-02,
-4.47476e-01,-1.63246e-02,-2.22021e-02,3.42194e-01,3.39349e-02,-4.38589e-01,-4.06377e-01,-1.96877e-02,2.48701e-01,2.21900e-02,9.13779e-03,-8.67328e-02,-8.46917e-02,3.04458e-01,-4.09095e-01,2.04233e-02,4.34747e-02,5.79556e-01,1.11068e-02,-1.25749e-03,6.71813e-01,-5.13970e-01,-4.30640e-01,-1.65201e-01,5.07635e-02,3.88504e-01,3.53259e-01,4.09094e-01,6.75533e-01,8.74972e-03,5.12800e-01,6.54794e-01,5.07820e-01,5.34245e-01,3.84090e-02,-3.92510e-02,-4.14950e-01,5.86228e-01,-3.30366e-02,3.66014e-01,8.22093e-01,9.85397e-01,-1.26659e-01,-7.17671e-02,-3.76597e-01,-1.37974e+00,2.66092e-01,-3.28173e-01,2.75932e-01,4.87993e-01,
-8.56006e-02,-3.27916e-02,4.89774e-03,1.66477e-01,-3.65192e-01,5.01562e-02,-2.61170e-01,-2.78780e-02,1.85630e-01,-1.17034e-02,-2.82331e-02,9.32967e-02,4.46715e-02,5.69021e-02,-1.58957e-02,-7.85917e-03,1.14163e-01,2.65076e-01,2.09101e-01,3.06685e-01,-8.33956e-01,-8.88143e-04,1.75979e-01,-2.00028e-01,-2.68198e-03,-7.30312e-02,1.11089e-01,1.02818e-01,-3.75963e-03,3.66558e-03,-8.49331e-03,1.90803e-02,1.36154e-01,9.66028e-02,6.59737e-03,-1.00799e-01,1.85554e-01,8.52352e-02,1.30878e-02,1.82366e-01,1.24689e-01,2.77494e-01,3.07412e-02,9.65750e-02,-1.44507e-02,3.83271e-02,-2.71061e-02,-2.84512e-02,-3.64326e-02,-4.91030e-02,
1.99841e-02,2.50477e-02,-2.14590e-02,-4.17019e-01,-7.33048e-01,1.23599e-01,4.24206e-02,-2.34381e-01,4.04659e-03,1.49760e-01,-1.36416e-02,-1.20407e-01,-5.06227e-02,-1.14995e+00,6.28649e-01,3.34344e-02,-2.20217e-01,9.59957e-02,1.51758e-01,4.74859e-01,-2.56432e-01,-3.10856e-01,1.06368e+00,-2.48809e-01,2.34862e-01,-1.07370e-01,-1.54105e-01,2.66566e-01,-5.41400e-01,-7.43900e-03,1.06179e-01,-1.50204e-01,-6.97927e-02,1.75661e-01,-3.60277e-03,5.84074e-01,-1.49912e-01,3.78033e-01,2.56424e-02,6.03303e-01,-2.08928e-01,-6.04153e-01,3.46216e-01,-4.07629e-01,-2.55643e-01,3.28797e-01,-5.47582e-01,-3.26440e-02,1.01265e-01,-2.20628e-01,
8.33395e-02,3.66634e-03,3.43633e-02,-5.59630e-03,2.09022e-01,-2.27389e-01,-4.32916e-01,2.82894e-01,7.42631e-01,-5.57069e-02,6.26231e-03,-6.36031e-01,8.52017e-03,-1.97062e-02,1.03179e-02,-2.41575e-02,-2.55137e-01,-1.58449e-01,-2.93887e-01,3.10044e-01,2.71358e-01,-4.64242e-01,-1.53225e-01,1.31911e-01,-8.46130e-02,3.86660e-01,1.03383e-01,1.40485e-01,2.97418e-01,-4.46953e-02,3.21559e-01,2.14093e-01,-2.54000e-01,-6.70263e-02,1.40102e-02,1.84704e-01,-1.96868e-01,5.63047e-01,5.41532e-03,4.59326e-01,-6.70354e-02,4.33437e-01,3.16416e-02,-2.85372e-01,1.40375e-01,1.63914e-02,2.32149e-01,-7.69964e-02,1.45029e-01,1.56432e-01,
3.75054e-01,8.06051e-03,8.48313e-03,1.71168e-01,-3.36170e+00,-1.94493e-01,2.11813e-01,9.10312e-01,1.03359e+00,-4.18384e-01,-6.57363e-03,-2.85399e-01,2.00894e-02,-5.25973e-01,-6.84876e-01,-1.83941e-03,-1.15690e+00,-1.66414e+00,4.60308e-01,6.78683e-02,-5.15304e-01,4.87102e-01,3.53773e-01,-9.99576e-01,5.02290e-01,1.10041e+00,-9.15199e-02,3.48384e-01,-1.56655e+00,-4.80388e-02,7.04716e-01,-8.66754e-01,-2.02209e+00,-9.20176e-01,6.38720e-03,4.27235e-01,-1.71080e+00,2.43423e-01,1.41182e-02,6.52614e-01,4.51406e-01,7.64756e-02,5.18322e-01,8.52543e-01,-3.38311e-02,4.32932e-01,-8.32719e-03,1.52921e-02,1.29146e-01,5.23787e-01,
-5.56537e-02,-2.47249e-02,1.78158e-02,-5.36308e-02,-2.54027e-02,1.32806e-02,-5.12438e-03,-4.57021e-02,-3.65855e-02,1.77954e-02,-3.21668e-02,-3.35159e-02,2.48990e-02,-1.77273e-02,3.04447e-02,-3.86369e-02,1.74008e-03,-1.45970e-03,-6.27672e-02,-2.74348e-02,-7.28610e-02,4.20665e-02,-5.20032e-02,-2.02747e-02,8.17855e-03,-1.05369e-02,5.74422e-03,-1.43355e-02,1.25069e-02,4.97709e-02,-2.73024e-02,-2.17608e-02,2.70309e-02,-6.28056e-02,1.73779e-02,-4.50200e-02,2.43239e-02,9.55527e-03,-1.63432e-02,1.51985e-02,3.78329e-03,-3.16908e-02,-1.00724e-02,2.78433e-02,-5.35200e-02,1.60659e-02,2.83322e-03,-5.69089e-02,-7.60958e-03,-3.98377e-03,
-1.97662e-01,-1.76880e-02,3.98538e-02,4.47328e-01,-3.78151e-02,-8.54425e-01,1.43568e+00,-4.63300e-01,-4.47773e+00,1.86854e-01,-2.18565e-02,-1.63044e-01,-1.99767e-02,-1.31033e+00,-2.31985e-02,-1.48472e-02,1.10859e-02,-2.61683e-01,3.16054e-01,-4.20969e-01,8.76156e-01,-1.46214e-01,-6.48970e-01,-2.72423e-01,-2.03265e-02,-3.04932e-01,1.46339e-01,3.98567e-01,8.29254e-01,-1.26416e-02,-3.24494e-01,-2.82345e-01,4.46008e-01,-2.28991e-01,-4.08554e-02,-4.04732e-01,2.92271e-01,1.06332e+00,1.44551e-02,-2.92622e-01,3.73829e-01,-5.58983e-01,-8.03945e-02,1.29085e-01,-2.68878e-01,5.03979e-02,-3.60720e-01,-1.85574e-01,3.30188e-01,1.23743e+00,
-2.81585e-01,1.16990e-02,8.88502e-03,2.28226e-01,-2.24454e-01,-5.25890e-02,-5.10129e-01,-8.08654e-02,-4.05628e+00,-2.00030e-02,9.74447e-03,-6.91024e-02,-4.79981e-02,4.22147e-01,-2.47568e-01,-3.90186e-02,-2.74412e-02,6.78315e-02,1.04019e-01,-2.74774e-01,3.49714e-01,1.72125e-03,-9.77124e-02,4.99767e-02,1.37873e-01,2.68675e-01,-1.18337e-01,2.85846e-01,5.07241e-01,-3.08375e-02,5.33355e-01,-2.80456e-01,-5.23509e-01,6.38827e-02,1.52125e-02,1.30647e-01,-2.43883e-01,6.28468e-01,-3.26207e-02,1.75506e-01,3.64085e-01,-2.32781e-01,8.57734e-02,1.54519e-01,3.21094e-01,-3.89502e-01,2.72141e-01,-2.32149e-01,4.46445e-01,2.33946e-01,
-2.10893e-01,-3.44896e-02,4.71991e-02,3.19661e-01,3.95947e-01,-2.07839e-01,-3.06465e-01,-5.65748e-02,-1.92293e-01,1.79160e-01,3.36718e-02,2.66490e-01,-1.30723e-01,6.65971e-01,-3.28014e-01,-4.26967e-02,2.63943e-01,-1.41624e-01,-2.28694e-01,6.58964e-02,2.01885e-01,-1.31801e-01,-1.56888e-01,-1.93559e-01,-6.59309e-02,2.57168e-01,4.72202e-02,1.76224e-01,3.34725e-01,-3.54176e-03,6.37337e-01,-4.45152e-01,-3.30885e-02,-4.50259e-03,-3.65748e-02,-5.56943e-02,-3.89009e-01,-1.13451e+00,3.47937e-02,2.69138e-01,8.96924e-02,-4.91474e-01,1.93167e-01,-5.74670e-01,-4.46577e-01,3.44113e-02,-1.49540e-01,1.43633e-01,3.28065e-01,8.06962e-02,
2.53827e-01,-8.81029e-03,2.65455e-02,6.12933e-01,8.17300e-02,1.61671e-01,1.21253e-02,-3.42478e-02,-1.07723e+00,1.23677e-02,7.03179e-03,1.33788e-02,-4.76829e-02,4.09021e-01,2.01483e-01,-9.89340e-03,-1.56824e-01,2.02987e-01,2.82068e-01,2.06702e-01,4.42541e-01,4.83397e-01,3.91476e-01,5.51394e-02,2.58802e-02,1.51930e-01,-3.02580e-01,-6.82938e-02,-3.44226e-01,3.75493e-02,1.45591e-01,-8.21080e-01,-2.34666e-01,-8.42397e-02,-3.54511e-03,5.36467e-01,-1.02488e-01,-2.16459e-01,-3.29355e-02,3.24185e-01,-1.34785e-01,5.79087e-01,1.96624e-01,3.47896e-01,5.05596e-01,-1.72776e-01,7.10219e-02,-7.25639e-02,-3.76501e-01,3.22370e-01,
3.49560e-02,1.86496e-02,-2.13076e-02,-1.02655e+00,-2.21520e+00,-3.04303e-03,-4.71893e-02,7.85731e-02,2.10457e-02,-8.19729e-02,-2.38619e-02,-2.89993e-02,-1.84020e-02,7.00653e-01,1.56687e-01,-1.52200e-02,1.14010e-02,-1.24610e-01,-2.23853e-01,6.09279e-01,2.77299e-01,-1.68380e-01,-9.40734e-02,-6.43070e-02,-1.14516e-01,-1.21817e+00,1.14182e-01,-8.90668e-02,5.32737e-01,-4.67990e-02,-6.54363e-02,2.35462e-01,1.52769e-01,-2.42426e-01,-9.82507e-04,-8.62881e-02,2.94882e-01,-9.27134e-02,1.29745e-02,-5.70461e-02,-3.31893e-02,-2.21500e-01,-8.19625e-02,1.36732e-01,1.70673e-01,3.61663e-01,-4.01556e-01,2.91823e-02,-9.14676e-01,-3.07472e-02,
-3.74283e-01,9.93792e-03,-4.16920e-02,3.65528e-01,-3.06947e+00,-1.08878e-01,-5.45606e-01,6.98326e-01,-8.82092e+00,2.99835e-01,-2.54961e-02,1.14667e+00,-5.94641e-01,6.45691e-01,-2.17951e-01,-2.14956e-02,3.92024e-01,4.09683e-01,-4.86649e+00,2.46845e-01,-6.54898e-01,-1.24617e-01,1.66817e+00,2.42257e-01,2.08186e-01,2.93244e-01,-3.51573e-02,-4.05868e-01,-8.92916e-01,3.95410e-02,3.31095e-01,4.62364e-01,6.95384e-01,-7.44194e-01,1.28824e-02,-6.55421e-01,-5.74769e-01,1.21676e+00,-4.66862e-02,-2.74593e-01,2.86332e-01,-4.89775e-01,1.13376e+00,-6.90360e-01,6.32166e-01,7.05199e-01,1.27681e-01,1.33613e-01,2.53372e-01,9.47786e-02,
-4.58365e-01,-4.18936e-02,2.01808e-02,5.91378e-01,1.07092e-01,-3.40169e-01,3.81370e-01,4.99011e-01,-1.81150e+00,-4.24943e-01,-3.89437e-02,-4.82533e-01,-1.69677e-01,1.95322e-01,-2.43726e-01,2.87632e-02,-4.46052e-02,-5.88062e-01,-3.27956e-01,-3.91164e-01,8.02884e-01,-1.09269e-01,4.14215e-01,3.05798e-01,-2.63572e-01,1.14312e+00,2.31708e-02,-4.10392e-02,-4.93606e-01,-1.11314e-03,5.21755e-01,-9.44376e-02,4.74064e-01,1.29005e-01,1.10945e-02,-5.46746e-02,-4.56755e-01,4.62987e-01,7.70518e-04,-1.81299e-01,-1.20191e-01,3.53357e-02,-1.26044e-01,-9.77177e-02,9.61828e-01,-1.01698e+00,2.25486e-01,-1.63912e-01,5.65663e-01,9.54749e-01,
-3.10870e-01,-2.60175e-02,-1.74987e-02,7.00660e-01,8.23257e-01,-1.52096e-01,1.40147e-01,2.03654e-01,-1.90989e+00,1.64533e-01,-3.05782e-02,-6.07998e-01,2.01728e-01,6.64934e-01,3.53166e-02,3.38524e-02,-1.34801e+00,-4.34578e-01,3.26523e-01,-9.86840e-01,-9.93579e-01,-4.37463e-01,-3.29267e-01,-1.66370e-02,-1.14678e-01,-4.06781e-01,-1.72820e-01,7.67065e-02,-1.37858e+00,-8.50008e-04,-1.91315e-01,-1.52150e-01,1.57441e-01,-2.00279e-01,2.04207e-03,7.03381e-01,-4.17715e-01,5.66399e-01,-4.15613e-02,7.67994e-01,-1.72931e-01,-7.35020e-01,3.11767e-02,-6.47887e-01,1.63249e+00,7.07869e-01,5.26873e-01,-2.55619e-02,4.99574e-01,2.73855e-01,
-9.03473e-01,2.69711e-02,3.12030e-02,9.59340e-02,-4.35954e-01,-3.28662e-01,-3.08557e-01,-2.35910e-01,-5.45915e-01,1.11160e-01,1.24955e-02,-1.17249e-01,-6.52868e-01,6.86611e-01,-6.41703e-02,-2.83282e-02,-7.63547e-01,1.71200e-01,-1.43082e+00,6.87674e-01,4.43886e-01,-1.77925e-01,-4.78957e-01,-7.08392e-02,9.03013e-02,-1.53655e-01,-7.81470e-02,3.15877e-01,-8.18355e-01,4.39317e-02,-1.84179e+00,-9.68569e-01,-1.67016e-01,2.65736e-01,-3.06927e-02,1.05652e+00,5.86919e-01,1.52779e+00,7.80620e-04,-2.96609e-02,9.23649e-03,-1.87309e+00,2.42158e-01,-8.42151e-01,7.12617e-01,8.78706e-02,4.96842e-01,4.30785e-01,4.72700e-01,6.19759e-01,
-9.47003e-01,
-7.97658e-01,
-5.22507e-01,
3.32779e-01,
4.04494e-01,
5.69871e-01,
-1.05009e+00,
-9.88033e-01,
-1.39522e-01,
1.30850e+00,
8.20454e-01,
6.42141e-01,
-2.37447e-01,
4.34985e-01,
3.21314e-01,
9.35399e-02,
6.56099e-01,
9.00182e-01,
-1.63290e+00,
-2.60121e-01,
-5.16855e-01,
1.55548e-01,
4.51193e-01,
2.96955e-01,
-9.11139e-01,
1.20417e+00,
-2.81839e-01,
-4.03063e-01,
-7.38629e-01,
5.04854e-01,
3.36167e+00,
-7.13560e-01,
-5.00489e-01,
-6.69588e-01,
-2.03861e+00,
-9.77289e-01,
7.05255e-02,
-2.30401e-01,
-8.50956e-01,
