// Neural Network File Format by Kyle Julian, Stanford 2016
7,5,5,50,
5,50,50,50,50,50,50,5,
0,
0.0,-3.141593,-3.141593,100.0,0.0,
60760.0,3.141593,3.141593,1200.0,1200.0,
19791.091,0.0,0.0,650.0,600.0,7.5188840201005975,
60261.0,6.28318530718,6.28318530718,1100.0,1200.0,373.94992,
-3.03027e-01,7.22580e-03,-4.42607e-03,-1.13376e+00,-3.55291e-01,
-1.31246e+00,6.83196e-02,2.40009e-01,-1.84295e-01,-2.62666e-01,
7.15988e-02,1.49313e+00,2.20170e-01,3.89988e-01,-1.25366e-01,
3.89909e-01,7.90894e-01,-7.81115e-01,-3.68159e-01,2.63438e-01,
-5.16701e-01,1.94661e-02,5.80231e-03,2.29332e-01,-4.41882e-01,
1.35787e-02,1.65216e-03,2.76227e-02,-4.17463e-01,-4.28438e-01,
-1.47463e+00,-9.43993e-02,9.79164e-03,-1.04653e-02,5.63163e-03,
7.02107e-01,2.60515e-02,-3.35563e-01,-7.51461e-02,-1.26282e-01,
9.95230e-02,1.21675e+00,4.50214e-01,3.25365e-01,-1.93771e-01,
2.79924e-02,2.94315e+00,9.10676e-02,1.01389e-01,-5.80284e-01,
7.43347e-02,1.85410e+00,-1.81592e+00,1.55124e-01,-3.50965e-02,
-1.09122e-01,5.65210e-01,-1.78597e+00,6.67533e-02,-4.78689e-01,
7.81885e-01,1.22689e-02,-3.64746e-03,1.70002e-01,-2.76427e-01,
2.99524e-01,3.95231e-01,-1.49870e-01,2.84378e-01,4.49091e-01,
-9.90145e-02,-7.59617e-02,-3.89169e-02,-3.12559e-01,-2.24175e+00,
1.70439e-01,-2.18770e-01,1.48441e+00,-3.21812e-02,3.33142e-01,
1.11977e-01,-1.76493e-02,-3.69151e-02,-9.17287e-03,8.25988e-01,
1.34484e-01,-1.04067e+00,1.06266e+00,-1.11089e-01,6.30418e-02,
-1.03046e+00,1.04326e-01,-1.98770e-01,6.08580e-03,2.89476e-02,
-9.63435e-01,6.44468e-02,-1.88554e-01,-1.77937e-01,-1.49709e-01,
-1.48268e-01,-3.01555e-01,-3.83451e-01,2.75692e-02,-1.52555e-01,
-1.16386e-02,-2.21161e-01,2.19804e-01,-6.22228e-01,-5.60391e-02,
2.48375e-02,-2.61524e-01,1.56174e-02,-2.15982e-01,5.32877e-02,
-3.00204e-01,-9.94694e-02,-1.16680e+00,5.23988e-02,5.10953e-02,
3.88645e-02,-2.58270e-01,4.01215e-01,-2.10244e-01,1.12180e-01,
-3.57011e-02,9.06140e-01,1.37529e-01,-3.09408e-01,8.63751e-02,
7.03145e-01,-1.95943e-02,9.78223e-02,5.20955e-01,-1.07983e+00,
2.37131e-01,-5.43302e-01,7.64799e-01,2.49824e-01,-1.46413e+00,
-1.33586e+00,-2.04989e-01,1.85018e-01,1.87087e-02,-9.49638e-03,
6.94208e-02,-2.32093e+00,1.53882e-01,4.08688e-01,-8.78425e-01,
1.26030e-02,-7.25644e-02,-2.33134e+00,1.64988e-02,1.15853e-04,
-2.89759e-02,3.93534e-01,-6.06536e-01,-4.31327e-02,9.31856e-02,
-1.63205e-01,3.36316e-02,3.07009e-03,2.33072e-01,2.02404e-01,
6.84590e-01,2.05859e-02,4.41368e-02,-1.11797e+00,7.81329e-01,
1.20780e+00,8.27724e-04,6.96499e-04,9.31810e-04,-1.16444e-03,
-7.03861e-01,1.18819e-01,6.58800e-02,1.63330e-02,5.12370e-02,
-2.51231e-02,8.33102e-02,1.76528e+00,5.35677e-02,-3.30103e-03,
-7.08760e-01,-1.65686e-01,-5.06576e-01,-2.35935e-01,1.62821e-01,
-8.98491e-01,1.03209e-01,7.08218e-01,-4.74693e-01,2.08479e-01,
3.63093e-02,-2.38021e+00,-6.92800e-02,2.49331e-01,1.08012e-01,
-2.24475e-01,-7.78173e-02,4.49204e-01,3.54739e-01,-6.32643e-01,
5.19177e-01,2.62568e+00,-3.26073e-01,-4.98669e-02,9.07828e-02,
-6.04179e-02,3.22940e-01,-4.97866e-01,-5.46249e-01,-4.32439e-02,
-1.56504e-01,-5.10036e-02,2.18601e-02,-6.40614e-01,6.90436e-01,
2.28981e-01,1.23543e+00,-4.36798e-02,4.04169e-01,-8.71405e-01,
-1.34278e+00,2.78505e-02,6.73328e-04,-7.27773e-04,1.70900e-02,
-1.40280e+00,2.95656e-02,9.99451e-02,1.46839e-02,-5.24050e-02,
6.43238e-03,1.77638e-02,-1.18864e-01,-4.75808e-01,-9.52683e-03,
-2.43398e-01,1.12783e-01,-4.04890e-01,2.38048e-01,-4.64818e-01,
-1.49851e+00,-6.83416e-03,2.58615e-05,1.65251e-03,-1.97167e-03,
-5.87451e-01,
-3.14063e-01,
1.42696e-01,
3.85752e-01,
-6.36051e-02,
-1.08500e-01,
-3.89154e-01,
8.36651e-02,
-5.36310e-02,
-1.91089e-01,
-5.75788e-01,
-3.18220e-01,
2.89890e-01,
-9.28089e-02,
-9.26970e-01,
5.17801e-02,
-2.06490e-01,
5.25212e-01,
-2.24673e-01,
-1.77473e-01,
6.62040e-02,
-1.92789e-01,
4.93804e-02,
-3.23542e-02,
1.28406e-01,
1.42042e-01,
1.43154e-01,
-4.69743e-01,
-2.71209e-01,
-2.21449e-01,
3.30250e-02,
2.90743e-01,
1.23905e-01,
-4.61202e-02,
3.84201e-01,
-1.35695e-01,
2.41512e-02,
-1.63547e-01,
-2.37183e-01,
1.90817e-01,
2.61733e-02,
6.99116e-01,
-2.11486e-02,
4.49662e-02,
-1.36727e-01,
-2.00764e-01,
-3.76898e-01,
1.30662e-01,
7.66503e-03,
-4.19333e-01,
1.30541e-01,-5.82508e-02,-1.52870e-01,3.24942e-01,-1.13968e-01,-1.98544e-01,-1.70666e+00,-1.26430e-01,2.97832e-01,-8.40754e-02,-9.46777e-02,2.19838e-01,4.98079e-01,2.58124e-02,1.69594e-01,1.25641e-01,3.48219e-02,2.76031e-01,-1.04810e+00,5.03426e-02,7.11987e-01,1.79855e-01,6.43727e-02,-1.59912e-01,1.84350e-01,2.43024e-01,1.21932e-02,-1.16125e-01,-5.77913e-01,8.34194e-02,1.47182e-01,2.41281e-01,5.55110e-01,-3.06436e-01,2.67568e+00,6.81753e-02,-5.53484e-02,2.00004e-01,-2.06403e-02,2.56468e-01,6.32652e-02,2.16927e-01,-1.51331e-01,-4.23601e-02,9.88695e-02,-9.85374e-01,-4.04276e-01,2.49804e-01,-1.86024e-01,-2.55331e+00,
5.14222e-03,-1.09620e-03,9.35780e-03,-3.40092e-02,-4.07224e-02,-4.29235e-02,2.46682e-02,9.91988e-03,-2.59777e-02,-1.73621e-02,-3.01999e-02,7.88306e-03,-1.44539e-02,2.86665e-02,-1.95957e-02,-5.00381e-02,-2.13365e-02,2.30901e-02,2.08122e-02,-3.90786e-02,-1.05354e-02,6.67561e-03,3.04462e-02,-1.18834e-02,1.89006e-02,-6.42500e-02,9.86084e-04,3.44409e-02,2.82694e-02,-1.99312e-02,1.08878e-02,-3.98575e-02,-4.30414e-03,-8.71744e-03,-6.13329e-02,-1.87618e-02,-4.94457e-02,2.53706e-03,-1.79072e-02,-2.01181e-02,2.59602e-02,-7.75744e-03,3.75718e-02,2.26591e-02,-3.12373e-02,2.05027e-02,-3.31996e-02,1.99347e-02,-7.58262e-03,2.39273e-02,
5.95179e-01,-2.68920e-02,6.35592e-02,-6.65449e-01,-5.25016e-01,1.20398e+00,3.13652e-01,1.06536e+00,3.57049e-01,2.82467e-01,-9.84368e-01,2.94139e-01,-3.22987e-01,5.24062e-01,-5.69943e-01,-2.98215e-01,-1.09617e-01,3.11194e-01,-5.63601e-02,7.85596e-03,-1.08556e-01,1.55373e-01,2.84072e-01,1.38643e-01,5.84098e-01,3.46419e-01,-8.77124e-01,5.70846e-01,5.23330e-01,5.60878e-01,3.53548e-01,2.97546e-01,-9.95923e-01,-1.90180e-01,-1.43041e-01,-1.00505e-01,1.74084e-01,-1.14265e-01,-4.24718e-01,4.52134e-01,-1.78753e-01,7.50245e-01,-2.95935e-02,1.07043e+00,3.06190e-01,-1.07488e-01,-1.42325e+00,5.51750e-01,6.55736e-03,2.15292e+00,
1.76272e-01,8.89103e-02,-6.46447e-01,-9.47447e-01,-2.77804e-01,-2.61125e-01,-6.55389e-01,-3.31664e-02,-4.58961e-02,-3.95670e-01,-4.60497e-02,-8.36558e-03,1.39985e-01,-8.96376e-01,-2.11125e-01,3.75688e-01,-6.60471e-03,2.23369e-01,-1.38809e+00,6.74160e-02,-5.78727e-01,8.20313e-02,-4.14725e-01,8.15911e-01,-3.64896e-02,-2.58186e-01,-1.30309e-01,-3.19892e-01,3.89254e-02,9.75459e-02,-2.72070e+00,-9.49708e-01,-5.69750e-01,-9.25589e-03,-4.78855e-01,2.47641e-01,1.13329e+00,4.58258e-01,-6.64830e-01,1.33813e+00,1.95124e-02,-1.34142e-01,3.81973e-01,4.63456e-01,3.19744e-01,-3.20902e-01,4.26096e-01,6.73393e-01,1.86110e-01,-5.91517e-01,
4.17376e-01,-1.44354e-01,6.84110e-01,5.18553e-01,3.22181e-01,-2.71788e-01,3.46597e-01,2.79559e-02,-9.59107e-02,-5.41908e-02,1.63955e+00,-6.76388e-01,-1.24380e-01,-6.68142e-02,-1.41899e+00,-1.41198e+00,2.71987e-01,-2.08242e+00,6.09032e-02,-1.77819e-01,1.46254e-01,-1.05424e+00,-4.02104e-01,3.66218e-01,-1.23692e+00,4.85507e-01,-1.86522e-01,8.94101e-01,8.85167e-01,-1.60471e-01,6.29333e-01,5.31441e-01,-5.18144e-01,3.20148e-01,-5.14352e-02,2.55726e-01,-3.85063e+00,2.10331e-01,-7.63961e-01,-5.51417e-01,5.56796e-03,6.09803e-01,-9.93290e-02,-9.54004e-02,-4.05729e-01,3.77736e-01,-1.45052e-02,-3.74223e-02,3.84175e-01,4.49287e-01,
-1.56111e+00,-7.05490e-01,1.32571e+00,-3.02765e-01,2.47573e-01,1.29574e+00,9.22442e-01,-5.84448e-01,-2.83638e-01,-6.88225e-01,7.51768e-01,-4.26976e-01,1.99102e-02,-9.02818e-02,5.26898e-01,-3.43446e-01,4.00033e-01,-2.01779e-02,-4.99334e-01,-8.75580e-01,1.00831e+00,-7.78810e-02,8.63581e-01,-6.24594e-02,2.04843e+00,-8.10658e-01,-5.73625e-01,-7.60262e-01,3.45373e-01,2.10516e-01,2.14047e-01,1.43241e+00,-9.76186e-01,-3.89812e-01,5.07376e-01,-4.29323e-01,1.92823e-01,-1.38437e+00,-5.85035e-01,2.10195e-01,8.87729e-01,-4.75335e-01,-4.95524e-01,-2.91569e-01,5.69381e-01,1.08093e-01,-5.09712e-01,-1.80450e+00,-1.26854e-03,9.82999e-01,
5.51468e-01,6.42849e-02,-1.28660e-01,-4.24018e-01,2.00943e-01,8.61144e-01,3.07881e-01,2.33320e-01,-1.77493e-02,5.67085e-01,-1.36093e-01,-1.32369e-02,-2.69322e-01,-3.14788e-02,1.37007e+00,-3.35942e-01,-9.81608e+00,2.29226e-01,-1.28873e-01,-1.02796e-02,2.63560e-02,-5.14253e-01,3.85671e-01,4.87873e-02,-3.83723e-01,-1.39364e-01,4.35616e-01,-1.50234e-01,-1.33992e-01,4.91791e-01,9.08018e-03,3.87349e-01,-1.47641e+00,-1.87477e-02,1.47833e-01,1.47836e-01,4.48196e-02,-1.57694e-01,1.36967e-01,-6.31910e-01,-3.24153e-03,-3.62117e-01,2.50836e-01,-7.13152e-01,-2.28992e-01,1.74803e-01,6.73412e-01,3.44886e-01,1.82245e-01,-3.19967e-01,
-8.70871e-02,3.62419e-01,-5.43707e-01,-1.19362e+00,-3.13187e-01,-2.02662e-01,-3.95947e-01,3.16800e-01,4.15670e-01,5.29992e-02,8.64840e-01,6.69504e-01,5.58543e-01,4.75357e-01,-2.15082e-01,8.70816e-02,-7.12034e-02,1.35819e-02,4.79041e-01,-4.70219e-01,3.78247e-01,7.75310e-02,-1.04584e-01,-3.29498e-01,1.78305e-01,-1.08491e+00,4.19982e-02,-7.45893e-01,5.40863e-01,-6.45488e-02,1.02428e+00,-8.12744e-01,-2.51051e-01,3.07514e-01,3.57394e-01,1.35484e-01,4.88169e-01,5.78780e-01,1.63436e-01,-4.12080e-02,2.04400e-01,-4.13317e-01,5.42477e-01,5.92669e-01,4.50595e-01,2.90613e-01,2.97504e-01,3.57652e-02,-1.14862e+00,7.94023e-01,
-4.17914e-01,-2.82916e-01,3.83343e-02,8.38945e-01,2.60313e-02,-5.66181e-01,1.80670e+00,3.16415e-01,5.39126e-01,4.48140e-01,-3.26448e-01,4.49767e-01,3.72855e-01,-6.66200e-02,2.26603e-01,-3.48417e-01,3.34390e-01,4.05209e-01,1.04208e+00,-5.94308e-02,1.76813e+00,8.14100e-01,7.78004e-01,-3.72349e-02,2.31400e-01,4.75210e-01,1.41338e-01,-1.24112e-01,-4.23660e-01,2.98700e-01,-7.16290e-01,3.18562e-01,-7.78612e-02,-1.03141e-01,2.30369e+00,6.19837e-02,1.04720e-01,9.86212e-01,5.49445e-01,4.95979e-01,-8.06905e-02,2.33624e-01,-4.15485e-01,-5.52217e-01,-1.14114e-01,5.04543e-02,-4.79874e-01,-9.53066e-01,-5.44939e-01,-1.79711e+00,
3.98997e-01,-9.57417e-02,-2.51256e-01,-9.48774e-01,9.68190e-02,-2.11686e-01,9.28211e-02,-1.61274e-02,-4.20082e-01,-1.60335e-01,1.78174e-01,7.80693e-02,6.03464e-02,-2.52768e-01,-6.92098e-01,9.68805e-01,6.86051e-02,8.91513e-01,-1.12627e+00,1.96026e-01,8.60645e-01,4.39566e-01,-4.08869e-01,-3.12652e+00,2.68385e-01,-6.74893e-01,1.17638e-01,-5.35874e-01,2.85489e-01,-3.15650e-01,-3.02059e-01,-3.27280e+00,4.93765e-01,3.30641e-01,2.93632e-01,-1.92823e-01,8.46828e-01,5.62095e-01,-9.35230e-02,5.11590e-01,-7.74910e-02,-6.80966e-01,-1.02963e+00,-1.37608e-01,-5.03683e-02,-1.60666e-01,4.29887e-02,1.29730e-02,-9.01792e-01,9.52829e-02,
1.59048e-01,4.94906e-02,7.06017e-01,1.05014e+00,1.18066e-01,2.00274e-01,-1.05891e+00,1.37384e-01,-5.21274e-01,-4.70368e-01,1.78051e+00,1.48971e+00,9.07515e-02,-3.15500e-01,1.32313e+00,1.07209e+00,5.23428e-01,4.64123e-01,1.19028e+00,4.92874e-01,-6.39974e-01,-8.53648e-01,1.03791e-01,4.37307e-01,-2.82147e-01,-9.55942e-01,1.93620e-01,-9.66033e-02,4.69957e-01,1.70660e-01,6.06240e-01,-8.56929e-02,9.16011e-02,-2.31871e-01,-5.04936e-01,-4.29144e-01,3.86223e-02,5.61286e-01,-1.96160e-01,-9.16810e-01,1.23217e+00,3.91439e-01,-2.74131e-01,8.91114e-03,-5.93491e-01,-9.63129e-01,1.82703e+00,-3.68557e-01,-6.93041e-01,-1.75188e+00,
1.40332e-04,-4.64652e-03,-2.50966e-02,-3.63752e-02,-2.46971e-02,2.03727e-02,-2.08804e-02,-8.56581e-03,-2.90309e-02,-3.34710e-02,1.68902e-02,3.63140e-02,2.23642e-02,6.31470e-03,-2.44962e-04,-7.90639e-03,-4.76849e-02,1.82444e-02,-5.51463e-02,-4.29009e-02,-3.30745e-02,-4.69306e-02,1.69227e-02,-3.86860e-02,-1.25609e-02,-3.05288e-02,-4.84122e-04,1.55046e-02,1.17773e-02,3.48738e-02,-7.22860e-03,-4.58155e-02,-1.98029e-02,-3.10907e-02,-1.46470e-02,9.58739e-03,-4.96569e-02,1.09280e-02,1.91129e-02,-4.50374e-02,-2.25511e-02,-3.93499e-02,8.76180e-03,2.91320e-02,-4.21003e-02,2.68746e-02,4.09973e-04,2.07871e-02,-5.40485e-02,3.84674e-02,
-8.73777e-01,8.01406e-01,-3.34169e-01,2.27540e-01,-1.44458e-01,1.09021e+00,-4.44201e-01,-7.79527e-01,2.55459e-01,-3.82934e-04,-1.77915e+00,6.60514e-01,1.98969e-01,2.82211e-01,1.85254e+00,-2.15474e-03,-2.00426e+00,2.29978e-02,-6.53426e-01,-9.45461e-02,-1.07400e-01,7.63949e-01,7.72994e-01,-1.50990e-01,6.19864e-01,-6.63724e-01,8.89056e-01,3.75896e-01,-8.48855e-01,8.68300e-01,-4.12003e-01,2.05586e-01,-1.88326e+00,2.79719e+00,-1.15515e+00,-6.49736e-01,-1.02739e+00,5.84312e-01,-2.62692e-01,-8.48541e-01,5.00625e-02,5.71189e-01,2.82436e-01,-3.38941e+00,8.37389e-01,-3.51311e-02,-3.29887e-01,-1.84840e+00,8.36899e-02,-1.82650e+00,
9.79329e-01,7.49293e-01,2.70486e-01,-5.22593e-01,-4.03939e-01,3.00952e-01,1.30993e+00,2.34802e+00,4.15383e-01,-6.25226e-01,8.53520e-01,-1.29796e+00,-1.22838e+00,-2.29939e+00,1.19881e+00,-1.37033e-02,-9.77837e-01,1.25034e-01,1.10970e+00,-4.58068e-02,1.84286e-02,5.37280e-01,3.10905e-01,1.15579e+00,3.30051e-01,-5.53341e-01,2.15650e-01,5.84133e-01,-1.27969e-01,-1.03424e-01,1.06734e-01,2.09349e-02,-9.70306e-01,-5.07868e-01,-7.17438e+00,-4.71272e-02,3.49493e-01,4.74509e-01,6.48126e-01,-1.76386e-01,-5.74079e-01,1.64545e-01,1.93081e-01,-3.45117e-01,3.85104e-01,-9.58825e-02,9.50052e-01,-6.81479e-01,-4.23258e-01,1.67885e+00,
-3.72855e-01,-1.02424e-02,2.54246e-01,3.58417e-01,1.47553e-01,4.66598e-01,4.25111e-01,1.36195e-01,-2.23800e-01,2.46850e-02,-1.95604e+00,-5.08631e-02,1.40067e-01,-4.19247e-01,6.54618e-01,5.60523e-02,3.41778e-01,-4.58470e-01,1.47456e-01,1.96384e-01,-6.93841e-02,5.17440e-01,-9.08111e-01,7.32533e-01,1.05692e-01,-1.41422e-01,5.00270e-01,3.85818e-01,-1.48932e-01,-2.62079e-01,-7.76638e-02,7.05551e-01,-3.28317e-01,-1.78029e-02,6.94335e-01,1.69537e-01,-9.72312e-01,-4.22450e-02,-3.64289e-01,-5.60559e-01,1.30032e-01,1.70809e-01,-1.21873e-01,-3.82641e-01,-1.02444e-02,1.13948e+00,-9.93943e-02,-3.57536e-02,-3.01150e-01,1.13661e+00,
-1.57056e-01,-3.39545e-01,-1.57383e-01,-2.54699e-02,4.62193e-01,5.31511e-01,-1.66331e+00,2.88560e-01,1.55544e-01,3.07067e-01,-2.81918e-01,1.02846e+00,-7.07613e-01,-2.56775e-01,-7.28631e-01,-1.35009e-01,-3.01409e-02,-2.01248e-01,-2.72432e-01,4.01897e-01,4.29801e-01,2.86781e-01,1.31409e-01,-7.01675e-01,2.85295e-01,-1.06400e-01,-6.96496e-01,-5.33162e-01,-6.94115e-01,-2.83729e-01,-1.03583e+00,3.70232e-01,1.34831e+00,-1.15682e+00,1.03229e+00,-2.23940e-01,-3.09292e+00,3.67452e-01,3.27633e-01,2.18002e-01,8.67248e-01,-7.83062e-02,-7.43494e-01,-2.63334e-02,3.44661e-02,-5.96772e-01,1.45474e+00,4.17607e-01,5.49013e-01,9.36860e-01,
8.36842e-01,1.65668e-01,-1.57363e-01,-3.94999e-01,4.39156e-02,2.01141e-01,1.64695e+00,2.11380e+00,9.65239e-02,1.21447e-01,1.21216e+00,-4.36996e-01,-3.38864e-01,1.66505e-01,2.30411e-01,-7.06559e-01,9.16041e-01,-1.72433e-01,2.84588e-01,-3.92213e-03,1.98777e-01,-6.54247e-01,2.07747e-01,1.39594e-01,1.38451e-01,6.71633e-01,-1.15493e-01,-5.30855e-02,4.06572e-01,2.71843e-01,1.57418e-01,-6.27552e-01,-3.22795e-01,-3.13307e-01,-3.89523e+00,3.97930e-01,-2.66280e-01,4.60399e-01,6.18027e-01,3.73230e-01,-1.87841e-01,-8.45377e-02,-6.94747e-01,4.54228e-01,-4.47578e-01,7.61140e-01,1.17833e+00,-5.30265e-01,5.60897e-01,2.79310e+00,
2.46507e-02,-6.19949e-02,2.74765e-01,-6.90097e-01,1.30238e+00,8.49164e-01,-7.41175e-01,6.57174e-01,-4.53778e-01,8.24605e-01,-1.70348e+00,5.73562e-01,-8.05517e-01,1.76501e-01,1.93292e-01,3.85306e-01,4.13878e-01,-2.37111e-01,-7.59766e-01,2.94729e-01,-2.60099e-01,-1.67157e+00,-4.22129e-01,-1.53772e-02,4.17246e-01,1.24086e-01,8.94197e-01,-1.25648e+00,1.79731e-01,-2.28070e+00,-9.13822e-02,1.28073e-01,-2.06366e-01,-2.29586e-01,2.23408e-01,-9.57062e-01,1.45480e-01,-8.58629e-01,-1.44241e-01,-1.42469e+00,5.21286e-01,4.62628e-01,-1.36699e+00,-1.03071e-01,3.41374e-01,-8.70592e-01,-3.27340e-01,-7.27859e-01,1.68080e+00,-8.86622e-01,
-1.66944e-02,-2.41427e-01,3.63388e-01,-5.57464e-03,-7.42564e-01,2.45092e-01,3.86099e-01,8.93516e-01,4.26945e-01,8.08513e-02,-1.07144e+00,1.02546e+00,4.76844e-01,5.57386e-02,3.77872e-01,7.81920e-02,3.77335e-01,6.94194e-01,-7.68869e-01,-2.55874e-01,-1.92603e-01,1.88721e-01,4.22653e-01,-1.05752e-01,2.22798e-01,5.32141e-01,3.63765e-01,5.07362e-01,1.53538e-02,4.64623e-01,3.66606e-02,-5.80048e-01,2.44486e-01,2.72938e-01,2.75920e-01,1.44192e-01,-1.44110e+00,2.27256e-01,-1.75067e-01,-1.01221e+00,-3.15813e-01,1.49584e-01,-7.26794e-02,-5.78333e-01,5.36574e-02,-1.23635e+00,-9.13393e-01,-7.60332e-01,-2.37750e-01,-5.45871e-01,
-4.42388e-03,1.33324e-02,-1.53552e-02,2.25992e-04,-3.52526e-02,-4.28297e-02,-3.49813e-02,-2.76445e-02,-2.29948e-03,4.00239e-02,-3.42174e-02,-2.75828e-02,-1.88859e-03,-3.89144e-02,2.80364e-02,-1.93737e-02,2.30714e-02,1.34576e-03,2.91785e-02,-2.31346e-02,-4.60377e-02,3.61744e-02,3.80563e-02,4.35828e-03,-3.00497e-02,2.61589e-02,-4.43701e-02,2.90320e-02,-4.05381e-03,3.21009e-03,-4.66288e-02,-4.05781e-02,1.00809e-02,2.41672e-02,3.21861e-03,1.35585e-02,4.29543e-03,4.60909e-02,-4.23319e-02,-5.16188e-02,4.52648e-02,-3.71720e-02,-5.41771e-03,-3.30131e-02,-2.59882e-02,7.87668e-03,-2.95707e-02,4.39067e-02,-5.10495e-02,-5.09590e-02,
4.26501e-01,-8.28406e-01,-1.88564e-01,1.21581e+00,3.26215e-01,4.20086e-01,1.14120e+00,-2.89033e-01,-3.83829e-01,2.71461e-01,-1.72520e+00,-1.74485e-01,2.53160e-02,1.59719e-01,-2.68813e-02,2.06187e+00,5.90675e-01,-7.62201e-01,4.10746e-01,-3.20965e-01,-9.56691e-01,-7.20581e-01,-2.88571e-01,-4.85845e-01,-2.60957e+00,3.76255e-01,7.32717e-01,-7.70061e-01,-3.62111e-01,-3.94481e-01,-4.90128e-01,2.29194e-01,-6.38517e-01,-4.58028e+00,-1.57050e+00,1.96464e-01,-1.83568e-01,-1.21244e+00,-2.39297e+00,-3.12765e-01,9.52321e-01,3.47458e-01,1.37006e+00,-2.13226e+00,4.85906e-01,1.25020e-01,4.68319e-01,-8.73387e-01,-1.75533e-01,1.26573e+00,
-2.34320e-02,8.06996e-03,-7.33523e-02,-3.54123e-02,-5.37334e-03,3.43243e-03,6.27973e-03,-3.21304e-02,-3.64674e-02,-4.49931e-02,-3.87621e-02,7.11108e-03,-4.03515e-02,5.52733e-03,9.49768e-03,4.62991e-02,-6.38983e-02,-4.45759e-02,2.06160e-02,-3.97670e-02,-5.14364e-02,-4.89731e-03,-3.47091e-02,3.33687e-02,1.94139e-02,-2.89138e-02,-2.45048e-02,-2.37657e-02,-3.20938e-02,-1.87725e-02,2.66604e-02,1.25859e-02,-3.31895e-02,-5.18799e-02,-1.07981e-02,-2.94937e-02,7.05895e-03,1.53608e-02,7.20261e-03,7.50665e-03,1.36965e-02,-3.79963e-03,-5.43163e-02,-3.08090e-03,-8.55242e-03,-4.88838e-02,-4.74050e-02,-1.18033e-02,2.50686e-02,2.60519e-02,
2.12310e+00,-3.28908e-02,7.54027e-01,-3.15440e-01,-2.40772e-01,6.73028e-01,8.58812e-03,9.32720e-01,-2.31248e-01,-1.85267e-01,1.83987e-01,-4.07439e-01,-4.19330e-01,6.89894e-01,2.19909e+00,6.97071e-01,3.77929e-01,-2.48332e-01,-5.20348e-01,4.39602e-01,1.58897e-01,6.29474e-01,5.25492e-01,-3.75411e-02,-8.42332e-01,-2.69150e-01,-4.65431e-01,3.83279e-04,1.29396e-02,1.50831e-01,2.89528e-01,-4.40754e-01,2.86011e-01,4.80970e-01,-5.47373e-01,-1.55591e-01,4.52048e-01,-4.36906e-01,-3.73642e-01,-5.07575e-01,-2.84968e-01,-1.20386e-01,5.86662e-01,1.68019e-01,4.70401e-01,-7.14659e-02,-4.56314e-02,4.04550e-01,2.89002e-01,3.18431e-01,
-7.19702e-01,-3.51233e-01,-3.09979e-01,1.18883e-01,-8.97269e-02,-1.07543e-01,3.11680e-01,-1.38336e-01,-8.29709e-01,-2.12762e+00,-3.39569e+00,-1.14491e+00,9.04357e-02,-5.72095e-01,7.26229e-01,4.25007e-01,3.43325e-01,-4.58032e-01,5.54221e-01,5.42321e-01,-7.97316e-03,3.84665e-01,-3.57750e-01,1.95306e-01,1.17319e-01,-7.13772e-02,4.58432e-01,7.00408e-01,1.03324e-01,5.30678e-01,1.12915e+00,7.50353e-01,-2.86464e-01,5.59598e-02,1.64764e-01,-8.08893e-01,3.54569e-02,2.66582e-02,-2.31196e-01,-2.74482e-03,2.15216e-01,-4.83688e-01,-2.94613e-01,-5.32528e-01,-8.84690e-01,-2.90719e-01,-1.05433e+00,-2.74410e-01,5.28416e-01,-3.69154e-01,
-3.46681e-01,-2.73741e-01,2.10557e-01,7.73111e-02,-3.02549e-01,-3.21304e-02,-1.02112e+00,-3.39037e-01,-3.55265e-01,3.75724e-01,-6.62590e-01,1.19885e-01,5.41227e-01,-5.19673e-01,-1.65702e-02,1.46674e+00,-5.11882e-02,-2.10021e-02,-3.49184e-01,1.67959e-01,8.53971e-02,4.39942e-01,-1.99830e-01,-5.36018e-01,1.98642e-01,-2.80143e-01,-1.84698e-01,1.02647e-01,3.73549e-01,-2.30700e-02,4.20029e-01,-3.50369e-01,2.04454e-01,-2.71015e-01,-3.25622e-01,-2.42470e-01,3.25018e-01,-4.04253e-01,-2.13919e-01,-3.22044e-01,-1.56387e-01,-2.78402e-02,-1.51600e-01,-9.95944e-02,3.88206e-01,1.51975e-01,-1.31690e+00,1.63130e-01,1.90560e-01,9.73777e-01,
2.73702e-02,-3.28539e-01,8.29229e-01,4.66283e-01,-8.91045e-01,5.69128e-02,1.14067e+00,6.27064e-01,7.79105e-01,2.66977e-01,-4.70486e-01,-7.10361e-01,-5.39314e-02,4.58723e-01,-5.89647e-01,-1.21788e+00,8.01489e-02,-9.46486e-02,-3.64105e-01,-6.78812e-01,1.13163e+00,5.69125e-01,8.52608e-01,-1.05867e+00,5.08684e-02,2.82083e-01,-3.32321e-01,5.46824e-01,8.13765e-01,-1.12447e-01,-3.04901e+00,1.15697e-01,-1.25227e-01,-1.66775e-01,1.82273e-01,3.57579e-01,-1.04803e-01,-1.10041e+00,1.03005e+00,1.14598e+00,1.83581e-01,3.38948e-01,-2.35217e-02,-1.65826e-01,-1.06273e+00,-4.02928e-01,9.59234e-01,2.60789e-01,-1.15170e+00,-8.08528e-01,
3.81216e-02,-2.93828e-01,-2.04352e-01,1.55971e-01,3.69827e-01,-1.08142e+00,1.33493e+00,-2.59515e-01,3.53962e-01,-1.04192e-01,1.15605e-01,-1.66672e-02,-7.92295e-02,5.42748e-01,-6.13551e-02,-1.62423e-01,2.46989e-01,3.75869e-01,-7.03577e-01,6.67551e-01,1.01554e+00,-4.40418e-01,1.25939e+00,2.00002e-01,-2.23966e-01,1.57346e-01,-3.77972e-01,-3.29545e-01,1.01390e-01,-2.57586e-01,6.42290e-01,-4.46960e-01,-1.95779e+00,2.32181e-01,3.04735e-01,2.29921e-01,8.82722e-01,-1.25051e-01,-5.32938e-01,-4.42475e-01,2.97595e-01,-2.23793e-01,2.86176e-01,3.59932e-01,-3.11710e-01,3.06395e-01,3.06685e-01,-1.73363e-01,9.02936e-01,2.33831e-01,
-3.70815e-02,2.22850e-01,-8.53500e-02,1.46575e-01,-1.88654e-02,8.89014e-02,1.77831e+00,-3.52970e-01,1.04063e-01,-1.20273e-02,6.48744e-02,3.75529e-02,1.39027e-01,1.93219e-02,2.33618e-03,8.67438e-02,6.46495e-02,4.11422e-02,-1.34767e-01,2.27152e-01,1.38875e-01,9.05092e-02,-2.80418e-01,-1.56530e-01,1.61751e-02,2.32927e-02,6.80175e-02,7.93819e-02,7.85155e-01,-2.84816e-02,-1.94110e-03,6.91642e-02,2.84723e-01,-5.77730e-02,-6.98276e+00,1.21741e-01,-6.40206e-02,9.02060e-02,-2.48630e-01,-6.19792e-03,-1.97847e-02,6.54134e-02,1.31454e-02,8.48315e-02,-9.13707e-02,2.70812e-01,9.38772e-01,1.30125e-02,1.40981e-01,2.18692e+00,
1.60747e-01,6.65614e-02,4.61049e-02,-8.42127e-02,-2.12626e-02,-1.93342e-03,2.66527e-01,9.21273e-02,1.13529e-01,9.36979e-02,2.12240e-01,-4.28459e-02,-9.34446e-02,-1.64923e-01,1.13640e-01,-2.81900e-04,-3.83920e-01,-2.20772e-02,8.08862e-02,-2.07107e-02,5.29382e-02,-3.59269e-02,-3.74810e-01,-1.73030e-01,-6.03610e-02,9.64716e-03,5.35501e-02,4.25750e-01,-6.97786e-02,-3.11417e-01,-1.40498e-01,-3.70498e-02,-1.10643e-01,-1.37238e-01,-3.85050e-01,-7.05350e-02,3.59744e-02,-6.12672e-02,7.58265e-03,-3.54111e-01,1.77922e-02,-1.64837e-02,1.01573e-01,1.66911e-01,1.76099e-01,-1.16298e-01,6.52521e-02,-1.01671e-01,6.52964e-02,2.55048e-01,
2.03165e-02,1.99474e-02,2.59884e-02,-5.95355e-02,-3.95144e-02,2.71861e-02,-1.84600e-02,1.56161e-02,-4.11196e-02,2.94735e-02,-3.68087e-02,1.01161e-02,-8.49617e-03,-4.58642e-03,-2.26116e-02,-5.29760e-03,3.42254e-02,2.97382e-02,-3.64185e-04,3.45955e-02,-4.66037e-02,-2.68035e-02,-1.03569e-03,-4.35873e-02,2.18565e-02,-8.61149e-03,-4.20709e-02,-4.00146e-02,-1.92482e-02,-2.89205e-02,-2.18182e-02,-2.77814e-02,2.42708e-02,1.86677e-02,-1.11632e-02,3.67200e-02,-3.03230e-02,1.81064e-02,-5.52859e-02,-5.11424e-02,-3.10760e-02,7.28451e-03,-3.83043e-02,2.90596e-03,1.57598e-02,-2.75855e-02,-1.01906e-02,2.71332e-02,-3.31842e-02,-4.67824e-02,
1.95645e+00,-4.72112e-01,2.84083e-01,2.13538e-01,-1.20504e-01,8.19036e-01,-1.37632e+00,-7.78415e-02,1.11482e+00,1.81300e-01,-7.52715e-01,8.21514e-01,-3.82418e-02,5.14557e-01,-1.16856e+00,1.10278e+00,-9.88936e-01,-1.50041e+00,3.96745e-01,3.59234e-01,-1.15952e+00,6.24244e-02,1.28083e+00,4.75660e-01,2.60426e+00,3.79145e-01,-1.85186e+00,3.12643e+00,-2.81437e-01,4.92306e-01,-3.51295e-01,-2.44480e-01,-4.02992e-01,1.01160e-01,-3.20505e-01,1.79168e-01,-1.64699e+00,-4.04309e-01,7.77638e-01,9.61920e-01,-3.22258e+00,2.12971e-01,9.83759e-01,3.26683e-01,3.30858e-01,-7.59530e-01,-1.19740e+00,2.49430e-01,-1.34495e+00,2.23831e+00,
1.04404e+00,-8.22359e-02,-4.99789e-02,-7.74099e-01,1.00937e+00,1.75363e-01,-9.70453e-01,6.98807e-01,-8.92547e-01,-1.58893e+00,-2.01944e-01,-2.37784e-01,-8.48684e-01,-4.84220e-01,7.38804e-01,7.62607e-01,-1.59010e-01,-1.60238e+00,-2.03438e-01,9.11360e-03,-3.00763e-01,-4.60010e-01,9.62546e-01,2.73182e-01,-1.48130e+00,-1.23580e-01,-4.98064e-02,-6.55940e-01,-1.66368e-01,-7.47072e-01,3.09853e-01,1.62833e-01,1.75860e-01,-2.72900e-01,1.04927e+00,3.32863e-01,7.97628e-01,1.87250e-01,-7.39044e-01,1.38028e+00,-5.05871e-01,-4.40689e-01,5.45873e-01,8.51875e-01,-1.20942e-02,-4.34132e-01,1.95286e+00,-8.84625e-01,8.19511e-01,-7.04163e-02,
2.97687e-01,-9.14970e-02,3.35143e-01,2.56512e-01,-6.07045e-01,-1.73927e-01,7.38283e-01,-3.03392e-01,6.12443e-02,-1.84455e-01,8.60491e-02,-2.02473e-01,5.84072e-01,1.44891e-01,-4.94356e-01,-1.54906e-01,-1.78061e-01,-8.08037e-01,4.91286e-01,3.12061e-02,-2.94265e-01,-3.74578e-01,2.31182e-01,3.08710e-01,-4.38206e-02,2.56105e-01,-1.78147e-01,3.72257e-02,-2.25651e-02,1.73396e-01,4.75407e-01,3.38849e-01,8.70929e-01,-9.23322e-02,-2.62257e-01,4.36610e-02,-1.22988e+00,3.67954e-02,-1.26853e-01,-4.58047e-01,3.63903e-01,2.39492e-01,3.53434e-01,1.93273e-02,-2.35351e-01,2.56213e-01,4.73866e-01,1.29374e-01,-1.46953e-01,1.19677e+00,
-6.99446e-03,-3.56151e-02,-3.17677e-02,1.34099e-03,-3.22619e-02,1.22718e-02,-2.26134e-02,9.14001e-03,-3.28601e-02,-5.07603e-02,3.06566e-02,-6.94592e-03,-1.09111e-02,-1.13963e-02,1.82505e-02,-4.28989e-02,-2.57230e-03,-3.74835e-02,2.87758e-02,-8.63349e-03,1.10382e-02,-5.47049e-03,-3.04603e-02,1.23735e-02,-5.02642e-02,-4.73451e-02,1.96314e-03,-2.83089e-02,-4.71987e-02,-1.56391e-02,1.58152e-03,2.94738e-02,-4.06901e-02,-3.17915e-02,-1.23076e-02,3.33609e-02,-4.23120e-02,-1.89928e-02,7.59703e-03,2.42991e-02,2.04558e-02,-2.71382e-02,3.26312e-02,-2.24433e-02,-2.19807e-03,-2.60869e-02,-4.33565e-02,-1.86622e-02,-3.87637e-02,2.45159e-02,
4.89857e-02,2.73641e-01,-3.04655e-01,1.07189e-01,-3.44156e-01,2.39756e-01,-8.77323e-01,-7.04756e-01,2.94238e-01,-1.52731e-01,9.76095e-01,-8.98807e-01,4.00316e-01,7.44710e-01,-2.28122e-01,-1.13487e+00,-5.85360e-02,7.85664e-02,-2.18266e-01,-3.35812e-01,2.25393e-02,1.91697e-01,-2.00895e-01,1.04680e+00,5.88246e-02,1.91787e-01,3.16247e-01,1.20438e-02,-2.46388e-01,-1.99535e-01,5.72240e-01,4.61186e-01,-3.67083e-01,3.24837e-01,3.15107e-01,-8.01619e-02,-7.93751e-01,3.92154e-02,-1.75821e-01,1.94588e-01,2.76009e-01,-3.64046e-01,-1.64235e-02,-2.37022e-02,1.84001e-02,-2.81526e-01,-7.69486e-01,-5.48202e-01,-2.71425e-01,-2.39647e+00,
3.62967e-01,3.79396e-01,1.03830e+00,-1.61048e-01,-9.90801e-01,-1.66391e-01,5.15380e-01,-1.01010e+00,1.24772e+00,3.77419e-01,2.47390e+00,1.22090e+00,6.49417e-01,1.65328e-01,-8.47594e-01,1.93851e-01,-4.44254e-01,-2.48497e-01,-2.08645e-01,1.00044e-01,-6.38103e-01,4.25451e-01,7.53498e-02,-1.28700e+00,2.31541e-01,-1.32170e-01,-3.02576e-01,-8.24435e-01,2.10652e-03,-3.43553e-01,-8.38828e-01,5.69255e-01,1.00037e+00,-1.36249e-01,3.90182e-01,8.76595e-01,-6.74635e-01,1.28502e-01,5.12676e-01,-1.03462e+00,-5.25140e-01,1.35154e+00,9.25581e-03,3.27215e-01,1.07667e+00,-1.25516e-01,-3.83169e-01,6.10136e-01,-1.42742e+00,-7.13312e-01,
1.37835e-01,-4.44259e-01,6.39799e-02,1.37871e-01,4.64144e-01,-3.07793e-01,1.55425e+00,-9.58635e-01,1.39501e-01,3.07873e-01,1.25711e-01,6.03533e-03,-3.97323e-01,2.62875e-01,3.61323e-01,-8.82154e-02,-9.26109e-02,1.40814e-01,7.01778e-02,-1.01295e-01,-2.83852e-02,-1.79617e-01,1.03652e-01,2.96338e-01,-2.09994e-01,1.35074e-01,1.53869e-01,-2.15306e-01,5.72900e-01,1.65243e-01,7.37617e-01,3.00667e-01,3.88700e-02,-5.80180e-02,-1.03839e+01,3.88773e-01,-8.63706e-02,1.52789e-01,6.33129e-01,3.78445e-02,1.35299e-01,1.07967e-01,-1.01963e-01,-1.88228e-01,2.56764e-01,4.78710e-01,8.85912e-01,1.46176e-01,-2.81746e-01,2.15799e+00,
-2.39889e-01,-1.00941e-01,2.05337e-01,3.01143e-01,3.13592e-01,-3.98980e-01,-8.87081e-01,-5.05121e-01,-2.33622e-01,2.09976e-01,-2.92107e-01,-1.63256e-01,-4.64924e-02,-4.17983e-01,-3.79403e-01,2.45152e-01,-2.57344e-01,-1.24058e-01,7.52518e-01,5.59700e-01,1.10104e-01,2.81853e-01,-5.42372e-01,-2.10108e-02,3.07793e-01,-9.67538e-01,3.95704e-02,7.59311e-01,-5.21690e-01,-2.11116e-01,1.64691e-01,7.17550e-01,8.10694e-02,-5.76148e-01,7.19681e-01,-3.67911e-02,-4.30455e-01,1.07003e-01,1.93152e-01,9.68618e-02,-2.46997e-01,-2.83633e-01,3.18833e-01,3.70380e-01,-5.81692e-01,-2.26669e-01,-7.27009e-01,5.20821e-01,2.29842e-02,-4.86002e-01,
-8.82711e-01,-3.16624e-01,-2.13278e-01,1.94335e-01,8.75320e-01,-9.14282e-02,-2.35747e+00,-7.72701e-01,-1.30907e-01,2.50059e-01,-1.88161e-01,-3.08390e-02,7.98032e-02,-1.12048e-01,5.91067e-01,-2.35121e-01,-1.29300e-01,8.42736e-02,-2.77856e-01,1.85823e-01,-3.72721e-02,-5.57439e-01,-1.31692e-01,9.49762e-03,-6.83560e-03,-1.16232e-01,4.54175e-01,-1.16489e-01,1.15414e-01,1.43190e-01,3.95541e-03,6.96673e-01,7.21370e-02,-3.38917e-01,3.52375e-01,-1.70136e-01,3.73298e-01,3.21392e-01,2.91670e-01,-4.56415e-01,2.99789e-01,-3.98514e-01,-7.31156e-02,1.65218e-01,1.26287e-01,4.73486e-01,6.87175e-01,-5.15858e-01,4.33185e-01,-8.18098e-01,
1.04368e+00,-7.07696e-01,-1.57204e-01,5.46131e-01,2.17979e-01,7.47646e-02,-2.32556e-01,1.39024e+00,1.06619e+00,-6.90196e-02,-1.88304e+00,-2.10418e-02,-9.63640e-02,-2.28686e-02,-1.05491e+00,-1.03829e+00,-1.32448e-01,-5.18270e-02,3.07426e-01,-2.19298e-01,1.65767e-01,1.21206e-01,-4.80635e-01,-6.75675e-01,9.11106e-01,3.44410e-01,-1.07262e+00,8.03503e-01,-1.11246e-02,-3.71417e-01,-4.94081e-01,5.09446e-01,5.44422e-01,-6.40982e-01,6.05274e-01,1.69968e-01,-4.67485e-01,5.12291e-01,6.21271e-01,-5.45022e-01,-6.63663e-01,-3.17005e-01,9.48266e-01,2.68261e-01,-4.12252e-01,-2.89750e-01,-3.59850e-01,5.54118e-01,-5.68492e-01,4.93178e-01,
1.47553e+00,-4.67587e-01,-8.19388e-02,5.24409e-01,-1.72413e+00,1.49029e+00,-3.28910e-01,2.66429e-01,-2.75114e-01,1.99485e-01,-3.27167e+00,-7.45830e-02,3.90385e-02,-2.25518e-01,-2.02188e+00,-1.06173e+00,-4.40220e-01,3.81271e-01,-4.78517e-01,9.82724e-02,-6.96046e-01,-1.41929e-01,3.05295e-01,-3.12573e-01,3.24652e-01,5.40709e-01,4.15144e-01,1.11754e+00,-4.42622e-01,-1.55157e-01,-1.24576e+00,2.91358e-01,-1.74762e+00,-5.07682e-02,2.91543e-01,-2.47780e-01,-1.02046e+00,-4.04444e-01,-7.51711e-01,-7.83011e-01,-7.69352e-01,-5.83388e-01,-6.00973e-02,1.87476e+00,-8.48095e-01,2.82963e-01,7.79018e-01,5.94410e-01,-1.23306e+00,9.79964e-02,
1.54829e+00,9.11657e-01,-2.85198e-01,1.50960e-01,-5.94933e-01,6.91313e-01,6.14127e-01,1.83470e-02,2.89885e-01,8.78909e-02,-2.58574e-01,2.51690e-01,-7.33871e-02,-4.76802e+00,6.42312e-01,-3.10865e-02,-4.56400e-01,2.94761e-01,6.32568e-01,9.85293e-01,6.31350e-01,4.86667e-01,-5.10274e-01,-3.20798e-01,4.88468e-01,1.63357e-01,-2.75831e-01,-2.26445e-01,5.54847e-01,-2.58319e-01,-5.53299e-02,-5.21674e-01,1.69150e+00,-2.11720e+00,-1.08607e+00,-1.73827e-01,-5.26865e-01,2.98552e-01,-1.56479e-01,3.98961e-02,4.76952e-01,1.70886e-01,2.50789e-01,-8.68179e-01,1.96964e-01,-8.58693e-02,5.86041e-01,8.69080e-01,-3.48015e-01,-4.97393e-01,
3.33223e-01,2.92194e-01,6.15164e-01,-2.59965e-01,-1.67383e-01,1.97039e-01,2.95264e-01,-1.35747e-01,-3.38338e-01,-8.44884e-02,-7.13032e-01,2.63916e-02,-1.63428e-01,7.46933e-02,-1.66570e-01,-1.55179e+00,-5.68544e-01,-1.84251e-02,-2.13641e-01,7.13424e-02,-9.99974e-02,-9.58720e-01,-1.41904e-01,-1.63772e-01,5.11985e-02,-3.08674e-01,-3.48066e-02,3.56090e-01,1.76752e-01,2.55950e-02,-3.92458e-01,-3.08337e-01,1.49517e+00,6.03898e-01,4.46711e-02,8.02454e-01,-3.24272e-01,6.98133e-01,-4.32709e-01,9.12622e-02,-1.26420e+00,-6.52405e-02,7.55187e-01,1.04514e-01,5.95102e-02,6.29991e-01,-4.76258e-01,8.16546e-01,-2.48724e-01,2.74671e-01,
-9.70978e-01,2.99099e-01,-1.01065e+00,-1.10910e+00,5.89774e-01,-1.46510e-01,2.56031e-01,-3.25713e-01,-8.08439e-01,-2.19349e+00,2.92789e-02,1.65658e+00,5.28533e-02,2.43973e-01,4.63834e-01,8.44012e-01,2.00250e-01,8.62522e-01,1.68815e+00,-1.25660e-01,3.44514e-02,-6.01824e-01,3.87584e-01,-1.57125e+00,6.02886e-01,-5.52927e-01,2.58954e-01,4.03647e-02,-5.00934e-02,2.61782e-01,-3.47928e+00,-1.60248e+00,-5.92525e-01,1.48209e-01,2.12850e-01,1.05517e-01,4.47530e-02,-1.43971e+00,1.90716e-01,6.47362e-01,6.96929e-01,-6.92704e-01,6.08435e-02,-2.80866e-01,-1.71428e-01,-4.28948e-01,2.18490e-01,-1.01019e+00,1.26902e+00,7.69400e-01,
-4.71764e-02,-2.15089e-02,1.38420e-02,-4.85835e-02,-9.23418e-03,-7.20137e-03,1.60740e-02,7.50910e-03,6.35956e-03,1.60934e-02,1.10491e-03,-3.60240e-02,3.02428e-02,-6.07368e-04,-1.38331e-02,-2.84180e-02,-5.49367e-02,-1.78815e-02,-2.29452e-02,4.46210e-02,2.46253e-02,-4.76961e-02,-5.16253e-03,1.47733e-03,-5.21653e-02,3.03660e-02,9.26488e-03,-1.81462e-02,-2.25058e-02,-1.88455e-02,1.02342e-02,-1.16484e-03,-5.19234e-02,1.66854e-02,9.78127e-03,3.17810e-02,1.26069e-02,1.74627e-02,-1.43204e-02,-2.29279e-02,4.61704e-03,-1.85681e-02,-3.73580e-02,2.11377e-02,-4.12901e-02,2.01030e-03,1.42027e-03,-4.41788e-03,-1.60940e-02,4.30092e-02,
5.83198e-01,-3.61881e-01,-2.86505e-01,5.18271e-01,-7.50854e-02,5.28532e-01,-1.22750e+00,-3.94928e-01,1.28815e-01,5.94251e-01,4.09890e-01,-4.10137e-01,6.52436e-01,3.71100e-02,5.76173e-01,1.73812e-01,-3.51372e-01,6.56448e-01,-8.35308e-01,-6.49311e-01,-5.75729e-01,2.98999e-01,8.52886e-01,3.63599e-02,2.81887e-01,5.53929e-01,3.93790e-01,5.78653e-01,4.59305e-01,-9.45751e-02,5.05513e-01,1.69060e-01,1.29481e-02,-3.47632e-01,-7.10229e-01,-3.54462e-01,-1.29732e-01,5.62265e-02,7.90999e-01,1.58260e-01,1.31036e-01,3.22887e-01,2.17846e-01,-3.12183e-01,4.89278e-02,-1.29647e+00,-2.47082e-01,2.23420e-01,6.29192e-01,-1.89102e+00,
7.90601e-02,7.58986e-01,-2.76023e-01,-2.72421e-01,2.49142e-01,2.71984e-01,-1.00054e+00,-6.78702e-01,5.87963e-01,-1.00830e+00,8.19362e-01,-2.80030e-01,-3.21763e-01,7.12309e-01,-1.96417e-01,5.39971e-01,-2.85299e-01,-2.78259e-01,-1.58830e+00,-9.23958e-02,6.93937e-01,-2.77262e-01,-3.68791e-01,3.99637e-02,3.52923e-01,1.07826e-01,-6.86591e-02,-5.66296e-01,-6.63298e-02,-1.63011e-01,2.20286e-02,-3.75275e-01,1.14106e+00,1.61618e-01,-6.10056e-03,1.76849e-01,-1.90406e-01,7.97155e-01,3.67867e-01,-4.20787e-01,1.69624e-01,-1.48818e-01,-2.90110e-01,-4.93288e-01,3.84243e-01,1.01087e+00,-8.73783e-01,1.34652e-01,1.27242e+00,3.88296e-01,
-7.75763e-01,-2.39955e-01,4.91823e-01,-4.89900e-01,-4.26690e-01,6.82363e-02,1.09286e+00,3.69757e+00,-1.57274e-01,1.43633e-01,3.05680e-02,8.49568e-01,-4.99686e-01,-1.20434e-02,8.72569e-01,4.72274e-01,-1.87962e-01,8.41057e-01,-4.45398e-01,1.08727e+00,1.02551e+00,-1.51452e+00,-3.82442e-01,-1.17800e+00,-3.82932e-01,1.36537e-01,2.19016e-01,-2.61159e-01,5.91762e-03,-1.62228e-02,-4.68126e-01,-6.84173e-01,3.33971e-01,5.67092e-01,-5.08801e+00,-2.08733e-01,3.85663e-01,-3.25649e-01,-6.85227e-01,-3.85643e-01,2.29733e-02,-5.60861e-02,5.87675e-01,4.28262e-01,1.50630e-01,6.17184e-02,7.39902e-01,-8.29271e-01,6.56923e-01,2.41694e+00,
9.00663e-03,6.30022e-03,4.79081e-03,-8.52687e-03,1.07513e-02,6.98863e-03,-5.43080e-02,3.60875e-03,3.33697e-02,4.32693e-02,-5.83374e-02,-1.50515e-03,-1.60289e-03,-1.16112e-02,-3.97155e-02,-2.29515e-02,2.54107e-02,6.94546e-04,-2.61837e-02,-2.05629e-02,1.14802e-02,1.37922e-02,-1.70026e-02,-1.72266e-02,-3.81593e-02,7.18460e-03,-5.14512e-02,4.32364e-02,4.43013e-03,-1.51388e-02,-4.56541e-02,1.34292e-02,-4.30034e-02,1.03783e-02,-2.02723e-02,-1.88625e-04,-3.77611e-02,-3.53130e-02,4.88515e-03,-3.41841e-03,1.91625e-02,-3.55359e-02,-2.73978e-03,3.40423e-02,-5.56363e-02,-1.86060e-03,-9.07747e-03,-5.09480e-03,5.46803e-03,1.77683e-02,
-5.33295e-02,-1.33046e-02,2.11239e-02,1.36080e-02,-2.61401e-02,-1.99682e-02,1.17293e-02,1.26595e-02,-6.06170e-02,-3.26809e-02,-1.50153e-04,-3.80126e-02,-3.26968e-03,-7.60792e-02,-4.75795e-02,-2.73233e-02,-6.07776e-02,-2.91325e-02,-1.56265e-02,8.85383e-03,-9.81534e-04,-3.54733e-02,-2.54220e-02,-4.37665e-02,1.39294e-02,-6.30541e-02,-3.62227e-02,3.49902e-03,-8.67415e-03,-4.38867e-02,2.05748e-02,-9.55488e-03,1.27019e-02,2.47030e-03,-1.98260e-02,-1.52191e-02,3.64263e-02,2.32558e-02,2.51369e-02,-2.82259e-03,2.96962e-02,-5.10915e-02,-4.17846e-02,-5.28357e-02,-1.50062e-02,2.17305e-02,3.91802e-02,-1.93267e-02,-6.37274e-02,4.13669e-02,
-2.03584e-02,
-1.97024e-02,
-1.09692e+00,
-1.35726e+00,
-8.92432e-01,
-4.91915e-01,
8.20389e-01,
2.64899e-02,
-1.64180e+00,
-1.12905e+00,
-1.22852e+00,
-4.39377e-03,
8.05956e-03,
-5.54611e-03,
1.94762e-01,
3.27315e-01,
-2.43186e-01,
9.74517e-01,
8.85383e-01,
-4.01676e-03,
-3.65810e-01,
-2.60994e-02,
-7.74795e-01,
3.08052e-01,
1.12434e-01,
-1.70835e-01,
-1.53041e-01,
-8.87633e-02,
-1.04586e-01,
-1.30131e-02,
-1.12597e+00,
1.33440e-01,
-3.80548e-01,
-2.68207e-02,
5.52323e-01,
6.46781e-01,
-4.56733e-01,
1.05544e-01,
2.08643e-01,
4.22837e-01,
8.85226e-01,
-7.77472e-01,
2.57675e-01,
-1.08573e+00,
-9.80299e-03,
-7.39587e-01,
1.73027e-01,
-8.68669e-02,
-1.12744e-02,
-1.50320e-02,
5.34416e-01,4.27764e-02,1.50754e-01,4.07903e-01,1.29306e+00,-4.20207e-01,-1.22594e-01,-3.21345e-01,-2.70405e-01,4.44734e-01,-1.48194e-01,-3.53348e-02,5.36894e-01,7.65084e-02,6.58961e-01,1.88185e-01,-6.90426e-01,4.36320e-01,2.13348e-01,-2.65104e-02,-1.47366e-01,4.84975e-03,4.22884e-01,-1.29926e+00,2.63046e-01,-3.95716e-01,3.38840e-01,-7.80822e-01,1.69619e-01,-4.34763e-02,-6.32974e-01,-3.06594e-01,4.23441e-01,-5.80089e-04,-5.81539e-01,-1.19430e-03,3.83973e-01,-2.58738e-01,2.33111e-01,-6.53845e-01,-3.36437e-01,4.24293e-01,-7.01503e-01,7.39455e-01,2.83945e-02,5.56805e-01,-5.84600e-01,1.91799e-01,-8.28112e-03,-9.58262e-03,
-5.20279e-02,1.46067e-02,-3.81773e-02,-4.64859e-02,1.26726e-02,-1.27750e-02,3.03361e-02,2.91049e-02,1.54987e-02,9.55304e-03,-3.69234e-02,2.23622e-02,-5.27306e-03,-1.97298e-02,-3.67235e-02,-8.36838e-03,-2.73675e-02,3.68855e-02,-1.14771e-02,-3.71262e-02,-3.11320e-02,5.98177e-03,1.96137e-02,9.07031e-03,-3.50272e-02,-8.13402e-03,5.93375e-03,3.15077e-02,2.66180e-02,4.23923e-03,8.05003e-03,-2.21818e-02,1.12503e-02,1.47572e-03,-7.80363e-02,-4.87541e-02,-2.87730e-02,1.09555e-03,-2.30457e-02,-4.92558e-02,3.66821e-02,6.38885e-03,-9.15266e-03,1.15274e-02,-4.61007e-02,-4.91409e-02,-4.73350e-02,-3.28443e-02,-4.51448e-02,1.51208e-02,
-8.74324e-03,1.40188e-02,-4.32485e-02,5.20650e-03,2.32711e-02,-1.46404e-02,-5.90535e-02,1.16539e-02,-2.62521e-02,-2.01484e-02,3.71031e-02,-2.07389e-02,-4.71695e-02,4.25773e-02,3.54139e-02,-3.10487e-02,-1.82404e-02,1.75900e-02,8.92469e-03,9.21077e-03,-2.80837e-02,-1.58857e-02,2.28014e-02,-1.42545e-02,-4.66912e-02,-9.97088e-03,-2.60794e-02,-4.51339e-02,-2.18557e-02,1.43523e-02,-4.67524e-02,3.12065e-02,5.98901e-03,-1.82462e-02,-5.00932e-02,-5.78081e-02,-3.05117e-02,-5.86028e-03,2.77108e-02,-1.61216e-02,-3.96252e-02,1.79579e-02,2.29342e-02,3.37068e-02,-4.80779e-02,-5.48300e-02,-3.76196e-02,-7.26851e-03,1.06658e-02,-4.96283e-04,
3.30363e-01,3.47930e-02,1.49580e-01,1.38178e+00,5.64282e-01,-5.88703e-01,1.38336e-01,-3.23122e-01,-2.26116e-01,6.82668e-01,-3.00248e-02,1.10376e-02,1.20952e+00,5.08498e-01,-7.49154e-01,-4.05649e-01,-1.64076e-01,-3.88947e-01,8.34649e-01,5.53686e-04,8.77579e-01,-2.55768e-02,9.46827e-01,1.35982e+00,-3.04861e-01,2.90091e-01,-6.91667e-01,-8.55410e-02,6.64674e-02,-1.54454e-02,9.16161e-01,-1.29201e-01,3.54383e-01,-4.62885e-02,-1.78940e+00,-1.46229e-01,-2.63009e-01,-1.07557e-01,1.82225e-01,1.38388e-01,6.12779e-01,4.56568e-01,-6.42008e-01,-1.01097e+00,-1.83710e-02,1.48866e-01,5.13121e-01,5.48695e-01,3.96069e-02,4.13102e-02,
1.05775e-01,-2.71198e-02,8.88035e-02,-4.39329e-01,3.99337e-05,-2.40125e-01,-1.15397e-01,-3.36628e-01,-2.45263e-01,2.90809e-01,-1.19261e-01,-3.36930e-02,-3.59417e-01,-2.72330e-02,8.82338e-02,2.25003e-01,4.34085e-01,2.62390e-04,-1.06098e-01,3.03109e-02,9.05773e-02,-4.11553e-02,-1.03035e-01,-3.18090e-01,6.03909e-02,2.54130e-02,3.07647e-02,-1.33402e+00,9.18676e-02,-2.20377e-02,-4.59688e-01,-2.55080e-02,-1.04238e+00,1.45407e-02,-6.63729e-01,1.83784e-01,-1.05269e+00,-4.50193e-01,2.09009e-01,5.52312e-01,1.50006e-01,7.12085e-01,-2.37602e-01,7.27352e-01,2.06700e-02,1.02229e-01,-3.26009e-01,1.99379e-02,3.40548e-02,-2.19679e-02,
-1.49278e+00,-4.43848e-02,-1.94103e-02,1.00097e+00,5.45308e-01,4.56709e-01,3.06112e-01,-5.05161e-01,-8.20040e-01,1.81633e-01,-1.43923e-02,-4.04570e-02,1.81321e-01,9.76705e-02,-5.05364e-01,2.10040e-01,-1.92610e-01,2.47316e-01,1.73651e-01,-2.22296e-02,4.82856e-01,-5.17451e-02,3.05542e-01,5.32742e-01,-4.76969e-02,1.57153e-01,4.09531e-01,-8.21670e-01,-3.13087e-01,-3.99748e-02,-1.07927e-01,2.02859e-01,-2.98374e-01,-2.22773e-02,-1.42726e-01,2.49690e-01,7.14279e-01,3.40810e-02,4.02334e-02,-8.04078e-02,2.24856e-01,-2.05805e-01,-3.24140e-01,1.83991e-01,7.01845e-03,-4.34329e-01,-6.53265e-01,1.43987e-01,1.53464e-02,-5.57642e-03,
-2.91900e-02,-4.90284e-02,-1.85739e-01,3.99237e-01,-4.00703e-01,4.65568e-02,-5.76095e-02,3.68705e-02,3.53034e-02,1.29978e-01,-1.39674e-01,4.78226e-02,-3.44386e-01,2.28580e-01,1.38082e-01,3.53957e-01,-8.42930e-03,-5.48230e-02,6.58232e-02,4.81146e-02,-6.82091e-02,-3.68401e-02,1.39151e-01,-1.63343e-01,-4.22252e-01,-2.60014e-01,1.81017e-01,1.09681e+00,-1.82254e-01,-4.92971e-02,5.10322e-03,2.61331e-01,-1.50948e-01,-2.34639e-02,-3.59863e-01,-1.75261e-01,5.67124e-01,-1.39738e-01,-2.72974e-02,8.92507e-02,2.52658e-02,-3.85394e-01,2.82532e-01,-2.01796e-01,1.87855e-02,4.50693e-01,-2.89454e-01,1.47772e-02,-4.51798e-02,-4.17980e-03,
1.64783e-01,-1.41788e-02,-8.87711e-01,1.10940e+00,-9.37623e-02,-4.04868e-01,1.32094e+00,-5.07326e-01,-5.36531e-01,7.72194e-03,1.45640e-01,4.69820e-03,9.77847e-02,-6.96222e-01,-4.15057e-01,3.70074e-01,3.12686e-01,-4.99397e-02,-4.75804e-02,4.64865e-02,-3.53868e-02,-6.95129e-03,1.44635e+00,6.82756e-01,2.99089e-01,6.31574e-01,-1.22661e+00,-2.73548e-01,6.56125e-01,-3.27978e-02,-1.54128e+00,2.46739e-01,5.64030e-01,-1.07897e-02,8.92669e-01,1.27234e-02,-2.25263e-01,-1.15590e+00,-1.10701e+00,3.76109e-01,-5.17878e-01,-7.41879e-02,-7.64836e-01,-8.05046e-02,3.47017e-02,-4.99167e-01,9.32650e-01,6.88377e-01,3.48905e-02,-1.49872e-03,
-1.34273e+00,2.76270e-02,-1.21321e-03,-2.44056e-04,-1.04636e-01,7.40884e-02,-9.98494e-02,-3.94732e-02,-4.01621e-02,2.46150e-03,5.33024e-03,4.74372e-03,3.66701e-02,8.94000e-02,-9.33130e-03,1.13926e-01,9.52617e-02,-4.34093e-02,-9.00750e-02,3.46132e-02,-1.16523e-02,3.84108e-02,-3.66987e-02,-3.37860e-02,-1.97646e-02,3.84636e-02,-1.61364e-02,2.00975e+00,-1.56716e-01,-1.85627e-02,-1.20684e-01,1.00361e-02,-1.23373e-01,7.69210e-03,-1.45035e-01,1.26532e-02,1.09437e+00,-2.44699e-02,-2.82808e-01,-1.10580e-02,3.89708e-02,4.69904e-02,-1.64823e-02,1.06622e-02,-4.23920e-02,-1.67744e-01,-2.69302e-02,6.27386e-02,3.99893e-03,4.41272e-02,
-3.85818e-01,-3.08134e-02,1.53927e-01,-6.58421e-01,5.97163e-02,6.86900e-02,-2.21933e-01,1.75807e-01,5.58631e-01,-3.79677e-01,8.90712e-02,5.87389e-03,2.00419e-01,-1.18144e-02,2.32490e-01,-6.62266e-01,-6.40603e-03,-1.29989e-01,-7.68736e-02,1.87716e-02,1.51891e-01,3.64504e-02,6.94866e-01,-2.65351e-01,7.76181e-02,-8.68696e-01,5.52469e-01,1.02087e-02,-3.93846e-01,-1.55507e-02,1.94683e-01,-1.20456e-01,-9.60245e-01,3.60719e-02,-3.97411e-02,-2.28936e-02,3.56927e-01,-1.94902e-01,6.38759e-03,7.98303e-01,1.77470e-01,-1.52363e-01,-1.59333e-01,2.54995e-01,1.84221e-02,4.51969e-01,1.32324e-01,9.10700e-02,2.27912e-02,-5.45120e-02,
-2.24182e-02,-5.64983e-03,-3.19769e-02,-3.67797e-02,-1.41444e-03,-3.38251e-02,-2.08395e-02,2.80786e-02,-1.62520e-02,-4.34075e-02,-5.04748e-02,1.30823e-02,3.65669e-02,-2.85372e-02,-3.23827e-02,1.27596e-02,-5.42732e-02,-2.76320e-02,-2.65740e-02,3.68650e-03,2.95608e-02,1.36647e-02,4.82715e-02,1.44165e-02,1.38430e-02,-2.11712e-02,-1.60726e-02,3.49047e-02,1.20430e-02,4.49801e-02,-1.71476e-04,1.59677e-02,-3.22461e-02,-2.94391e-03,-4.97958e-02,-2.94170e-03,-3.64038e-02,3.35445e-02,-3.07437e-02,1.85240e-03,-4.52065e-02,-2.47492e-02,1.78667e-02,2.52488e-04,-3.22284e-02,2.02148e-03,-4.82107e-02,2.10784e-03,2.41232e-02,7.69669e-03,
-3.79411e-01,-1.70934e-02,-1.76621e-01,1.00179e-01,4.48225e-01,2.31194e-02,-3.32524e-03,-1.09129e-01,2.67596e-02,-2.85704e-01,6.34131e-02,-3.31826e-04,-4.04227e-02,-6.78306e-02,3.17233e-01,2.26359e-02,-1.73731e-01,9.68135e-02,4.61512e-01,5.49066e-02,-2.01156e-02,2.17428e-02,6.69828e-01,-2.50717e-01,8.59579e-01,-1.49937e-01,6.78367e-02,1.01231e-01,-3.63738e-01,2.60533e-03,3.53487e-01,-1.52367e-01,4.44970e-01,-7.44651e-03,-2.47879e-01,-2.32444e-01,4.52834e-01,2.88739e-01,8.84405e-02,-4.11024e-01,-7.04844e-01,1.49192e-01,-2.32109e-01,3.38225e-01,4.25400e-02,-2.97949e-01,7.20481e-02,1.48186e-01,-9.38785e-03,1.09248e-02,
-1.24581e-01,3.31174e-02,1.00989e-01,-1.67270e+00,6.86253e-01,6.51323e-01,5.31835e-01,3.01253e-01,-5.03389e-01,7.56052e-01,-3.13144e-01,-1.82584e-02,8.18884e-02,3.45015e-01,-4.38273e-01,-1.02888e-01,6.37485e-01,-2.94297e-01,-4.25016e-03,4.46673e-03,5.01552e-01,4.18976e-02,-3.47628e-01,1.37406e+00,3.47513e-01,-2.64090e-01,4.75144e-01,3.72555e-01,-2.65826e-01,-1.52751e-02,7.98216e-01,2.15049e-01,5.93818e-01,-4.35411e-03,-2.88377e-01,6.70657e-02,-7.68065e-01,2.03593e-01,8.90118e-03,2.45239e-02,3.14581e-02,3.38316e-01,-2.66583e-01,9.24385e-02,2.75940e-02,-1.19317e-01,5.23256e-01,-3.76293e-01,-2.26300e-03,-2.44098e-02,
-6.87434e-01,1.24754e-02,1.08904e-01,-2.14105e-01,-1.15366e-01,-1.68830e-01,1.01507e-01,-5.03703e-01,1.04733e-01,3.36616e-01,1.25737e-01,3.13811e-02,-3.98318e-02,-2.37576e-01,-9.66970e-02,1.53045e-01,2.85942e-01,2.65509e-02,-1.88833e-01,-4.89882e-02,2.31577e-02,2.97533e-02,-7.85218e-01,1.00559e-01,-1.15796e-01,2.67114e-02,-1.82168e-01,8.61618e-02,-3.31392e-02,1.57563e-04,-1.11477e-01,-8.15947e-02,-2.68761e-01,1.62162e-02,3.96164e-02,1.51247e-01,-4.33356e-01,1.43112e-01,1.29090e-01,1.51769e-01,-8.04868e-02,5.44276e-02,3.30703e-01,-1.56754e-03,1.71550e-02,-4.05395e-01,3.19675e-02,-3.22012e-01,-4.69803e-02,2.11212e-02,
3.50022e-01,-7.66312e-03,-3.04551e-01,-1.44476e+00,-1.20111e+00,-4.54326e-01,-5.01827e-01,-4.63215e-01,-1.49211e-02,-8.55202e-01,4.28359e-01,-1.24387e-02,-6.12270e-01,4.98937e-02,8.95154e-02,-5.01088e-01,5.86191e-01,-1.08487e-01,-4.81496e-01,-3.45337e-02,3.15814e-01,-1.53415e-02,-4.30836e-01,-1.78742e-01,1.09607e-01,5.35780e-01,-7.88269e-02,1.16694e-01,4.98526e-01,2.25828e-02,-7.99585e-02,-2.40600e-01,-1.48199e+00,1.13760e-02,-1.25458e+00,6.73507e-01,-1.29444e+00,-1.12268e+00,3.99028e-01,7.86896e-03,-7.93218e-02,2.07225e-01,-4.77947e-01,-1.17092e+00,2.51109e-03,-1.61641e-01,4.44681e-01,-2.70921e-01,1.29194e-02,-3.69003e-03,
-2.16844e-02,-4.12159e-02,1.26449e-02,3.24547e-02,1.14356e-02,-2.89183e-02,2.07646e-02,-2.22739e-02,-4.63577e-03,2.91553e-02,1.49557e-02,7.99635e-04,-1.51756e-02,-5.15579e-02,-4.89597e-02,-3.20136e-02,-3.25790e-02,7.76699e-03,-4.64936e-02,-1.52856e-02,-2.45104e-02,-9.53316e-03,8.43898e-03,-2.44122e-02,-5.41911e-02,1.68635e-02,-2.97891e-03,-6.10076e-02,-4.07875e-02,-4.30185e-02,-2.17425e-02,1.19414e-02,2.57417e-02,-4.41745e-02,-6.12854e-02,2.91340e-03,1.60480e-02,-1.33796e-02,-6.13715e-03,-2.48316e-02,-1.06200e-03,-2.76210e-02,1.60649e-02,-5.13368e-02,1.86085e-02,-5.57093e-02,-4.08756e-02,-5.22708e-03,-3.89039e-02,-3.41470e-02,
-7.51978e-01,1.56542e-02,-4.12199e-01,-1.33068e-01,4.67594e-01,2.14587e-02,2.35855e-01,-1.42880e-01,8.49439e-01,-3.70619e-01,-2.84518e-01,3.32561e-02,2.95819e-01,1.23371e-01,3.83641e-01,2.96688e-01,-6.37857e-01,2.67785e-02,2.14827e-01,1.67271e-02,1.62605e-02,4.11770e-02,-2.87756e-01,2.91688e-01,9.28233e-01,-1.93005e-01,1.40801e-01,2.00864e-01,-3.92645e-01,-2.91632e-02,-1.60244e-01,7.40896e-01,2.56312e-01,4.01104e-02,2.29982e-01,-1.04954e-01,-4.94709e-01,-5.47626e-01,2.60534e-01,-2.65738e-01,6.27668e-02,-2.00277e-01,-5.61085e-01,-2.86530e-02,-3.44603e-02,1.80322e-02,-1.54423e-01,-3.06071e-01,-8.83173e-03,3.50220e-02,
-2.16113e-02,2.92938e-02,3.69858e-01,4.81029e-01,2.35032e-01,5.22434e-02,1.89559e-02,-2.70004e-01,-1.94166e-02,-1.82882e+00,-4.08444e-01,-3.79670e-02,-4.10129e-01,-1.66946e-01,3.28057e-01,-6.84564e-02,-2.64447e-02,-1.07198e-01,1.83212e-01,1.91697e-02,-1.98101e-01,4.26760e-02,-1.26123e+00,-9.95179e-02,-9.74979e-01,-3.13998e-01,2.01759e-01,1.67112e-01,3.14753e-01,-1.64439e-02,-2.43317e-01,-4.60783e-02,8.96952e-01,-3.51806e-02,-4.85013e-01,-2.15773e-01,2.59728e-01,2.09970e-01,5.37929e-01,7.21451e-02,-3.21374e-01,-1.07124e-01,3.26717e-01,-1.22179e-01,4.60044e-02,1.42119e-02,1.56627e-01,1.28707e-02,8.16936e-03,-4.71542e-02,
5.42116e-01,1.74592e-02,-2.38444e-01,-7.86753e-01,-7.36100e-01,-1.03629e-01,2.72920e-01,-5.11887e-01,2.88752e-01,-2.11418e-01,5.93583e-01,2.66304e-02,-3.00776e-02,1.81653e-01,1.67716e-01,-2.65742e-01,2.94357e-01,4.47020e-02,-2.81354e-01,-2.81043e-02,3.96063e-01,-9.81102e-03,-7.39496e-01,-3.32916e-02,2.07729e-01,1.03687e-01,-4.18754e-01,5.10733e-01,-2.17733e-01,-1.26377e-02,-2.71659e-01,-4.77210e-01,-5.14416e-01,-2.84902e-02,8.07692e-01,3.75747e-01,-7.45625e-01,-3.90638e-01,-5.69189e-01,-3.39367e-01,1.92019e-03,-9.37238e-02,-7.62903e-01,-1.62911e-01,-3.20634e-02,-2.71947e-01,2.05709e-01,8.76377e-01,3.80128e-02,4.25550e-02,
-6.47025e-01,-2.10885e-02,6.19061e-02,-1.69736e-01,1.77262e-01,-1.03265e-01,-1.94857e-01,2.00921e-01,1.11070e-01,-1.44086e-01,-1.16182e-01,3.61031e-02,8.98887e-02,2.81069e-02,3.18316e-01,-3.70552e-02,-2.09961e-02,-5.50342e-03,-1.06624e-01,1.88429e-02,-5.81647e-02,3.53369e-03,1.27465e-01,-8.60232e-02,1.75139e-01,3.76207e-02,-2.17723e-01,1.21092e+00,1.66155e-01,9.86719e-03,2.33820e-01,4.55111e-02,2.73645e-01,-4.90388e-02,1.34210e-02,-1.08360e-01,5.38739e-01,-1.48165e-01,-1.08239e-01,-4.56432e-02,-2.12038e-02,-2.75576e-01,-2.24864e-01,-1.04429e-01,1.51225e-03,-2.28915e-01,2.48487e-01,3.88555e-01,-3.28536e-02,-2.25087e-02,
8.91046e-01,-3.37327e-02,-1.44429e-01,4.37626e-01,-2.56627e-01,3.05796e-01,5.15579e-01,-2.90214e-01,-4.09606e-01,1.38250e-04,1.30486e-01,3.02756e-02,-1.42294e-01,-7.04798e-02,-5.96954e-01,2.06891e-01,6.02252e-02,3.72887e-02,6.09241e-01,1.04723e-02,4.58642e-01,-3.32854e-02,3.04136e-01,3.84095e-01,-1.68410e-01,4.98614e-02,8.52006e-02,-9.17335e-01,2.89703e-03,-1.77932e-02,-2.44658e-01,-2.64331e-02,-6.34760e-01,-3.46088e-03,2.16800e-01,2.08585e-01,-3.73418e-01,3.59002e-01,-4.48050e-01,3.96001e-02,-5.10373e-02,-1.87956e-01,1.24933e-01,3.54844e-01,1.46018e-02,2.23949e-01,-2.83839e-01,-2.53175e-01,-8.10610e-03,1.07897e-02,
3.51988e-01,-4.92429e-03,-7.33244e-02,1.73817e-01,9.31160e-01,5.02972e-01,-2.14996e-01,8.24870e-01,-1.58940e+00,-2.11210e-01,-2.34805e-01,-2.68076e-02,-4.40956e-01,6.78040e-01,4.20976e-01,-8.29368e-01,-2.84185e-02,2.11678e-01,-6.15548e-01,4.65092e-02,8.08008e-01,2.28708e-02,-1.08322e+00,1.22104e-01,-1.45669e+00,8.97351e-01,1.10002e+00,-7.41278e-01,4.17321e-02,-3.78670e-02,2.58636e-01,2.58349e-01,8.13617e-02,-3.38300e-02,-3.65666e-01,-2.31993e-01,5.06146e-01,-4.62919e-02,-2.05865e-01,-4.20670e-01,-9.22322e-01,3.81894e-01,-8.21203e-01,1.33065e+00,2.05692e-02,5.28571e-01,-7.77994e-02,-4.08722e-02,-2.44546e-02,-2.53613e-02,
-2.00586e+00,9.17240e-03,9.17062e-02,-6.12213e-02,-3.77617e-01,5.58121e-01,1.11023e-01,-8.31567e-02,-3.90556e-01,5.00948e-01,2.83488e-01,-3.92994e-02,-9.01543e-01,-1.63093e-01,-7.92431e-02,6.75963e-01,4.20266e-01,-1.72915e-01,1.39768e-01,-3.36589e-02,8.17722e-01,2.96156e-02,1.09561e+00,2.10957e-01,-4.52093e-01,2.57175e-01,-1.93561e-01,-1.05572e-01,-1.13923e-01,3.05058e-02,-6.61206e-01,-1.77930e-01,8.03315e-02,-4.15410e-02,3.86396e-02,2.16997e-01,-2.33175e-01,-4.43541e-02,3.26157e-01,1.16454e-01,-5.33439e-04,1.27900e+00,4.43471e-02,1.09249e-01,2.29166e-02,-1.61080e-01,-1.38655e-01,-1.66618e-01,-6.59735e-03,-3.58265e-02,
2.02520e-01,-3.31905e-02,2.13251e-01,-9.46466e-01,5.71400e-01,9.94076e-01,-1.94073e-01,4.69051e-01,-4.44205e-01,1.17784e+00,4.89223e-01,1.95379e-02,-1.56722e+00,6.98993e-01,-1.49332e+00,3.22323e-01,-1.67795e+00,-7.72417e-01,5.87091e-02,-8.90952e-03,-1.98575e-01,-2.15139e-02,2.25821e+00,2.07565e+00,1.44202e-01,-1.12013e-01,6.55207e-01,-4.41150e+00,2.23586e-01,-2.19947e-03,-2.08936e-01,-2.43871e+00,-3.37560e-01,-5.33360e-02,4.19281e-01,5.22529e-01,-2.35708e-01,-6.38604e-03,-1.58421e+00,-8.61010e-02,6.85132e-03,-4.37315e+00,1.27001e-01,7.24131e-02,2.83496e-02,4.64317e-01,-2.03948e-01,-3.76325e-01,-6.28585e-04,-1.91859e-02,
9.95138e-01,2.74681e-02,-9.31589e-01,-7.89986e-01,-1.77679e+00,-1.41231e+00,-9.59944e-02,-1.68803e+00,-7.10974e-01,-2.24044e+00,2.03454e+00,-4.95475e-02,5.09872e-01,-1.54333e-01,-2.77497e-01,3.89566e-01,3.60838e-01,1.14016e+00,1.05114e+00,1.84734e-02,-5.77670e-01,2.37833e-02,2.05026e+00,-2.65605e+00,-4.86660e-01,4.49265e-01,-6.55893e-01,-1.74405e+00,-1.68409e-01,-4.18757e-02,-1.58457e+00,-9.95967e-01,-2.68863e+00,1.37261e-02,-2.21894e+00,1.09855e+00,-1.30859e+00,-1.91426e+00,-1.74263e+00,-3.14862e-02,1.20380e+00,-2.32274e-02,-1.18165e+00,-3.64464e+00,5.62245e-03,2.07455e-01,-1.34673e-01,-8.55832e-01,2.11428e-02,-9.08920e-03,
2.36090e-01,-2.52693e-02,7.85196e-02,6.08928e-01,5.35225e-01,2.04647e-01,-2.75594e-02,-7.73000e-01,4.17037e-02,1.32401e+00,-1.65379e-01,-4.73150e-02,-1.07626e-01,1.70258e-01,5.46207e-01,-8.00413e-01,-6.24537e-02,2.44236e-01,-6.07552e-01,-2.10526e-02,-2.15653e-01,1.02212e-02,-8.58629e-01,-2.44805e-01,6.32160e-01,2.72827e-01,1.94011e-01,4.83446e-02,-5.20744e-02,3.21292e-02,-1.15936e-01,4.14094e-01,-2.77343e-01,3.37029e-02,-4.59863e-01,1.11767e-01,2.06130e-01,3.33476e-01,-1.40353e-01,-4.31498e-01,1.49374e-01,-1.16021e-01,5.03995e-01,-1.50782e-01,1.75057e-02,4.68981e-01,-1.57279e-01,-2.97972e-01,1.04470e-02,4.16049e-02,
-1.14915e+00,5.05190e-02,6.33056e-01,-6.70053e-02,-1.99325e-01,-3.94853e-01,-1.74064e-01,-3.60602e-01,9.05352e-01,1.04707e+00,6.73391e-01,1.71503e-02,-3.48465e-01,6.48450e-01,-2.24025e-01,3.39207e-01,1.19463e-01,1.84035e-01,5.00118e-01,2.10702e-02,-5.65019e-02,-8.49830e-03,5.52218e-01,-8.98961e-01,-1.74084e+00,6.43427e-01,-5.07269e-02,7.05430e-02,4.20851e-01,-2.58470e-02,2.56917e-01,-5.73756e-01,-1.06517e+00,-4.42572e-02,-4.11248e-01,-5.13255e-03,3.19308e-01,1.28390e+00,9.39797e-01,-1.83097e-01,1.12146e+00,8.47872e-01,5.14235e-01,-4.17623e-01,1.74418e-02,4.37710e-01,9.34155e-01,-1.92128e-01,3.78784e-02,9.86952e-03,
-2.40482e-01,4.17928e-02,8.54718e-01,-2.01296e+00,-4.04680e-02,-1.38358e+00,-1.64264e+00,-1.14200e+00,-2.44659e-01,-7.87745e-01,-5.95837e-01,-1.67398e-02,-5.70648e-01,-4.47372e-01,-9.32277e-01,7.50446e-02,-1.54599e-01,1.54010e-01,8.94573e-01,4.24347e-03,5.67990e-01,-2.48754e-03,-6.56903e-01,-9.96503e-01,3.57133e-01,1.02299e-01,-4.92963e-01,5.78879e-01,3.99179e-02,-3.02205e-03,-6.54575e-01,-4.62743e-01,-1.17943e-01,-4.37153e-03,4.09984e-01,-9.98932e-02,-2.73553e-01,1.03855e+00,1.60712e-01,-7.43897e-01,1.45637e+00,1.33958e+00,-1.37115e-01,-1.74138e+00,-2.44452e-02,-1.14993e-01,1.02886e+00,-1.63894e-01,1.47275e-02,-3.07836e-02,
-9.64466e-01,2.48886e-02,-3.35764e-01,-4.94411e-01,-1.17423e-01,1.42156e-02,-8.26398e-02,5.42483e-01,2.10834e-03,-1.96877e-01,-2.77263e-01,-1.70597e-02,-6.94853e-01,-6.69453e-02,-1.13977e+00,-4.24538e-02,5.25770e-02,5.08161e-02,-5.15946e-01,4.86728e-02,2.09938e-01,9.53156e-03,-2.44246e+00,-2.35553e-01,-2.44725e-01,2.82842e-01,-1.16656e-01,2.24967e-01,-2.21658e-01,2.24329e-02,4.80547e-01,3.86384e-01,6.14864e-01,1.73636e-02,-1.14564e+00,-9.34852e-02,-4.41000e-01,-1.08088e+00,1.35083e-01,7.66341e-01,-3.81995e-01,3.89927e-01,-2.02567e-02,2.02901e-01,2.65154e-02,-1.29495e-01,2.93696e-01,-4.61984e-02,-8.16534e-03,-4.85755e-02,
-1.06698e-02,-2.20943e-02,-2.09207e-03,4.36278e-02,4.03635e-02,5.34979e-03,2.55962e-02,1.92638e-02,1.99851e-02,-4.17419e-02,9.48216e-03,3.64236e-02,2.10648e-02,-3.76479e-02,-4.07347e-02,-4.71225e-02,-2.19936e-02,2.51282e-03,-4.77638e-02,3.34542e-02,8.22866e-03,-4.15274e-02,-4.77314e-02,2.14250e-02,-3.71462e-02,-5.64826e-03,-1.20988e-02,-5.04357e-02,3.69658e-02,1.54605e-02,1.63270e-02,-1.96813e-02,2.91753e-02,1.56079e-02,-2.83748e-02,-3.77762e-02,1.40474e-02,-2.38274e-02,-3.04144e-02,-2.99667e-02,-3.19658e-02,4.02458e-02,-3.66654e-02,-3.83581e-02,1.67603e-02,-4.88715e-02,1.05013e-02,-1.66705e-02,-4.37368e-02,-1.74627e-02,
3.49189e-01,3.06759e-03,3.23408e-01,-1.35824e+00,-6.19393e-01,5.17073e-01,-5.91564e-01,-6.37967e-01,-3.24688e-01,-1.18243e+00,-3.21530e-01,-3.35800e-03,-4.44241e-01,-1.38853e-01,5.33758e-01,9.78706e-02,3.99094e-01,-5.02166e-02,-1.52480e-01,3.50359e-02,-7.35197e-01,-1.67669e-02,-1.25121e+00,-1.33581e-01,-9.48857e-01,2.15078e-01,2.63829e-01,-2.35980e-01,2.34582e-01,1.41121e-02,2.41270e-01,7.62502e-03,-2.50364e-01,1.71304e-02,1.78550e-01,-2.34117e-01,1.35529e-01,5.33985e-01,-8.54646e-01,1.08346e-01,5.47094e-01,1.19777e-01,1.33743e-01,-1.63634e+00,1.89160e-03,7.77357e-02,2.64125e-01,-8.82979e-01,3.35859e-02,3.95973e-02,
6.04531e-01,-2.82964e-02,6.37153e-01,4.16230e-01,-1.97015e-01,1.83961e-01,-1.31759e-01,6.32418e-01,-5.07440e-01,-1.20223e-02,-2.61044e-01,-5.23131e-03,-1.61828e-01,1.74471e-01,4.29472e-01,3.90124e-02,7.81374e-02,7.51126e-02,-3.65690e-01,2.12313e-02,-3.35942e-02,1.03708e-02,-2.31945e-01,4.08329e-01,-1.08316e+00,1.20888e-01,2.43767e-01,5.86470e-02,7.03347e-02,-2.17501e-02,2.17110e-01,3.79233e-01,6.86503e-01,4.06553e-02,-6.37187e-01,2.08704e-01,-2.55740e-01,5.06055e-02,-5.02382e-01,4.03291e-02,5.68474e-02,-1.19402e-01,3.28653e-01,5.01570e-01,-4.27384e-02,1.69515e-01,3.75968e-01,5.77487e-02,4.12682e-02,-3.21533e-02,
-1.22541e-01,-2.10823e-02,-1.20503e-02,-8.39251e-01,-3.98335e-03,-1.56490e-01,7.55289e-02,-1.40955e-01,5.96758e-02,-3.67923e-01,-1.65613e-01,4.50570e-02,8.62828e-02,-9.85700e-02,-3.03178e-01,1.13704e-01,6.29916e-02,2.61274e-01,4.37811e-01,1.55304e-02,-2.22392e-01,-3.30284e-02,-4.77834e-01,-9.89704e-01,3.23708e-01,4.19167e-01,-1.37668e-01,-1.58884e-01,-6.06409e-01,-2.40223e-02,-6.21017e-01,-1.72821e-01,1.08578e+00,1.41656e-02,1.82554e-01,-6.07344e-01,1.39025e-01,1.17434e-01,-4.32783e-01,-1.04453e-01,2.92033e-01,-1.48683e-01,-1.68558e-01,-8.77276e-01,3.52046e-02,-2.15248e-01,7.51529e-02,4.04237e-02,1.41045e-02,2.86534e-03,
-5.59039e-02,-7.32251e-05,-1.90397e-01,-2.49398e-01,2.65751e-02,3.63448e-01,9.97127e-01,1.05820e-01,8.75561e-01,-3.88242e-01,-8.33205e-02,5.59549e-03,-5.77766e-01,1.11004e-01,7.77741e-01,1.40911e-02,1.55282e-03,-5.52283e-02,-2.30304e-01,-3.63944e-02,-7.08886e-03,-3.10727e-03,1.56327e+00,-4.05620e-01,-4.26528e-02,2.90901e-01,5.07382e-01,9.39549e-01,-1.20489e-01,2.74076e-02,1.81688e-01,-1.22060e-01,3.70418e-01,9.53986e-03,-6.57782e-01,-3.71729e-01,1.15108e-02,-8.03864e-03,-4.57489e-01,8.58844e-02,-4.21345e-01,7.49246e-02,1.47854e-01,1.01568e-02,9.43319e-03,6.67889e-01,3.29806e-01,-1.87370e-01,-1.25088e-02,-1.85528e-02,
-3.81234e-02,3.28792e-02,-4.83786e-02,3.35686e-02,2.12034e-02,2.66007e-02,-3.28229e-02,-4.46474e-02,2.85837e-02,-2.10617e-02,2.92523e-02,-3.36146e-03,-2.57503e-02,-7.03283e-03,-2.73407e-02,-2.90588e-02,-2.10690e-02,-1.24505e-02,-6.20459e-03,-5.54566e-03,1.13477e-02,-9.72417e-03,-8.40973e-03,-2.88695e-02,1.89257e-02,-3.72625e-02,-8.69775e-03,1.35876e-02,-3.06164e-02,-1.75310e-02,-2.10551e-02,-1.84602e-02,-2.12481e-02,-1.40909e-03,2.81519e-02,-1.67022e-02,-2.89102e-02,2.86044e-02,-5.43323e-02,-5.84496e-02,-3.21636e-03,-5.04822e-02,-1.04757e-02,9.60184e-03,1.77634e-02,-5.24274e-02,-3.08126e-02,2.93026e-02,1.23444e-02,7.83303e-03,
2.75229e-01,2.87256e-02,1.45457e-01,9.92768e-01,-4.02695e-01,6.20936e-03,4.50802e-02,-2.57810e-01,-4.76735e-01,6.50141e-02,-6.45937e-02,-3.49091e-02,2.85865e-01,2.35267e-01,-1.01294e+00,-3.90342e-01,-6.22337e-01,-3.23671e-02,-3.68641e-02,-4.16680e-02,-6.52434e-02,-1.99321e-02,-4.89787e-01,2.46891e-01,-5.56116e-01,-3.14333e-01,1.97275e-01,-6.08594e-01,7.75840e-02,-4.04218e-02,2.91110e-02,-6.26504e-01,-1.39155e+00,-4.29444e-02,6.34120e-01,2.92567e-01,5.22232e-01,4.33312e-01,-1.29616e-01,3.75594e-01,7.59164e-02,1.26431e-01,-3.38390e-01,-7.38860e-01,-1.07756e-02,-3.40799e-01,-5.87862e-01,3.99658e-01,-2.72796e-02,4.15240e-03,
6.41228e-01,-1.65061e-02,9.97524e-01,-2.83182e-01,7.45096e-01,3.63843e-01,-4.35437e-01,1.53276e-01,-1.20419e-01,-3.54053e-01,-3.43207e-01,7.83618e-03,-8.84747e-01,-3.95370e-01,-3.32402e-01,-4.95047e-01,4.23524e-01,-1.82331e-01,-1.18040e-01,2.42923e-02,1.46670e+00,-1.85327e-02,-3.26189e-02,-2.77058e-01,7.78135e-01,5.75109e-01,1.84296e-01,2.91530e-01,-5.35618e-03,1.48815e-02,1.01743e+00,-3.45970e-01,5.07413e-01,2.07641e-02,-3.85569e-01,-5.91367e-01,-3.21716e-01,5.35260e-01,-2.40864e-02,-5.84642e-01,1.90528e-01,3.51059e-01,-6.43180e-02,-1.08843e+00,1.34057e-02,1.35719e-01,4.28915e-01,-3.82528e-01,-4.20616e-02,-3.25007e-02,
2.87850e-01,-1.07099e-02,3.65744e-01,4.02684e-01,2.09309e-01,5.23691e-01,-2.03927e-01,1.06753e-01,-1.90324e-01,7.00204e-01,-5.64698e-01,1.67079e-02,-1.16935e-01,-3.47406e-02,7.94750e-01,-5.41245e-01,-4.12372e-01,-1.06603e-01,-2.29251e-01,3.72765e-02,6.51357e-01,-1.86073e-02,3.61741e-02,-4.76062e-01,-2.28748e-01,3.81684e-01,2.53541e-01,2.53370e-01,3.94015e-01,2.82862e-03,1.28626e+00,1.74949e-01,7.78727e-01,-9.89785e-03,-1.29506e+00,-3.86468e-01,-4.03729e-01,-3.81443e-01,1.93511e-01,-1.41805e+00,-4.61168e-01,4.53701e-01,-5.24972e-01,8.07142e-01,-1.22377e-02,2.74594e-01,-1.31561e-02,2.08940e-01,-4.23251e-02,4.73415e-02,
-6.12943e-02,-2.23673e-02,-2.26256e-02,2.16162e-02,-1.51994e-02,-3.13813e-02,-1.41301e-02,2.35318e-02,3.90197e-02,3.26356e-02,-4.34725e-02,8.75003e-03,-3.42637e-02,-4.33889e-02,3.99437e-02,1.70521e-02,-3.78175e-02,-2.67108e-02,3.31951e-02,1.39810e-02,1.64770e-02,4.71462e-02,2.64928e-02,9.97087e-03,-4.19766e-02,-4.04295e-02,-5.43738e-02,-3.46639e-02,6.59362e-03,-3.89306e-02,2.70596e-02,-1.27857e-02,-5.86379e-02,3.00232e-02,-5.08589e-02,5.87318e-03,-1.36423e-02,-4.61959e-02,-4.59796e-02,-1.47845e-03,-1.70978e-02,-1.36808e-02,2.99387e-02,-3.34546e-03,-2.12463e-02,3.43813e-02,-2.07413e-02,-3.16573e-02,-3.36926e-02,-4.01507e-03,
-1.69919e-01,2.92898e-02,-4.88666e-01,1.09850e+00,1.48302e-01,4.88367e-02,1.47126e-01,-4.95895e-01,4.92848e-03,-2.71910e-01,1.71176e-01,2.16423e-02,3.68697e-01,-2.71204e-01,-6.19362e-01,2.21681e-01,6.39965e-01,2.29420e-01,1.09314e-01,-1.08877e-02,3.11563e-01,-2.98143e-02,8.55562e-01,7.50488e-01,4.09517e-01,-7.19625e-04,-2.14834e-01,2.23788e-01,2.07512e-01,-3.62858e-03,-1.58362e-01,3.19629e-01,-7.73204e-01,3.79124e-02,2.73271e-01,5.35586e-01,2.82247e-01,1.54550e-01,-5.42920e-01,2.13278e-02,4.14890e-01,1.76404e-01,1.33018e-01,7.61883e-01,-2.73975e-02,-3.55697e-01,-3.72405e-01,-1.76726e-01,-5.27284e-02,-4.50475e-02,
-6.07034e-01,-1.41739e-02,7.33740e-01,-9.06552e-01,-5.37395e-01,-1.42810e-01,-1.40082e+00,9.17495e-01,4.54673e-02,1.11847e-01,-8.73251e-01,-3.87623e-02,1.51876e+00,3.57345e-01,-6.41031e-01,-4.05591e-01,9.17162e-02,1.20056e-01,-1.15215e+00,-3.88373e-02,2.91746e-01,3.92473e-02,6.27925e-02,-1.13033e+00,4.00762e-01,2.64058e-02,7.22395e-01,-9.51532e-01,-2.64199e-01,-2.61566e-02,4.46671e-02,-3.52904e-01,-3.50501e-01,1.00580e-03,-1.02097e+00,1.34887e-01,1.20639e+00,-3.78986e-01,-3.21149e-01,7.42845e-01,6.30916e-01,6.86794e-01,5.77887e-01,-1.81884e-01,4.13550e-02,-2.20866e-02,-3.20170e-01,-5.08369e-01,2.48913e-02,4.22695e-02,
7.13119e-02,-6.05768e-03,2.37875e-02,-9.96270e-02,-4.78403e-01,-8.46007e-03,2.22007e-02,-1.82417e-01,2.09205e-01,5.48580e-01,-2.50685e-01,-4.30192e-02,-3.37409e-01,-7.62087e-02,9.45349e-02,-7.77385e-02,-1.17405e-01,-3.70208e-01,1.53692e-01,2.01478e-02,-8.59040e-01,5.33983e-02,2.77041e-01,4.18841e-01,2.51304e-02,-2.00491e-01,-3.32542e-01,3.69349e-01,-3.15875e-01,1.82913e-03,1.83364e-02,3.84947e-01,3.34939e-01,-2.94950e-03,5.23908e-01,-2.42576e-01,1.70217e-01,-1.63072e-02,3.57650e-01,4.35631e-02,-2.78833e-01,1.27997e-01,1.17367e-01,2.04054e-01,-4.80065e-03,-2.94998e-02,1.07760e-01,1.77453e-02,1.62052e-02,-3.12339e-02,
1.72854e-01,-4.34211e-02,1.98493e-01,-6.55428e-01,-5.48891e-01,-5.33423e-02,-3.11639e-01,5.33306e-02,1.39774e-02,-1.56272e-01,-2.45332e-01,1.28766e-02,-2.09172e-01,-3.68263e-02,-8.43966e-01,-7.93682e-01,3.70267e-01,-3.22842e-01,4.84488e-01,3.31521e-02,-2.03142e-02,-9.72750e-03,-3.59920e-01,1.01238e+00,-4.19582e-01,1.73397e-01,2.57265e-01,3.20145e-01,-2.29971e-01,-1.64805e-02,1.02813e-01,3.12388e-01,-1.14098e+00,-3.52439e-02,1.13727e-01,2.07111e-01,3.12910e-01,9.39270e-01,2.80731e-01,6.68863e-01,4.72912e-01,-3.27030e-01,6.73347e-01,3.16416e-01,5.03851e-02,1.00695e-01,2.13078e-01,-4.05259e-01,-1.42302e-02,2.13309e-02,
3.87494e-01,-1.45516e-02,-8.45345e-01,-5.97400e-01,-6.80381e-02,1.42154e-01,7.29352e-01,-5.74978e-01,-8.98097e-03,9.81538e-01,3.73004e-01,-2.30099e-02,-7.58255e-01,2.61590e-01,-2.32212e-01,1.25382e+00,-2.64211e+00,-1.23741e-01,6.25912e-01,4.28239e-02,4.38661e-01,-4.45385e-02,7.51705e-01,3.63283e-01,-6.73602e-01,-2.68631e-01,1.07595e-01,-4.62785e+00,1.45594e-01,1.66119e-02,-2.01203e-01,2.53878e-01,-4.23137e-01,1.03232e-02,-8.35357e-01,3.03077e-03,-3.29574e-01,-8.91582e-01,2.14495e-01,3.67297e-01,-2.75920e-01,7.99333e-01,4.02682e-01,-4.58644e-01,-2.48112e-02,2.96695e-01,-4.32678e-01,-3.05068e-01,1.98712e-02,2.66950e-02,
-4.04481e-01,-2.46972e-02,-3.91708e-01,-6.80627e-01,3.25459e-01,3.15905e-01,5.22846e-02,1.37863e-01,3.46342e-01,-4.19654e-01,-3.13911e-01,-3.31114e-02,-7.99911e-02,8.17699e-02,-2.05201e-01,2.53023e-01,1.14722e-01,-1.92592e-02,-2.62556e-02,-3.03428e-02,-6.46183e-01,-5.17592e-02,-3.44345e-01,4.33122e-01,-6.43746e-01,1.09119e-01,1.98224e-01,1.19773e-02,-1.99426e-01,-1.85323e-02,4.29675e-01,4.27575e-01,-2.85378e-01,-3.82523e-02,1.26237e-01,-1.64025e-01,3.53649e-02,-4.89215e-01,-2.59920e-01,3.82000e-02,-9.65541e-02,2.73668e-01,2.48797e-01,3.44477e-01,-1.03779e-02,-1.71243e-01,-2.38980e-01,-1.76190e-01,-7.03865e-03,2.47104e-02,
5.90059e-02,3.26995e-02,1.33336e-01,-3.36617e-02,1.23294e+00,2.16938e-01,8.70250e-02,-1.61978e-01,-1.77979e-01,-5.21256e-01,-7.61899e-02,-3.21739e-02,-1.43245e-01,2.59088e-03,1.08341e-02,2.02714e-01,-8.77219e-02,-1.23690e-01,1.29805e-01,1.71235e-02,5.51995e-02,-1.21017e-02,-3.38661e-01,-6.22917e-01,-4.72218e-01,-8.75228e-02,-7.98710e-02,-2.53744e-01,-4.03565e-02,-9.44583e-03,5.31766e-01,-3.75142e-01,3.40449e-01,2.69455e-02,1.18462e-01,-1.73037e-02,-2.69031e-01,3.76168e-01,1.91714e-01,-2.88498e-01,-6.23930e-01,-6.51851e-02,-5.01154e-02,-7.84984e-01,3.14115e-02,2.39666e-02,7.17028e-01,-1.44587e+00,-3.65790e-02,-4.79876e-02,
7.06296e-01,4.95077e-02,6.74139e-02,-1.21065e+00,8.86503e-01,1.63027e-01,-5.67170e-02,1.44561e+00,-4.32235e-01,-2.24885e+00,-2.78397e-01,2.32396e-02,1.77897e-01,5.26687e-01,-2.33595e-01,3.58867e-01,-7.60448e-01,2.36946e-01,3.05566e-01,2.81642e-02,1.68459e+00,1.83662e-02,6.25324e-01,-3.63473e-01,-2.25534e-01,-1.62533e-01,6.58188e-01,-6.82890e-01,-3.88871e-01,-3.96324e-02,1.13115e+00,8.85817e-01,7.88302e-01,1.20756e-02,-5.31000e-01,-1.24266e+00,2.21604e-01,-5.13410e-01,-1.86801e-01,-1.52833e+00,-5.47622e-01,-5.22359e-01,-7.15061e-01,7.30638e-01,-2.39627e-03,-6.39850e-03,-7.23895e-02,1.57669e-01,9.06356e-03,5.09319e-02,
3.12862e-02,-1.76594e-02,4.94875e-01,-2.61751e-01,6.37364e-02,-3.44089e-02,3.79586e-01,4.47191e-01,-1.55677e-01,-1.48187e-01,-2.63050e-02,-1.81659e-03,-1.77524e-01,3.58757e-01,1.38001e-01,1.96711e-01,-1.62457e-01,-4.85733e-02,-7.09384e-02,9.22954e-03,1.06857e-02,-7.39001e-03,7.11430e-02,-2.62893e-02,-2.61804e-01,-2.89061e-02,1.54365e-01,1.62245e+00,1.80981e-01,-4.53884e-02,2.71687e-01,1.39484e-01,4.46319e-01,4.87594e-02,-6.71519e-01,-3.38044e-02,1.34989e-01,-3.06764e-01,-2.70608e-01,-9.28744e-02,-1.32257e-01,1.09418e+00,1.61547e-01,-1.54046e-01,-1.18645e-02,-1.49530e-01,1.35986e-01,-2.53106e-01,1.98031e-04,-3.34971e-02,
2.13459e-02,4.06723e-02,-1.82365e-01,-1.60732e+00,-5.73220e-01,-6.81761e-02,2.55480e-01,2.57556e-01,3.67096e-01,8.08101e-01,-3.39820e-01,2.04099e-02,-7.81751e-01,-8.93051e-02,3.97787e-01,1.96542e-01,-7.12313e-02,-6.30262e-01,1.45955e-01,-1.42402e-02,-5.89700e-01,-3.72287e-02,-3.43808e-01,2.52205e-01,-1.26768e-01,-6.13343e-01,-2.70301e-01,-9.38262e-02,-4.05615e-01,3.91375e-02,5.83899e-01,6.09326e-01,5.31468e-01,2.14653e-02,5.84574e-01,-4.62022e-01,-4.15054e-01,-1.23102e-01,4.91352e-01,2.61843e-01,-3.22864e-01,2.09857e-02,3.44612e-01,2.29912e-01,2.48157e-02,2.23695e-01,2.92369e-01,-2.75735e-01,-5.25630e-02,-3.37626e-02,
-3.39235e-01,-2.90476e-02,1.65875e-01,-1.56544e+00,-4.00433e-01,7.04806e-01,-3.49060e-01,9.07144e-01,-5.84277e-01,-9.23450e-01,8.66081e-02,-4.94929e-02,-7.81581e-01,-1.67101e+00,5.32185e-01,4.00409e-01,-9.44658e-02,-3.17345e-01,7.26631e-01,5.35429e-03,1.42911e-01,3.11601e-02,-7.50061e+00,-3.19052e-01,8.59864e-01,9.16434e-02,-9.17821e-01,-1.94474e-01,-3.10275e-02,3.95938e-02,-2.86085e-01,8.62695e-01,-5.39311e-01,1.61848e-03,5.47097e-02,4.03123e-01,7.89896e-01,5.83202e-01,2.20542e-01,3.36910e-01,1.29685e-02,2.01556e-02,-1.72018e-01,7.34199e-01,-2.73161e-02,-8.48454e-01,1.47703e-01,7.51429e-01,-2.85627e-03,-9.65503e-04,
-1.53112e+00,
-2.09376e-02,
-1.76008e-02,
-1.55097e+00,
4.79074e-02,
5.22052e-01,
4.54502e-02,
-6.02713e-01,
-1.51309e+00,
5.68725e-01,
-1.92654e-02,
1.29078e-01,
1.30197e-02,
4.21735e-01,
1.15570e+00,
-3.06444e-02,
4.33618e-01,
-2.42082e-01,
-1.51586e-01,
-6.03794e-02,
1.22118e-01,
-1.59548e+00,
-3.39467e-01,
-1.81112e+00,
3.40404e-01,
-1.54032e+00,
-6.54735e-01,
-3.82640e-03,
7.05534e-01,
-1.76935e-02,
7.80677e-01,
-1.13624e+00,
4.62798e-01,
7.04558e-01,
-2.80797e-02,
5.56414e-01,
-4.87564e-01,
-3.08240e-01,
-1.33552e-02,
-1.08621e-01,
1.07836e-01,
3.27473e-01,
4.96027e-01,
2.16514e-01,
7.04507e-01,
-1.59827e+00,
-9.38229e-02,
1.55133e-01,
6.97044e-01,
-1.47287e+00,
-3.49933e-01,-5.27499e-02,-2.58474e-02,-8.80251e-01,-3.39344e-01,-9.57213e-01,-4.03681e-01,9.02975e-02,2.82281e-01,4.38700e-01,-2.44990e-03,1.61586e-01,-3.72542e-01,1.70123e+00,2.13842e-01,-9.69012e-03,1.26567e+00,-5.16893e-01,5.22660e-01,6.58861e-01,-1.60232e-01,5.15627e-01,5.81334e-01,1.30996e+00,2.97470e-01,9.74959e-02,8.09145e-01,8.09143e-02,2.63723e+00,-4.56510e-02,-1.41968e+00,2.60345e-01,1.16083e+00,4.35284e-01,-1.08675e-02,1.60526e-01,1.52999e-01,-4.07106e+00,-1.93072e-02,-3.04584e-01,2.12157e-01,3.30800e+00,-8.05148e-01,2.85630e-01,-2.29349e+00,8.36734e-01,-8.64341e-01,-2.61388e-01,-2.59711e+00,-3.25502e-02,
-3.72903e-01,3.99971e-02,-1.91548e-03,1.02734e-01,-4.36159e-01,6.69118e-02,-6.42738e-01,-4.69774e-02,1.09497e+00,5.86883e-01,-1.40859e-02,-3.42701e-01,-3.84411e-01,6.88787e-01,3.79175e-01,3.85618e-02,3.80710e-01,1.22519e+00,-3.91430e-01,2.17437e-01,-3.20290e-01,2.90307e-01,-3.56976e-01,-4.00945e-01,-5.26528e-02,3.05694e-01,1.46522e-02,-8.85516e-02,1.79913e-01,4.42651e-02,2.01978e-01,6.23648e-01,1.12417e-01,4.26461e-01,-4.21831e-02,-8.60907e-02,9.61443e-01,1.75804e-01,-1.89459e-02,3.09120e-01,3.79053e-01,6.08701e-01,-3.84615e-01,1.62504e-01,2.34528e-01,-2.41719e-01,8.62991e-02,-1.52763e-01,1.23469e-01,-4.62246e-02,
9.00269e-01,-2.54167e-03,-4.58543e-02,8.06995e-02,-6.26652e-01,-8.14528e-01,-2.02832e+00,2.22165e-01,1.56350e+00,-2.75704e-01,2.87468e-02,-3.80285e-01,1.71840e-01,9.67947e-01,-2.21778e-01,9.63652e-03,2.72254e-02,-1.93706e-01,1.12209e-01,-7.63970e-01,-4.80046e-02,-3.81570e-01,4.87840e-01,1.59970e-01,-1.29404e-01,-1.37677e+00,-8.19819e-02,-1.03409e+00,1.43687e+00,-3.41761e-02,-1.33927e+00,3.90338e-01,-4.19385e-01,-2.18824e-01,2.31194e-02,-1.31877e+00,9.93958e-01,1.64742e+00,-3.80911e-02,5.02413e-01,2.72944e-01,-1.82776e+00,-1.51227e-01,4.65710e-01,3.09914e-01,1.05262e+00,-1.00057e+00,-5.58981e-01,-1.90638e-01,-3.66123e-02,
-9.77677e-01,-4.93404e-02,2.81335e-02,-1.28066e+00,-4.40205e-01,5.86068e-02,-6.72008e-01,-2.75187e-01,-9.12809e-02,8.59235e-01,2.96158e-02,-3.78891e-01,-8.11446e-02,5.96515e-01,1.83936e-01,-2.99362e-02,-6.01984e-01,-2.63109e+00,-6.99693e-01,2.08211e-01,8.54355e-01,4.41344e-01,-5.04105e-01,-8.13133e-01,6.38303e-01,-2.78131e-01,3.57332e-01,1.10389e-01,7.63875e-01,3.83261e-02,4.26701e-01,4.17580e-01,-8.87947e-01,9.51139e-02,2.17037e-02,3.48241e-02,-8.35435e-01,-3.47348e-01,-1.96318e-02,2.92730e-01,-5.88529e-02,5.90734e-01,1.02261e-01,-3.04945e-01,-8.94470e-01,-4.44560e+00,-6.77633e-01,1.34736e-02,-5.32061e-01,7.26213e-02,
3.33915e-01,4.22050e-02,2.05768e-02,-3.94638e-01,-2.06331e-01,-1.36840e-01,4.39720e-01,4.81712e-01,7.72534e-01,4.65147e-01,-8.70647e-04,-1.20827e+00,-4.76390e-01,4.64059e-01,1.31951e+00,-3.40322e-02,-9.39360e-03,-1.29827e+00,-2.74751e+00,3.65705e-01,-5.92092e-01,-4.23209e-01,1.20511e+00,-3.72358e-01,6.90560e-02,-1.82055e-01,4.06483e-01,-1.85100e-01,2.99923e-02,-1.08777e-02,-3.13062e-01,1.17705e+00,1.99479e+00,1.94181e-01,2.52387e-02,5.61853e-02,1.06197e+00,-1.14354e+00,3.59729e-02,4.26952e-02,-1.62178e+00,1.42319e+00,-8.67692e-01,-2.73319e-01,8.67028e-01,-7.90201e-02,1.33438e-01,1.43419e-01,-1.01079e+00,7.07596e-02,
-2.00412e-01,3.77212e-02,3.38725e-02,-7.48846e-02,-8.79115e-02,7.87382e-02,3.32772e-02,4.35139e-02,-4.47600e-02,-4.04297e-03,-4.32446e-02,8.00396e-02,1.47301e-01,-2.27554e-01,-8.59920e-02,7.07052e-03,1.19942e-02,5.10103e-02,-7.27890e-02,3.66489e-01,-6.63504e-02,-7.21240e-02,-3.40316e-02,-7.00929e-02,-8.94262e-02,-1.75275e-01,5.91565e-02,1.48958e-02,-1.18181e-01,2.38250e-02,-9.87621e-03,-5.21723e-02,-5.25663e-02,-1.56080e-01,2.68332e-02,-5.93941e-02,-6.61395e-02,5.71646e-02,4.01007e-02,-2.02936e-01,1.89183e-02,-1.94623e-01,-7.28939e-02,1.41728e-02,6.29577e-03,-2.18075e-01,4.75715e-02,-1.71120e-02,-1.25332e-01,-5.86372e-02,
6.60042e-01,2.85163e-02,-8.40566e-03,6.46466e-01,5.72049e-01,3.69989e-01,-1.29846e-01,-5.61437e-01,-1.27032e+00,-9.27265e-01,-3.69191e-02,1.53012e-01,-5.25077e-01,1.55283e-01,-5.46897e-01,2.67236e-02,2.80276e-01,1.23573e+00,1.33418e-01,-5.91681e-01,-2.80411e-01,5.96694e-01,-1.04997e+00,1.32814e+00,8.53620e-02,3.53638e-01,1.83136e-01,5.90593e-01,-2.35225e+00,-3.60692e-02,-2.68634e+00,-9.23014e-01,3.01530e-01,4.39793e-01,3.39353e-02,9.39392e-01,-2.86432e-01,8.73188e-01,5.90337e-03,-2.82605e-02,-1.00860e+00,1.59381e-01,1.17717e-01,-2.28639e-01,-1.70704e+00,-5.70536e-01,5.61481e-02,-3.56591e-02,-1.33645e+00,9.36209e-01,
-3.87869e-02,-5.64843e-02,3.00747e-02,1.61108e-01,9.36650e-02,3.22402e-01,-5.23159e-01,3.08562e-01,1.43262e+00,6.83551e-02,-7.21760e-03,2.01675e-01,2.76322e-01,9.81348e-01,1.46928e-01,4.87322e-04,5.29693e-01,-1.20005e-01,3.87244e-01,-3.33502e-01,-1.98487e-01,-3.19484e-01,2.92160e-01,-4.65519e-01,9.53656e-02,2.05928e-01,8.61071e-02,-1.17581e-01,-2.27157e-01,2.44551e-02,7.55971e-01,5.51552e-01,2.56814e-01,-2.13378e-01,5.85950e-02,-1.63891e-01,-5.75008e-01,2.07685e-01,3.29781e-02,-1.60955e-01,3.58610e-01,1.09652e+00,-8.91766e-02,2.18228e-01,4.95963e-01,2.29839e-01,2.49078e-01,-3.37147e-01,-1.54656e-01,-2.32324e-01,
-1.20293e-01,4.41322e-02,-5.12156e-02,1.00116e-01,5.45127e-02,4.00859e-01,-1.00586e-01,2.77860e-01,-1.56889e-01,-5.84703e-02,1.22519e-02,-1.56909e-01,3.73217e-01,5.74149e-01,-5.55510e-01,-4.90521e-02,-1.57624e-01,9.26227e-02,-9.77217e-02,2.48222e-01,6.07309e-02,4.54097e-02,-5.48783e-02,-9.39506e-02,-5.33863e-02,5.78403e-01,-4.08757e-02,2.71547e-01,-2.36964e-01,3.31171e-02,5.08257e-01,6.58780e-04,-3.33813e-01,-1.29137e-01,5.45858e-03,1.49544e-01,-1.60681e-01,3.02520e-01,-3.71347e-02,5.23784e-02,1.58782e-01,3.86549e-01,-1.35699e-01,5.33079e-02,4.09534e-01,-6.35044e-01,4.01790e-01,-5.16436e-02,5.82427e-01,-4.78867e-01,
-1.88184e-01,3.88302e-02,-3.40459e-02,-7.38454e-02,-1.95029e-01,1.35093e+00,-1.37570e+00,-2.14457e-01,-3.91517e-01,-5.61912e-01,-4.65290e-02,-9.22132e-01,2.21243e-01,1.82634e+00,-2.23788e-01,1.09694e-03,2.72837e-01,-3.26179e-02,1.60489e-01,-7.63279e-02,-9.06397e-01,4.87723e-01,6.78983e-01,-7.51507e-03,3.84563e-02,3.10062e-01,4.72028e-01,-9.62743e-02,-9.53834e-01,3.33810e-02,-4.76863e-04,-6.67529e-01,3.93229e-02,9.82604e-01,-2.83902e-02,-5.34630e-02,3.08071e-01,1.83081e-01,2.65684e-02,6.76021e-02,7.05074e-02,-1.14089e+00,4.35438e-01,-6.05360e-01,6.53171e-01,-1.97419e-01,-3.57706e-01,9.61215e-01,2.38286e-01,-1.84962e-01,
6.51329e-02,-2.49139e-02,-2.79894e-02,-9.71022e-02,-1.86636e-01,2.49749e-01,-1.64660e-01,-4.45499e-01,-2.21424e-01,4.77998e-01,1.26660e-02,2.85133e-02,-1.94457e-01,-9.09239e-02,-2.50059e-01,-3.39432e-02,2.40770e-01,1.07817e+00,2.63972e-01,-1.24012e+00,-7.48474e-01,2.70416e-01,-1.19639e-01,1.21614e-01,1.06587e-01,-1.48710e-01,-1.71891e-01,6.53470e-02,7.28372e-01,-3.82733e-02,3.60532e-01,-1.01841e-01,9.72568e-02,-7.00292e-02,-6.06031e-03,-7.75111e-02,-3.37433e-01,5.00911e-01,-2.36287e-02,1.60553e-02,3.57910e-01,-1.41194e-01,5.69470e-01,-1.02626e-02,-7.99245e-01,4.11104e-01,6.80229e-02,1.39846e-01,-2.16689e-02,2.39999e-02,
5.98027e-02,-3.53410e-02,2.99663e-02,1.78806e-02,5.89474e-02,1.62729e-01,1.86336e-01,-4.67774e-02,3.27043e-01,-3.45602e-01,-3.17589e-02,-2.37587e-02,4.84308e-02,-3.54972e-01,-1.08227e-01,-3.49268e-02,-9.76368e-02,1.07138e-01,1.20020e-01,-1.91221e-01,-4.02151e-01,-6.94478e-03,-3.43561e-01,-1.21620e-01,-1.54517e-02,2.13076e-01,3.54762e-02,1.48680e-01,1.09491e-01,2.68450e-02,-5.57136e-03,8.96155e-02,-4.35537e-01,-1.75846e-01,-9.09406e-03,-4.88435e-01,2.63180e-01,-5.29320e-01,3.60855e-02,4.17504e-02,1.80307e-01,4.38584e-02,-1.70617e-01,-3.24084e-02,-1.22383e-02,3.40684e-02,-9.26427e-02,5.76032e-02,1.80319e-01,-1.73100e-01,
2.37572e-01,-4.56013e-02,-1.69778e-02,-1.78339e-02,-4.15817e-01,-1.28250e-01,-3.45535e-01,1.34440e-01,-1.92620e+01,-1.29601e-02,4.09382e-02,2.27175e-01,8.86463e-02,2.09407e-01,2.44504e-01,1.12347e-03,-1.79772e-01,3.73743e-02,-1.07820e-02,4.99023e-01,6.86719e-02,8.82190e-02,8.60266e-01,-5.11985e-01,5.58713e-02,8.06655e-03,-1.34369e-01,-4.31717e-02,-3.62997e-01,-2.15032e-02,8.31276e-01,-3.35993e-01,-1.56316e-01,5.27688e-02,2.83575e-02,4.66084e-01,-3.24510e-01,4.40036e-01,5.20445e-02,5.84701e-01,1.65475e-02,1.09224e-01,3.74627e-02,2.95791e-01,1.74718e-01,-3.22526e-04,5.55746e-01,-2.10879e-01,5.08438e-02,8.61193e-03,
-8.98786e-02,-2.79307e-02,1.23921e-02,-1.27890e-01,-5.38122e-01,-2.71448e-02,-3.87872e-01,-1.51976e-01,2.31854e-01,-2.15681e-01,-5.74469e-03,-9.91606e-02,1.55249e-01,-3.92751e-01,2.25178e-01,-1.05816e-02,-1.70133e-01,-1.61060e-02,-5.17816e-02,-8.02690e-02,-2.23179e-01,-7.69077e-02,1.78773e-01,1.11767e-03,-8.42040e-03,3.22003e-02,1.00113e-01,-4.47400e-03,6.92908e-01,2.99768e-02,-2.32718e-01,1.77675e-01,5.59707e-01,-2.37312e-02,4.41112e-02,1.11912e-01,6.43784e-02,-4.95989e-03,7.66774e-03,-1.82467e-02,-9.92141e-02,-1.76903e-02,1.45383e-01,1.59599e-01,-9.83795e-02,-1.39131e-01,3.75184e-02,-2.60157e-02,-2.20714e-01,-2.98722e-01,
1.18058e-02,4.08707e-02,2.81588e-02,1.72436e-01,-4.98092e-01,-1.44730e-01,2.22749e-01,-1.73346e-01,-9.11506e-02,-8.69422e-03,4.13722e-02,2.08937e-02,5.74221e-02,5.79645e-01,-6.19019e-02,-5.17482e-02,8.97869e-02,5.17905e-01,-2.08548e-01,-1.36229e+00,-1.48186e-01,1.65706e-01,1.57877e-01,1.02912e-01,-7.24235e-02,-1.30740e-01,-9.30264e-02,-9.30535e-02,-2.30990e-01,2.12622e-02,-1.48467e-01,3.05341e-01,-1.41243e-01,2.88113e-01,2.06558e-02,4.17139e-01,-1.57534e-01,-3.31656e-02,3.70909e-02,4.35496e-01,-3.42232e-02,-3.41536e-01,-1.92314e-01,-9.44647e-02,-1.18886e-01,1.26379e-01,-1.07956e-01,4.93703e-01,1.50166e-01,3.75005e-02,
1.88154e-01,-8.88945e-03,-4.50030e-03,2.55672e-01,7.71358e-01,-6.23397e-01,-1.19917e+00,2.83300e-01,1.01337e+00,-5.49349e-01,-5.72949e-03,-2.31433e-01,1.86955e-01,-1.59230e+00,-2.09093e-01,4.19578e-02,-2.49517e-01,-3.29071e-01,3.09016e-02,6.59230e-01,-3.02945e-01,2.16836e-01,-3.11251e+00,-4.18704e-02,1.46049e-01,-2.30928e-01,-2.64829e-01,-5.17174e-01,-6.95669e-02,2.25991e-02,-1.26520e-01,-4.05861e-01,1.50611e-01,-7.04992e-01,-7.86851e-03,-5.13822e-01,6.16359e-01,-1.95579e-01,3.39856e-03,2.27379e-01,1.03869e-01,-2.19703e-01,1.24974e-01,-1.19387e-01,-1.30926e-01,-3.05610e-01,-1.30974e-01,-1.16904e+00,3.56181e-01,6.42323e-01,
8.38218e-04,1.14765e-02,1.34409e-02,-2.69058e-01,4.34297e-01,4.65762e-02,4.70321e-01,5.29917e-02,3.66335e-02,7.43167e-02,3.03586e-02,-8.67653e-02,2.81541e-01,-7.87683e-01,-2.04266e-01,7.85746e-03,-6.17682e-01,2.81086e-01,-5.21507e-01,-5.08294e-01,1.32295e-01,2.34980e-01,2.93131e-01,-7.95886e-02,-4.35747e-01,-6.05812e-01,-5.00773e-01,-5.91697e-01,5.18639e-01,2.65647e-02,-2.44484e-01,3.03443e-01,-7.44717e-01,-1.58593e-02,-1.71587e-03,-1.46924e-02,4.57442e-01,6.60845e-02,3.57406e-02,2.04572e-01,-4.75221e-02,-3.36830e-01,-4.40210e-01,-5.23153e-02,4.29406e-01,-5.02799e-01,7.11943e-01,1.13088e-01,1.27555e-01,5.89811e-02,
-5.55282e-01,-2.88588e-02,3.95084e-02,9.46018e-01,6.77362e-01,-1.40943e-01,-8.80129e-01,4.98443e-02,-1.54983e+01,-2.40193e-01,1.52276e-02,1.22420e+00,-1.12922e-01,-1.51086e+00,2.36712e-01,2.02567e-02,1.37458e-01,-1.69560e+00,-2.65442e-01,-4.04461e-01,-5.81032e-01,9.21677e-02,-9.25839e-01,-3.84190e-01,-1.45434e-01,-1.45104e-01,5.73799e-02,-4.44397e-02,5.16206e-01,3.44434e-03,6.70590e-02,-8.33618e-01,3.31198e-01,-1.22150e+00,2.75731e-02,-3.34516e-01,-3.59230e-01,5.07249e-01,-2.96725e-03,1.39172e-01,9.93280e-02,-4.47934e-01,2.28748e-01,-2.27260e-01,-2.56914e-01,4.14581e-01,4.14333e-01,1.01457e+00,1.47027e-01,4.49601e-01,
3.72038e-01,3.57097e-02,1.95081e-02,4.63079e-01,-5.91916e-01,3.71160e-01,8.71633e-01,-5.34575e-01,3.23292e+00,1.20914e-01,-3.90668e-02,-8.94120e-01,2.14252e-01,5.05180e-01,5.97926e-02,3.09937e-02,-6.78200e-01,-9.29108e-02,-4.25716e-01,3.06237e-01,5.59691e-01,1.35551e+00,2.03878e-01,5.97027e-01,9.61617e-02,5.81686e-01,-3.04393e-01,-4.52855e-01,-1.04952e+00,-4.96486e-02,-5.38222e-03,1.45663e-01,-6.85981e-01,1.88734e-01,2.85982e-02,7.05499e-01,-4.50370e-01,-3.26974e-01,2.22132e-02,6.53211e-01,-4.41027e-02,-8.79260e-01,3.38901e-03,-4.15633e-01,6.70931e-01,-9.48080e-01,-4.33737e-01,-3.89863e-01,-1.75128e-03,-1.16636e-01,
-1.11822e-02,-1.81107e-02,-3.95235e-02,-2.26706e-01,-2.66208e-01,1.09961e-01,-4.69952e-01,1.31315e-01,1.78254e-01,2.44158e-01,-4.68579e-03,1.62340e-01,-1.43389e-02,1.41414e-01,-8.07909e-02,1.97124e-02,1.14830e-02,3.30709e-03,6.47691e-02,3.89214e-01,1.79089e-01,3.15191e-02,-1.01881e-01,-7.87642e-02,8.40939e-02,3.36019e-02,8.71938e-02,5.28632e-02,-1.14666e-01,-4.14854e-02,4.66195e-01,-1.25651e-01,3.30448e-01,-4.50304e-01,7.30782e-03,1.61991e-01,-4.32709e-01,5.49454e-01,4.15386e-02,-3.36722e-01,-1.08841e-01,2.04794e-01,2.33496e-01,4.03380e-01,-9.41941e-02,4.64241e-01,2.02659e-01,4.05166e-01,-1.56817e-01,-2.03620e-01,
7.57443e-01,2.57975e-02,1.49350e-03,4.01131e-01,-7.30352e-01,-4.99229e-01,2.23944e+00,3.14401e-01,3.82106e-01,-6.12217e-01,-4.05657e-02,1.43712e-01,3.13644e-01,4.40797e-01,-9.55513e-02,-1.91438e-02,4.15684e-01,-2.78698e-01,8.05774e-02,-2.49795e+00,1.59044e-01,-4.16655e-01,1.33177e-01,4.59325e-01,-1.80165e-01,4.79568e-01,-1.12503e-01,-2.19558e-01,-5.06814e-01,-4.76579e-03,-8.95161e-01,-3.86820e-01,-4.90586e-01,-5.26097e-02,-4.05923e-02,-1.17256e+00,4.72516e-01,-2.24626e+00,-6.61471e-03,3.56204e-01,3.26401e-01,-8.09022e-01,-4.19036e-01,9.27918e-03,-2.69986e+00,6.53707e-01,-6.36855e-01,-1.99541e-01,-4.92411e-01,-5.83764e-01,
-2.48566e-02,1.09325e-02,-2.69168e-02,3.27291e-02,3.65358e-01,1.92333e-01,-4.96205e-01,3.27234e-02,1.65065e-01,2.81194e-01,4.38883e-02,-1.93090e-01,1.22497e-01,-1.14727e+00,-3.06327e-01,4.64143e-02,-5.17259e-01,4.42227e-01,-3.39694e-02,-6.10056e-01,1.84835e-01,4.69024e-01,3.86521e-01,-6.42289e-02,1.36820e-01,-1.09124e-01,-2.46186e-01,1.89391e-01,1.98241e+00,-1.82226e-03,-4.45229e-02,2.02752e-01,-4.64061e-01,2.34016e-02,3.88234e-02,-1.88339e-01,1.14930e-01,-6.93227e-01,3.87915e-02,4.92267e-02,1.43750e-01,-2.30989e-01,9.26703e-02,1.27197e-01,-6.23052e-01,-7.20723e-01,-9.04538e-02,-1.67796e-01,-1.31870e-01,4.40000e-02,
6.72462e-01,3.69628e-02,4.18938e-02,-2.27437e-01,-1.57098e+00,-4.66796e-01,2.03735e-01,-4.23900e-01,-1.47747e+00,1.93601e-01,-6.56904e-04,-6.41076e-02,-1.68372e-02,-3.39879e-01,2.51021e-01,1.22808e-02,-6.78274e-03,-1.33422e+00,-5.60537e-01,-1.21894e+00,2.27930e-01,-5.81826e-02,8.85389e-02,-4.82887e-01,1.02800e-01,-4.16981e-02,-2.76521e-01,-5.07388e-01,-7.06552e-01,4.66985e-02,-1.49365e+00,3.52699e-01,-2.25149e-01,3.05916e-01,2.63254e-02,-2.75863e-01,-7.89612e-02,1.38019e-01,1.81381e-02,5.09106e-01,2.90446e-01,4.78598e-01,-1.10648e+00,2.23483e-01,2.93019e-01,-4.27999e-01,-6.83977e-01,-5.85318e-01,-5.08863e-01,5.57769e-01,
-4.72156e-01,-3.51431e-02,-2.80347e-02,-4.06439e-01,8.30126e-01,-7.41705e-01,2.76848e-01,-5.51071e-01,4.06369e-02,6.38888e-02,2.67601e-02,-2.02679e-01,2.31209e-02,8.20310e-01,-3.72134e-01,2.69167e-02,-2.79703e-01,4.92931e-01,-1.69814e-01,7.83817e-01,-5.83067e-04,-3.97855e-01,-4.06260e-02,-2.19230e-01,-8.15539e-02,-4.47559e-01,-1.78855e-01,1.21096e-01,-3.34004e-01,2.26418e-02,-3.78845e-01,1.14898e+00,-7.13650e-02,-4.00702e-04,-6.00913e-03,3.50951e-01,1.58229e-01,-3.55878e-02,3.37532e-02,9.64453e-01,4.51344e-02,-1.03679e+00,-4.88717e-01,1.43349e-01,2.65578e-01,-4.71269e-01,4.40067e-01,2.54744e-03,5.59246e-01,-1.18714e-01,
-1.31706e+00,-3.98962e-02,-2.26056e-02,-8.60091e+00,-2.55068e-01,2.40889e-02,5.43074e-01,3.15432e-01,-1.99172e+00,-1.70814e-01,-3.96485e-02,3.87876e-01,-2.84525e-01,8.24945e-01,-1.81114e+00,2.04502e-02,5.50878e-01,2.48378e+00,1.15970e+00,-1.10779e+00,-3.09444e-01,1.14360e+00,-1.45310e+00,-2.15460e-02,2.35665e-01,-8.13387e-03,4.14309e-01,4.10651e-01,2.11323e+00,9.70732e-03,-6.37376e-01,-3.17214e+00,6.11059e-02,1.00383e-01,2.22593e-02,3.20630e-01,4.24906e-01,1.06787e-01,4.38811e-02,-6.60033e-01,8.18772e-01,3.78604e-01,-2.57356e+00,-2.38704e+00,1.78197e-01,-3.57635e-02,3.98394e-01,-2.85378e-01,-6.45246e-01,4.36129e-01,
-4.53946e-02,-2.19795e-02,-3.33467e-02,-7.72942e-02,-1.65904e+00,4.46195e-01,-9.12344e-01,-3.34088e-01,1.45444e-01,-5.81438e-01,2.36389e-02,7.58251e-01,-6.21729e-01,3.23530e-01,2.15308e-01,2.14751e-02,1.48989e-01,-1.69085e+00,1.67607e-01,-3.93834e-01,3.80964e-01,1.03007e+00,1.49600e-01,-1.19254e-01,3.32633e-01,-4.27487e-01,2.25777e-01,4.23898e-01,1.82336e+00,2.74935e-02,-2.11653e+00,-6.60630e-01,-5.66130e-01,3.43849e-01,-3.02530e-02,-3.95873e-01,-3.43528e-02,1.37862e+00,-3.30488e-02,-4.38435e-01,1.33568e-01,-3.78528e-01,1.26178e-01,7.62602e-02,5.09088e-01,7.05222e-01,-8.89155e-01,-5.64015e-02,-1.03118e+00,-3.94462e-01,
1.47508e-01,1.69149e-02,-3.39677e-02,-8.03593e-01,6.02825e-01,1.11456e-01,4.74000e-02,1.02833e-01,1.96410e-01,2.33145e-01,-3.34026e-02,-2.03307e-01,-3.73851e-01,-1.41139e-01,6.82621e-01,1.68331e-02,3.37557e-01,-3.63543e-01,-1.48749e-01,3.48544e-02,1.86716e-01,6.70370e-02,-2.76623e-01,-2.72836e-01,-1.45389e-01,-3.88043e-01,1.43447e-01,8.48466e-02,4.96140e-01,2.80581e-02,-1.86124e-01,-6.46507e-01,4.71839e-02,-1.04415e-02,1.19951e-02,3.16365e-01,9.77323e-03,-1.21489e+00,-4.31792e-02,-5.85526e-03,-2.23381e-01,-3.95876e-01,-8.90721e-02,-1.10986e-01,-9.63650e-01,-2.66480e-01,-2.92778e-01,3.53989e-01,-2.02422e-01,1.38475e-01,
3.84406e-01,-1.70701e-02,-2.40891e-03,5.70672e-01,1.31136e+00,1.75450e-01,1.49025e-02,2.14508e-02,4.05671e-01,1.43210e-02,-2.96648e-02,-1.49466e-02,1.21146e-01,3.42254e-01,-1.10913e-01,-3.75192e-02,1.11667e-01,-2.05180e-01,1.24251e-02,-4.47065e-02,2.12291e-01,-3.94986e-02,-7.57503e-01,5.73943e-01,2.56708e-01,-2.95307e-01,-1.74941e-01,-8.70880e-02,1.10261e-02,2.17914e-02,-5.94362e-01,5.15874e-01,-7.12860e-01,1.22308e-01,-6.41288e-02,3.34146e-01,3.53150e-01,-1.85522e-01,-7.20338e-03,7.26803e-02,-1.21916e-01,1.02558e+00,-2.43476e-01,-2.48351e-01,5.00830e-01,2.04370e-01,-6.88936e-02,-2.24787e-01,-1.72473e-01,-3.22400e-01,
-4.00851e-01,-2.26894e-02,4.21621e-04,8.84688e-02,4.80628e-01,1.88006e-01,2.14439e-01,-1.52474e-01,-2.01977e-01,-7.18411e-01,-2.93781e-02,-8.18624e-01,5.26592e-02,3.03647e-01,-8.45199e-02,7.51931e-03,-8.94665e-02,-3.74592e-01,3.01863e-01,-1.58094e-01,-2.23931e-02,-7.42414e-02,-2.95897e-01,-2.99207e-01,-5.65322e-02,3.73949e-01,5.00001e-01,-1.89562e-01,-6.22653e-01,1.21125e-02,-1.17352e+00,-1.79731e-01,4.49672e-02,-4.11107e-02,3.90723e-02,3.79461e-01,4.99237e-01,2.81763e-01,3.14456e-02,4.07579e-01,-7.20917e-02,-2.33495e-01,9.09895e-02,-2.77469e-01,4.51694e-02,-3.10284e+00,-4.55069e+00,-2.20884e-01,-5.21000e-01,5.87231e-01,
1.50999e-01,2.63850e-03,-1.10875e-02,-1.00363e+00,-1.37503e+00,-2.08763e-01,-3.48782e-01,1.06980e-01,-2.71683e-01,-2.42328e-01,-2.60174e-02,-9.34359e-01,-1.24071e-01,1.34427e+00,-3.21800e-01,-3.41825e-02,1.19248e-02,-1.76113e-01,-9.61483e-01,-1.04414e-01,-2.01330e-01,-5.37899e-01,1.97082e-02,-2.56356e-02,1.79678e-01,-1.81087e-01,-1.13792e-01,6.30369e-02,1.17625e+00,4.07047e-02,-2.09533e-01,1.65527e-01,-5.03354e-01,1.38197e-01,2.56020e-03,6.07162e-02,-5.52121e-01,8.88514e-01,3.26876e-02,-1.15258e-01,5.65700e-02,-8.26539e-01,-1.38382e-01,-4.45125e-01,1.03664e+00,4.39111e-01,7.34311e-01,-1.00571e-01,-5.72226e-02,5.41902e-01,
-5.13308e-01,-4.05772e-02,-1.98047e-02,-1.37398e-01,-5.31344e-01,-1.37427e-01,-1.13466e+00,-3.58595e-01,6.25822e-01,-3.75806e-02,-1.41292e-02,-1.64752e-02,3.05875e-01,-7.26342e-01,-2.28404e-01,3.66372e-02,5.90589e-01,1.03860e-01,1.00356e-01,-1.00586e+00,-6.26523e-01,-1.46004e-01,2.53859e-01,-1.77965e-01,1.62950e-03,2.76035e-02,3.43439e-01,7.42855e-02,1.02193e+00,-2.19070e-02,-2.01447e-01,2.17757e-01,6.69790e-01,5.36794e-01,6.46704e-03,-4.12455e-01,5.55728e-02,-9.35043e-01,-2.83369e-02,-6.11471e-01,-5.19022e-02,5.84421e-01,-4.60165e-01,2.05442e-01,-8.67053e-01,-3.02616e-01,-3.24629e-01,4.44821e-01,-4.11199e-01,-2.33546e-01,
-3.34349e-01,2.56534e-02,1.64660e-03,-6.19093e-01,7.49394e-01,5.56046e-02,4.36304e-01,-1.63261e-01,-3.04422e-02,-1.84968e+00,-4.38148e-02,5.56799e-01,-1.86132e-01,8.82194e-01,2.73536e-01,-1.82465e-03,4.93637e-01,1.79425e+00,1.67844e-01,-1.09219e+00,5.58949e-01,1.47460e-01,4.03594e-01,6.14081e-02,-3.32109e-01,4.43083e-01,-1.38674e-03,2.49963e-01,-1.48113e+00,2.91550e-02,2.09758e-01,-4.97944e-01,1.04047e-01,-5.47794e-01,1.27275e-02,-1.08263e-01,-4.50486e-02,1.29405e+00,-3.71000e-02,4.64630e-01,-4.05491e-01,-3.21708e-01,-1.44356e-01,-4.71868e-01,6.62028e-01,-1.86953e-01,-1.00504e+00,5.18909e-01,-2.78321e-01,4.71695e-01,
6.73259e-02,-4.74687e-02,-3.99661e-03,3.23525e-02,-1.59630e-01,-2.05539e-01,4.83189e-01,-1.42937e-02,7.35773e-03,4.22075e-01,6.41141e-03,-3.51759e-01,-8.06122e-02,6.80057e-01,4.15498e-01,-2.64783e-02,6.96376e-02,-2.31416e-01,-2.08782e-01,-1.26540e-02,-2.87849e-01,-2.65387e-01,2.80502e-03,1.57983e-01,-6.45733e-02,9.74066e-02,1.94727e-01,6.46477e-03,3.82560e-01,-1.92457e-04,2.36115e-02,5.89972e-02,4.95690e-01,2.37695e-01,3.27250e-02,-6.26389e-02,2.20918e-01,1.46602e-01,2.42358e-02,2.36178e-01,-1.72533e-01,1.09482e+00,-2.78181e-01,-2.71623e-01,1.76127e-01,-6.11709e-02,8.62711e-02,4.29817e-01,-4.39101e-01,5.88611e-02,
-1.68967e-01,-4.03892e-02,-2.27529e-02,-3.25293e-01,-7.76593e-01,-1.29198e-02,4.27866e-01,3.77262e-01,6.70723e-01,-1.30344e-01,1.34616e-02,-9.71389e-02,-4.31270e-01,-2.03911e-01,-7.88545e-02,-2.30743e-02,-1.36095e+00,1.92403e-01,-1.01247e+00,4.55359e-01,3.71785e-01,-4.05382e+00,1.88600e-01,-6.75857e-01,-1.53327e-01,3.87823e-01,-1.92672e-01,-2.43782e-01,-1.16215e+00,-5.54089e-03,3.25985e-01,-2.30048e-03,7.54683e-01,-2.86393e-01,-3.50170e-02,6.01302e-01,3.76271e-01,-2.96558e-01,-1.11118e-02,3.41604e-01,2.66769e-01,9.89193e-04,-1.90085e-02,-4.22364e-01,-7.69797e-02,-8.42364e-01,4.90442e-01,5.78706e-01,-1.98846e-01,-5.19943e-03,
-3.18344e-02,-2.78853e-02,2.52985e-02,2.89299e-01,4.95266e-01,-4.89629e-02,6.15151e-01,6.32475e-01,2.24254e-01,5.52839e-01,-1.01876e-02,9.76542e-01,1.01308e-01,-1.00838e+00,8.83386e-02,-3.37577e-02,3.51846e-01,-3.02398e-01,-3.18900e-04,-4.07914e-01,2.05188e-01,-9.50510e-02,3.39871e-01,-2.40384e-01,2.41983e-01,2.81989e-01,3.22625e-02,4.99391e-01,-2.13993e-01,3.32112e-02,1.55375e-01,9.85284e-01,-1.77514e-01,3.39240e-01,-2.16605e-02,5.30704e-01,1.45758e-02,-3.74581e-01,2.92612e-02,1.98755e-01,4.84372e-01,2.84240e-01,-2.58190e-01,-4.85280e-01,-4.62891e-01,-6.88774e-02,-3.61214e-02,-1.88599e-01,5.10319e-01,3.31115e-02,
-4.49902e-01,-1.63259e-02,-2.20094e-02,3.49606e-01,3.37037e-02,-4.36552e-01,-4.03869e-01,-2.01478e-02,2.54379e-01,2.18204e-02,9.15392e-03,-8.35300e-02,-8.32616e-02,3.13248e-01,-4.00536e-01,2.04405e-02,4.31796e-02,5.81291e-01,1.13977e-02,-1.26816e-03,6.79215e-01,-5.22593e-01,-4.19765e-01,-1.70815e-01,4.89212e-02,3.94710e-01,3.54415e-01,4.04791e-01,6.93291e-01,8.49457e-03,5.28897e-01,6.57414e-01,5.01316e-01,5.17094e-01,3.80001e-02,-3.87026e-02,-4.17243e-01,5.83598e-01,-3.21211e-02,3.62625e-01,8.37448e-01,1.00204e+00,-1.22676e-01,-7.13443e-02,-3.73373e-01,-1.42150e+00,2.69709e-01,-3.25151e-01,2.81324e-01,5.00078e-01,
-8.48298e-02,-3.32235e-02,4.92319e-03,1.69254e-01,-3.57480e-01,4.96070e-02,-2.58420e-01,-2.82651e-02,1.80098e-01,-1.16778e-02,-2.78660e-02,9.43864e-02,4.48308e-02,5.60048e-02,-1.58776e-02,-8.00783e-03,1.15631e-01,2.71186e-01,2.12024e-01,2.99749e-01,-8.17035e-01,-8.65719e-04,1.77345e-01,-1.98745e-01,-2.74933e-03,-7.15929e-02,1.14165e-01,1.00765e-01,-3.88007e-03,3.70513e-03,-8.23255e-03,1.92072e-02,1.33222e-01,9.43453e-02,6.69041e-03,-1.01074e-01,1.86998e-01,8.37177e-02,1.29487e-02,1.82511e-01,1.25511e-01,2.73399e-01,3.02395e-02,9.73543e-02,-1.45777e-02,3.90520e-02,-2.71851e-02,-2.85536e-02,-3.60531e-02,-4.99238e-02,
2.03370e-02,2.56674e-02,-2.19738e-02,-4.27669e-01,-7.20715e-01,1.21144e-01,4.33261e-02,-2.32767e-01,3.91343e-03,1.46852e-01,-1.38752e-02,-1.18019e-01,-5.03125e-02,-1.12769e+00,6.24735e-01,3.36782e-02,-2.14721e-01,9.72328e-02,1.50845e-01,4.82343e-01,-2.63909e-01,-3.14600e-01,1.06774e+00,-2.42917e-01,2.39661e-01,-1.08936e-01,-1.57208e-01,2.70053e-01,-5.44414e-01,-7.66915e-03,1.07758e-01,-1.49081e-01,-6.82248e-02,1.74197e-01,-3.71836e-03,5.66430e-01,-1.46757e-01,3.71094e-01,2.54038e-02,5.96290e-01,-2.06786e-01,-5.91082e-01,3.51702e-01,-3.97775e-01,-2.51830e-01,3.26860e-01,-5.59849e-01,-3.16083e-02,1.03456e-01,-2.23048e-01,
8.27601e-02,3.73477e-03,3.43115e-02,-5.58261e-03,2.04003e-01,-2.30861e-01,-4.25122e-01,2.86250e-01,7.47999e-01,-5.46679e-02,6.38256e-03,-6.25573e-01,8.38305e-03,-1.99793e-02,1.03841e-02,-2.42163e-02,-2.48139e-01,-1.61141e-01,-2.92225e-01,3.05208e-01,2.75331e-01,-4.65218e-01,-1.51407e-01,1.34497e-01,-8.70980e-02,3.86516e-01,1.01178e-01,1.41675e-01,2.90700e-01,-4.36762e-02,3.12661e-01,2.18423e-01,-2.59120e-01,-6.83729e-02,1.35819e-02,1.86073e-01,-2.01108e-01,5.56970e-01,5.46864e-03,4.54544e-01,-6.64077e-02,4.43425e-01,3.21831e-02,-2.91406e-01,1.41322e-01,1.64761e-02,2.26778e-01,-7.50901e-02,1.44298e-01,1.55761e-01,
3.69995e-01,7.93963e-03,8.36246e-03,1.76915e-01,-3.48931e+00,-1.96697e-01,2.13487e-01,9.29191e-01,1.03721e+00,-4.14232e-01,-6.46798e-03,-2.96884e-01,2.06041e-02,-5.37162e-01,-6.68775e-01,-1.83971e-03,-1.15891e+00,-1.64292e+00,4.71738e-01,6.98281e-02,-5.13236e-01,4.94854e-01,3.44490e-01,-1.00749e+00,5.16303e-01,1.08799e+00,-9.18526e-02,3.51705e-01,-1.57870e+00,-4.83595e-02,6.87884e-01,-8.61336e-01,-1.95585e+00,-9.25950e-01,6.58954e-03,4.13009e-01,-1.75121e+00,2.43003e-01,1.42250e-02,6.63497e-01,4.55911e-01,7.86144e-02,5.04852e-01,8.51672e-01,-3.35756e-02,4.41249e-01,-8.42489e-03,1.53227e-02,1.27610e-01,5.21356e-01,
-5.56193e-02,-2.42561e-02,1.83003e-02,-5.34626e-02,-2.51626e-02,1.28511e-02,-5.18040e-03,-4.42691e-02,-3.79856e-02,1.72815e-02,-3.12255e-02,-3.42807e-02,2.41274e-02,-1.81120e-02,3.12385e-02,-3.77339e-02,1.70266e-03,-1.49983e-03,-6.17708e-02,-2.69919e-02,-7.23303e-02,4.24425e-02,-5.18566e-02,-1.98264e-02,8.34562e-03,-1.01507e-02,5.70645e-03,-1.44191e-02,1.24572e-02,4.91542e-02,-2.66465e-02,-2.12306e-02,2.75307e-02,-6.22718e-02,1.77424e-02,-4.52210e-02,2.43225e-02,9.58847e-03,-1.66510e-02,1.57023e-02,3.79371e-03,-3.09389e-02,-1.01364e-02,2.80445e-02,-5.34109e-02,1.64643e-02,2.82134e-03,-5.69920e-02,-7.55320e-03,-4.05715e-03,
-1.99187e-01,-1.77146e-02,4.06148e-02,4.40389e-01,-3.73375e-02,-8.80104e-01,1.41378e+00,-4.52523e-01,-4.55779e+00,1.90251e-01,-2.12220e-02,-1.66646e-01,-2.01251e-02,-1.26509e+00,-2.35276e-02,-1.48872e-02,1.09208e-02,-2.69492e-01,3.17965e-01,-4.28313e-01,8.83903e-01,-1.43435e-01,-6.27681e-01,-2.78191e-01,-2.02891e-02,-3.04346e-01,1.47544e-01,3.89685e-01,8.29454e-01,-1.29256e-02,-3.17963e-01,-2.75263e-01,4.45511e-01,-2.31416e-01,-4.20821e-02,-4.19722e-01,2.84990e-01,1.08036e+00,1.41281e-02,-2.91191e-01,3.66478e-01,-5.73385e-01,-8.11338e-02,1.28018e-01,-2.73636e-01,5.18204e-02,-3.54395e-01,-1.91174e-01,3.38447e-01,1.22236e+00,
-2.88185e-01,1.13600e-02,8.95670e-03,2.25337e-01,-2.18041e-01,-5.19851e-02,-5.07705e-01,-8.34027e-02,-3.94225e+00,-1.96304e-02,9.61913e-03,-6.97261e-02,-4.82316e-02,4.20965e-01,-2.45434e-01,-3.87223e-02,-2.78275e-02,6.61950e-02,1.03176e-01,-2.75076e-01,3.48533e-01,1.68706e-03,-9.94871e-02,5.06231e-02,1.36697e-01,2.71218e-01,-1.18082e-01,2.86195e-01,5.00414e-01,-3.12454e-02,5.47114e-01,-2.86964e-01,-5.32797e-01,6.20686e-02,1.50297e-02,1.34998e-01,-2.52315e-01,6.05481e-01,-3.19689e-02,1.79982e-01,3.61976e-01,-2.31079e-01,8.47743e-02,1.54015e-01,3.30356e-01,-3.84759e-01,2.71749e-01,-2.31231e-01,4.48676e-01,2.36191e-01,
-2.06411e-01,-3.39777e-02,4.66448e-02,3.14923e-01,4.08743e-01,-2.05995e-01,-3.12854e-01,-5.56418e-02,-1.99574e-01,1.85303e-01,3.46847e-02,2.62188e-01,-1.27625e-01,6.51341e-01,-3.27081e-01,-4.14960e-02,2.72530e-01,-1.44360e-01,-2.32377e-01,6.57087e-02,2.02496e-01,-1.36084e-01,-1.60769e-01,-1.93460e-01,-6.54875e-02,2.52639e-01,4.64984e-02,1.71868e-01,3.46396e-01,-3.47456e-03,6.45050e-01,-4.52688e-01,-3.32057e-02,-4.58974e-03,-3.74415e-02,-5.61515e-02,-3.86557e-01,-1.13738e+00,3.52716e-02,2.63053e-01,8.84539e-02,-5.02122e-01,1.96179e-01,-5.92148e-01,-4.44065e-01,3.52910e-02,-1.53016e-01,1.44535e-01,3.26373e-01,8.12539e-02,
2.56721e-01,-9.00113e-03,2.63775e-02,6.16578e-01,8.09769e-02,1.66714e-01,1.21586e-02,-3.40364e-02,-1.11845e+00,1.24325e-02,7.00044e-03,1.33572e-02,-4.86360e-02,4.20995e-01,1.95452e-01,-1.00052e-02,-1.55641e-01,1.99602e-01,2.74488e-01,2.08053e-01,4.44095e-01,4.78851e-01,4.02959e-01,5.54679e-02,2.57979e-02,1.54198e-01,-2.92642e-01,-6.83444e-02,-3.48674e-01,3.65929e-02,1.40843e-01,-8.06938e-01,-2.35091e-01,-8.59425e-02,-3.45927e-03,5.19930e-01,-9.91682e-02,-2.14425e-01,-3.33307e-02,3.24746e-01,-1.31071e-01,5.87608e-01,1.96665e-01,3.50587e-01,5.22399e-01,-1.68318e-01,7.03714e-02,-7.16196e-02,-3.85275e-01,3.21950e-01,
3.59054e-02,1.81185e-02,-2.06645e-02,-1.01577e+00,-2.21063e+00,-3.11080e-03,-4.63526e-02,7.70882e-02,2.09122e-02,-8.24595e-02,-2.43251e-02,-2.96050e-02,-1.77716e-02,7.11400e-01,1.53669e-01,-1.50156e-02,1.15074e-02,-1.22938e-01,-2.24973e-01,6.19937e-01,2.73982e-01,-1.63929e-01,-9.21727e-02,-6.62579e-02,-1.13608e-01,-1.17877e+00,1.11647e-01,-8.63966e-02,5.25780e-01,-4.65279e-02,-6.44383e-02,2.41095e-01,1.49442e-01,-2.47644e-01,-9.87232e-04,-8.67936e-02,2.87851e-01,-9.39965e-02,1.32060e-02,-5.66519e-02,-3.45028e-02,-2.25758e-01,-8.04998e-02,1.33036e-01,1.68427e-01,3.56753e-01,-4.01044e-01,2.83266e-02,-9.44986e-01,-3.10564e-02,
-3.71561e-01,9.75241e-03,-4.08539e-02,3.63046e-01,-3.05764e+00,-1.10276e-01,-5.57901e-01,7.00362e-01,-8.92096e+00,3.00303e-01,-2.63541e-02,1.14620e+00,-5.95625e-01,6.37239e-01,-2.15251e-01,-2.10463e-02,3.91161e-01,4.17394e-01,-4.94235e+00,2.49943e-01,-6.46326e-01,-1.22800e-01,1.62274e+00,2.33246e-01,2.15715e-01,2.98138e-01,-3.49705e-02,-4.06248e-01,-9.07475e-01,3.90812e-02,3.23838e-01,4.50166e-01,6.72877e-01,-7.58912e-01,1.27828e-02,-6.58091e-01,-5.64227e-01,1.24163e+00,-4.73017e-02,-2.73078e-01,2.93075e-01,-4.84114e-01,1.12389e+00,-6.96897e-01,6.34450e-01,7.17171e-01,1.28092e-01,1.30901e-01,2.47486e-01,9.24630e-02,
-4.70649e-01,-4.21769e-02,1.98847e-02,5.81300e-01,1.08020e-01,-3.43909e-01,3.91721e-01,5.07773e-01,-1.86546e+00,-4.28124e-01,-4.03761e-02,-5.00138e-01,-1.66729e-01,1.91953e-01,-2.49399e-01,2.81517e-02,-4.53309e-02,-5.97528e-01,-3.21566e-01,-3.93796e-01,7.87755e-01,-1.07853e-01,4.08273e-01,3.14280e-01,-2.70054e-01,1.11185e+00,2.28013e-02,-4.10342e-02,-5.06413e-01,-1.13715e-03,5.28356e-01,-9.67687e-02,4.91587e-01,1.28191e-01,1.12049e-02,-5.36166e-02,-4.60690e-01,4.66495e-01,7.45808e-04,-1.79945e-01,-1.20143e-01,3.54357e-02,-1.24413e-01,-9.47245e-02,9.97568e-01,-1.00966e+00,2.27456e-01,-1.59131e-01,5.81484e-01,9.82831e-01,
-3.13190e-01,-2.60411e-02,-1.71742e-02,6.84969e-01,8.51624e-01,-1.49225e-01,1.35826e-01,1.99193e-01,-1.88027e+00,1.67374e-01,-3.03618e-02,-6.08938e-01,1.98721e-01,6.69444e-01,3.62371e-02,3.27519e-02,-1.33927e+00,-4.39264e-01,3.27438e-01,-1.00983e+00,-1.02019e+00,-4.35582e-01,-3.18313e-01,-1.72269e-02,-1.14609e-01,-4.01330e-01,-1.72179e-01,7.72354e-02,-1.40550e+00,-8.68840e-04,-1.93717e-01,-1.49363e-01,1.60506e-01,-2.02374e-01,2.00301e-03,6.87387e-01,-4.13584e-01,5.48813e-01,-4.18598e-02,7.42245e-01,-1.76791e-01,-7.25585e-01,3.07731e-02,-6.23134e-01,1.61509e+00,7.04143e-01,5.18503e-01,-2.57583e-02,4.99701e-01,2.70782e-01,
-8.84636e-01,2.67934e-02,3.12733e-02,9.83786e-02,-4.31434e-01,-3.35845e-01,-3.01595e-01,-2.44205e-01,-5.57370e-01,1.11198e-01,1.24616e-02,-1.13417e-01,-6.58346e-01,6.76435e-01,-6.61217e-02,-2.79018e-02,-7.60887e-01,1.65975e-01,-1.43547e+00,6.85554e-01,4.37384e-01,-1.75300e-01,-4.83089e-01,-6.92432e-02,8.89395e-02,-1.50268e-01,-7.91283e-02,3.21306e-01,-7.96735e-01,4.45209e-02,-1.83293e+00,-9.75343e-01,-1.70083e-01,2.60836e-01,-3.00121e-02,1.04920e+00,6.07044e-01,1.55310e+00,7.98329e-04,-3.04128e-02,9.21680e-03,-1.93523e+00,2.42589e-01,-8.22096e-01,7.02644e-01,8.72834e-02,4.97186e-01,4.38811e-01,4.63345e-01,6.31290e-01,
-9.36690e-01,
-7.99556e-01,
-5.16254e-01,
3.38158e-01,
3.91329e-01,
5.66485e-01,
-1.07087e+00,
-9.62965e-01,
-1.37943e-01,
1.30275e+00,
8.44462e-01,
6.53031e-01,
-2.44837e-01,
4.32540e-01,
3.15638e-01,
9.68602e-02,
6.67622e-01,
9.12480e-01,
-1.62953e+00,
-2.62269e-01,
-5.14085e-01,
1.52643e-01,
4.63069e-01,
2.90420e-01,
-8.95180e-01,
1.19063e+00,
-2.91064e-01,
-4.11203e-01,
-7.42715e-01,
5.01829e-01,
3.37111e+00,
-7.16820e-01,
-5.02990e-01,
-6.86416e-01,
-2.05943e+00,
-9.91559e-01,
7.00077e-02,
-2.36761e-01,
-8.66266e-01,
